
//<![CDATA[

// a few things don't have var in front of them - they update already existing variables the game needs
lanesSide = 4;
patchesAhead = 40;
patchesBehind = 10;
trainIterations = 500000;

// the number of other autonomous vehicles controlled by your network
otherAgents = 0; // max of 10

var num_inputs = (lanesSide * 2 + 1) * (patchesAhead + patchesBehind);
var num_actions = 5;
var temporal_window = 0;
var network_size = num_inputs * temporal_window + num_actions * temporal_window + num_inputs;

var layer_defs = [];
    layer_defs.push({
    type: 'input',
    out_sx: 1,
    out_sy: 1,
    out_depth: network_size
});
layer_defs.push({
    type: 'fc',
    num_neurons: 30,
    activation: 'tanh'
});
layer_defs.push({
    type: 'fc',
    num_neurons: 30,
    activation: 'tanh'
});
layer_defs.push({
    type: 'fc',
    num_neurons: 20,
    activation: 'tanh'
});
layer_defs.push({
    type: 'fc',
    num_neurons: 20,
    activation: 'tanh'
});
layer_defs.push({
    type: 'regression',
    num_neurons: num_actions
});

var tdtrainer_options = {
    learning_rate: 0.001,
    momentum: 0.0,
    batch_size: 64,
    l2_decay: 0.01
};

var opt = {};
opt.temporal_window = temporal_window;
opt.experience_size = 300000;
opt.start_learn_threshold = 100000;
opt.gamma = 0.97;
opt.learning_steps_total = 100000;
opt.learning_steps_burnin = 3000;
opt.epsilon_min = 0.0;
opt.epsilon_test_time = 0.0;
opt.layer_defs = layer_defs;
opt.tdtrainer_options = tdtrainer_options;

brain = new deepqlearn.Brain(num_inputs, num_actions, opt);

learn = function (state, lastReward) {
brain.backward(lastReward);
var action = brain.forward(state);

draw_net();
draw_stats();

return action;
}

//]]>

/*###########*/
if (brain) {
brain.value_net.fromJSON({"layers":[{"out_depth":450,"out_sx":1,"out_sy":1,"layer_type":"input"},{"out_depth":30,"out_sx":1,"out_sy":1,"layer_type":"fc","num_inputs":450,"l1_decay_mul":0,"l2_decay_mul":1,"filters":[{"sx":1,"sy":1,"depth":450,"w":{"0":-0.044042317526467145,"1":0.007978613707782951,"2":0.007336877178088028,"3":-0.027130699392575872,"4":0.014223830811818643,"5":0.021216125597151567,"6":0.04429583947877579,"7":0.08210947684459105,"8":0.055180183189985466,"9":-0.026631046133032597,"10":-0.04790279532864856,"11":0.024542431451890584,"12":0.044564555830097066,"13":0.053977174552890535,"14":-0.027559577548129006,"15":0.039581867156270406,"16":-0.011120004347041445,"17":0.031244935486741583,"18":0.04802703687063775,"19":-0.05597660217697589,"20":0.11425091750755118,"21":0.07041182535936101,"22":0.09984882019198998,"23":0.04387265059897065,"24":0.013640789841274897,"25":0.11993555433175006,"26":0.044214377359209266,"27":0.08587248275483281,"28":0.02115311730935495,"29":0.005180882054514824,"30":-0.015057503028336883,"31":0.08731922920743014,"32":0.02969934765100939,"33":-0.02889829055446831,"34":-0.02120812320108405,"35":0.01743739879361615,"36":0.0231987514625178,"37":0.0646475267179482,"38":0.04850966092682867,"39":0.023058330471774007,"40":0.06566467491941305,"41":0.1010489478055311,"42":0.0446162676099932,"43":-0.027896983445128656,"44":-0.0020270461886845743,"45":-0.013246400046801554,"46":0.03504446128440838,"47":0.03926112306009198,"48":0.037998133340119256,"49":0.04401248093568871,"50":0.0772064802053202,"51":0.024307019807425372,"52":0.016340935358189625,"53":-0.011692313881925513,"54":0.0535042209432723,"55":0.03452791718700746,"56":-0.05296995222104338,"57":-0.025996976766490192,"58":-0.016147474563960765,"59":0.0007079228370863523,"60":-0.02738937832005238,"61":-0.01345122712299859,"62":0.06659035459221312,"63":0.031787750408147006,"64":-0.03924150774277453,"65":-0.014191851810768027,"66":0.06194529388363675,"67":0.01236867053415511,"68":-0.014175716142306616,"69":0.10567119565270092,"70":0.032179317395566266,"71":-0.03598855374595821,"72":-0.004165152929513853,"73":0.06495095508993329,"74":0.025144694289991134,"75":0.004168581860192453,"76":0.0051934472991691585,"77":0.017191382527475672,"78":0.033180468841380706,"79":0.05081311759162192,"80":0.10385803058289603,"81":0.022110324585914144,"82":0.045065464768312975,"83":-0.047785955593153885,"84":0.007870520287613229,"85":0.045776882567297554,"86":0.027941976984891804,"87":0.04745021385761541,"88":0.0011100568580331301,"89":0.003524878528832621,"90":-0.02859120050763526,"91":-0.018632995585466428,"92":0.02657813051001154,"93":-0.05328037357256423,"94":0.049944905898988826,"95":0.027350091105537093,"96":-0.04476155646356485,"97":0.014126310345028648,"98":0.011710818535265762,"99":0.04201052623318986,"100":0.021749403940950752,"101":0.07205249960965639,"102":0.06259836885207005,"103":0.11041084685514241,"104":0.06237422106406925,"105":0.015484190465908116,"106":0.0741222428306699,"107":0.041948716765108925,"108":-0.026943768985079757,"109":-0.006505188411232194,"110":0.018822136904954573,"111":0.06712832214935704,"112":-0.02513022975312953,"113":0.06308486023172025,"114":0.0030994778308553288,"115":-0.033051323828492594,"116":-0.011620460629252595,"117":0.0684491166185857,"118":0.009766429061056067,"119":-0.05428906380028995,"120":-0.06977700287300884,"121":0.0702251630790679,"122":-0.07075843469785385,"123":0.03845518458484071,"124":0.049410301477182075,"125":0.010452819576845507,"126":0.008206258405329278,"127":-0.04079898946858393,"128":0.01972380847806765,"129":0.0771290090195712,"130":0.0937063308464626,"131":-0.00880341847190699,"132":-0.04911699430904734,"133":0.09571700702085262,"134":0.006040337238244485,"135":0.06632973816161129,"136":-0.006650948991728473,"137":0.040140299238206036,"138":-0.004923088177700783,"139":0.028012029685248786,"140":0.005628576463021008,"141":0.02339970385854744,"142":-0.021127962480872862,"143":0.049903709896392694,"144":-0.0015241304552594751,"145":0.018102614333528822,"146":0.00467888139587848,"147":0.053448148075542934,"148":0.06985342050727128,"149":-0.0004192354967696878,"150":0.012792821889210776,"151":-0.016131971693844806,"152":0.01703642084813547,"153":0.012995160385499452,"154":0.020546583056995384,"155":0.06892377471573854,"156":0.02640140866724938,"157":0.03351661776944349,"158":-0.05397480094381754,"159":-0.07580459625851453,"160":0.04657961111135389,"161":0.031486769827611685,"162":0.04742357042306883,"163":0.044759321176664056,"164":0.009621004237140796,"165":0.08679304313971009,"166":0.06190446802605278,"167":-0.07320321714306653,"168":0.06621394681087937,"169":-0.03746684441076225,"170":0.06752829743854198,"171":0.002327579174385475,"172":-0.04317612185887293,"173":-0.013971374902103496,"174":0.04358416103217388,"175":0.0018628794782927307,"176":0.0736710641760475,"177":-0.050187632565594865,"178":0.11710660773521087,"179":0.10906550784087823,"180":-0.0009989114531768683,"181":-0.031169591838661092,"182":-0.019295193869179692,"183":0.028135614403199567,"184":-0.0018458890196293325,"185":0.07251475587474063,"186":0.10233545714328143,"187":0.011214855128134475,"188":-0.0013851964580536558,"189":0.04780000220453129,"190":0.06288984085193683,"191":0.023854345896960012,"192":0.014397040204683473,"193":0.016535040636871747,"194":0.03186546523677257,"195":0.0462970260117914,"196":0.04965534861019174,"197":-0.013762220397851988,"198":-0.004840891123260566,"199":0.06862885280538351,"200":0.033406711036934184,"201":0.045023696513089385,"202":0.0242626811699226,"203":0.011646435475100615,"204":-0.0007481185574229168,"205":0.10647347358899763,"206":0.001569706289524618,"207":-0.10068592161704876,"208":-0.02290742371206706,"209":-0.07074942493483156,"210":0.028003063784382828,"211":0.120372431304131,"212":-0.08394542367729681,"213":0.09364521403838366,"214":0.02072592130626333,"215":0.044136313488728776,"216":0.06207088393025344,"217":0.03146887694689977,"218":-0.025545448573964628,"219":0.03348663704509367,"220":0.06506790394674059,"221":0.05830874585094508,"222":0.13206554746975321,"223":-0.0022186037023110877,"224":-0.020681463734565027,"225":0.017377599658326533,"226":0.04812979905029443,"227":0.022973041427261785,"228":-0.025930144000971614,"229":0.1095674635752788,"230":0.0210931307594694,"231":-0.03648782413145397,"232":0.06573936906256309,"233":0.028750875247609983,"234":0.03884192825679532,"235":0.026686669531794088,"236":0.049146792131123274,"237":0.000740213774703602,"238":0.08068769696160963,"239":-0.004072285008866996,"240":-0.021584804317698634,"241":0.01683586256574164,"242":0.033717564336130885,"243":-0.015158689843059493,"244":0.052579304754828436,"245":-0.016944936057643283,"246":0.0392629889794954,"247":0.0876453405697512,"248":0.0544292963601752,"249":0.10582250809500789,"250":-0.020263226885263132,"251":-0.028919677831419657,"252":0.060151077796550066,"253":-0.027508696672344943,"254":0.005674349769129542,"255":-0.002302698365450893,"256":-0.011938475556918349,"257":-0.024642029867855245,"258":0.04157698635626465,"259":-0.0298899482561003,"260":0.05326612111193332,"261":0.10411842148481606,"262":0.009387652532057254,"263":0.014350509080084211,"264":0.0030261754696884664,"265":-0.0065964242539909,"266":-0.025669878150049483,"267":0.03453565496497867,"268":0.0293316679567018,"269":-0.06292394666942912,"270":-0.011905656466651232,"271":-0.04611693583674047,"272":0.061042900008185685,"273":-0.018214369242477737,"274":0.030336392328022255,"275":0.021138127209964643,"276":0.031242609256951777,"277":-0.0021768228373105396,"278":0.09111256187295577,"279":0.01636842274364755,"280":0.03432320458704791,"281":0.008976789159135376,"282":-0.017921625977646353,"283":0.02727228551269835,"284":0.02005173245960128,"285":0.045378414597153735,"286":-0.01323989382832813,"287":0.028885699959170997,"288":-0.07336718013457696,"289":0.10086454478795956,"290":-0.0037217232478504248,"291":0.015116608421655858,"292":0.11958982425017316,"293":0.06468507637961692,"294":-0.022579109221131644,"295":-0.006779430108735631,"296":-0.0007431410996097667,"297":0.017911933085102125,"298":0.02261560767929312,"299":0.04072745382742919,"300":0.06796943797034787,"301":0.05677906706599431,"302":-0.041133348789210225,"303":-0.009787289248633462,"304":0.018396957149882244,"305":0.01412965188070957,"306":0.02368426439103462,"307":0.09605102835226494,"308":0.07073263464710461,"309":0.014549527196077237,"310":0.03461889467230882,"311":0.04462477127210317,"312":0.07587489724250562,"313":0.01957271859714188,"314":-0.059368331240038014,"315":0.07163475397320611,"316":-0.04214895104867068,"317":0.029948833292900164,"318":0.054688552297637416,"319":-0.030342914730428543,"320":0.041508415776517225,"321":-0.006016113120594459,"322":0.03486931504331159,"323":0.005502537501258684,"324":0.05326050119437101,"325":-0.005056308703463698,"326":-0.011352309798150923,"327":0.048231500899643794,"328":-0.006658820992196332,"329":0.020532837630615447,"330":0.04418539801623267,"331":0.05292912908247381,"332":0.03246398906741677,"333":0.03572834400840988,"334":0.0010540979550421844,"335":0.03870434383948276,"336":-0.008905156538937064,"337":0.027628457346277852,"338":-0.004788711671097022,"339":0.07610747739513073,"340":-0.061461049608927815,"341":0.12003216930260437,"342":0.009977919501238547,"343":-0.039165210703185536,"344":-0.013446964131250237,"345":0.010618848970708654,"346":0.12899791528328677,"347":-0.09349856925457087,"348":-0.05936707929979624,"349":-0.061344800622184774,"350":0.06590553775448509,"351":-0.01517093374688949,"352":0.003754597966285976,"353":0.017633968060604126,"354":0.10297168342611966,"355":0.026789030110985098,"356":0.023909056435956005,"357":-0.04707646687572289,"358":-0.0016714077489060235,"359":0.04761508931465805,"360":-0.01237366797720378,"361":-0.03808740357639104,"362":-0.0008868761448270704,"363":0.016757010408966964,"364":0.008086949429335273,"365":0.036717339172965595,"366":0.019083047768491825,"367":0.01840386232481248,"368":0.0030372922015165925,"369":0.04750396071756176,"370":0.013380933822135321,"371":0.011946302090337911,"372":-0.005752197213474675,"373":0.005588895725882377,"374":-0.017247790749858976,"375":0.03202482436191979,"376":0.019808208184033806,"377":-0.015779798053275285,"378":0.09187313962338778,"379":0.006837209464418059,"380":-0.0009891821778564027,"381":0.050335908074828156,"382":-0.013100088534966985,"383":-0.001124109746051903,"384":0.06882184071969356,"385":0.05171957028679736,"386":-0.03410585157637976,"387":0.014927233166627083,"388":-0.039877962253850444,"389":0.029070868789135902,"390":-0.0006094218026967021,"391":0.06261337872614257,"392":0.01749371570044022,"393":0.02255885139508196,"394":0.00010188780120517621,"395":0.005069967889426772,"396":0.03485090808841613,"397":0.016597853736494778,"398":0.035041018501584704,"399":-0.003714873327327185,"400":0.052052290794620454,"401":0.09461994216479003,"402":0.03252387597127325,"403":0.09473049572500898,"404":0.0883479961610793,"405":0.044188755424362826,"406":0.04648209386888441,"407":0.037934065003291856,"408":-0.055755545754681,"409":-0.06937348663019374,"410":-0.045846030806768405,"411":0.10264846504316943,"412":0.01243611787637261,"413":-0.02728153993487239,"414":-0.009142600336484105,"415":0.022375607719840398,"416":-0.004235604849257987,"417":0.048856443523993986,"418":0.030536455380354616,"419":-0.024838715947885188,"420":0.057990564031206886,"421":-0.04589405059558316,"422":0.011160262537997737,"423":-0.022661532510563378,"424":0.06442636149282159,"425":0.10551025345241409,"426":-0.055995865268364885,"427":0.013866273855633732,"428":-0.08059415522552905,"429":-0.01417998609954193,"430":0.02183295656050626,"431":0.058418938010023395,"432":0.011128734935796586,"433":-0.045322898925319204,"434":0.053520002965493904,"435":-0.04196111133246904,"436":-0.012389353972404935,"437":0.01585443118971121,"438":0.07352208975578334,"439":0.01688214767183277,"440":0.005431033529000743,"441":0.05391840170444079,"442":-0.0017243878584000513,"443":0.011363375923762053,"444":0.010649385898401866,"445":-0.0011245715126452455,"446":0.012714414175689191,"447":0.0077887168438817555,"448":0.04205358655161465,"449":-0.03513960284512168}},{"sx":1,"sy":1,"depth":450,"w":{"0":0.08581489329591957,"1":-0.04852606207592549,"2":-0.024268158519445027,"3":-0.1687494651643422,"4":-0.06293868706482744,"5":-0.07838212833529834,"6":0.007318779611163735,"7":0.09034717411088533,"8":0.05443562974660554,"9":0.03926586523583685,"10":0.029044179381590724,"11":-0.11342901036671181,"12":-0.0027940654710177136,"13":-0.037090173345742404,"14":0.14456861818845504,"15":-0.008200654509308576,"16":0.07828130322845821,"17":-0.06730585499119611,"18":-0.04948507639383415,"19":0.006475278332826225,"20":0.000790403477011413,"21":0.033707448935331605,"22":0.029413863471836353,"23":-0.033172738038505664,"24":0.02587927398435178,"25":-0.0851033882364813,"26":0.01984123893343507,"27":0.005144185611531183,"28":-0.09886870442451748,"29":-0.02735345246336168,"30":-0.14399620876698357,"31":-0.1107004634860096,"32":-0.05108660823441805,"33":-0.0650542394762318,"34":-0.08645159706134045,"35":-0.021628418509217765,"36":-0.01606203644048759,"37":0.06113472703908403,"38":0.004427040179964616,"39":-0.04283189751631811,"40":-0.05286153720398554,"41":-0.15973352133977364,"42":-0.09999818729173764,"43":0.1467584074180858,"44":0.06361363805413137,"45":0.05117428077409571,"46":-0.10008163680803418,"47":-0.07914278004904687,"48":-0.12882396849877648,"49":-0.05458858058662924,"50":0.023495110477757934,"51":0.04805230213606782,"52":-0.02686589351407371,"53":-0.02014901837159066,"54":-0.05000957840052818,"55":-0.0018221216533993514,"56":-0.16646787992087664,"57":-0.04669551574664111,"58":-0.02678872745510596,"59":0.0011145175950426928,"60":0.0375929340222098,"61":0.012550547829782474,"62":0.04047811866956838,"63":0.02173148279401353,"64":-0.1175958936939307,"65":0.03484123537706854,"66":-0.024910052069654923,"67":-0.07237489775675622,"68":-0.09053837211758053,"69":-0.02589340281465282,"70":-0.0605274100256961,"71":-0.1212212433665073,"72":0.09400048704710061,"73":-0.006466693325442285,"74":-0.11218197180892218,"75":-0.10125037205066525,"76":-0.15445953346635002,"77":-0.13566204376814897,"78":-0.11808083495748907,"79":-0.05096453798192195,"80":0.09872413407533337,"81":0.007674233603240785,"82":0.0334817716873456,"83":-0.004071771869193697,"84":-0.12806574398333784,"85":-0.1310749346128056,"86":-0.003873289666475715,"87":-0.07906932117838948,"88":0.042422873593948224,"89":0.07147723678149134,"90":-0.12899127823190587,"91":-0.04093375875995324,"92":-0.05520269699050756,"93":-0.07496036154196675,"94":-0.018777839613974185,"95":-0.08499573177298883,"96":-0.11530782678301464,"97":0.049683318547641166,"98":-0.17086716852641454,"99":-0.1720188547356759,"100":-0.11974644329443686,"101":-0.15680884283877455,"102":-0.080848538754101,"103":-0.16175531001952798,"104":-0.09592567671333282,"105":-0.015030284363830663,"106":-0.06795119832378274,"107":-0.08542514963277312,"108":-0.00766300717030647,"109":-0.051796329794950455,"110":-0.2193377423015531,"111":-0.16806623236269808,"112":-0.045603389804069534,"113":-0.16163814489286782,"114":-0.07933920876983269,"115":-0.0468169456405342,"116":0.04610332049863814,"117":0.015258957150572171,"118":-0.03972557493146478,"119":0.022024888110621994,"120":-0.061960689565497266,"121":-0.09453454822656032,"122":-0.1267441768467709,"123":-0.04824058175656841,"124":0.021646195709924616,"125":0.0769759795516277,"126":0.030936872841091943,"127":-0.022961681903999377,"128":-0.11859942636647752,"129":-0.14571036370461263,"130":-0.15738465074424302,"131":-0.009723093726060394,"132":-0.004435693113790582,"133":-0.006125888716505273,"134":-0.003708958808006571,"135":0.03950607439625398,"136":-0.1330925203928755,"137":-0.20801631282625505,"138":-0.2573600077409698,"139":-0.19664357358402657,"140":-0.055865320867064035,"141":-0.0877550647083238,"142":0.021079288248721142,"143":-0.07180763006064116,"144":-0.0532573591660872,"145":0.05032511779004253,"146":0.05190582470943877,"147":-0.18273582043586595,"148":-0.15705808639962912,"149":-0.17439473749049048,"150":-0.00839837358712151,"151":-0.008160243260275583,"152":-0.011705636034110695,"153":0.026437402890119484,"154":0.024423802019074035,"155":-0.28956424887372956,"156":-0.15306618512901768,"157":-0.1363308391782604,"158":-0.1589858909232426,"159":-0.08223757210571418,"160":-0.04830492143108007,"161":-0.022446483089210753,"162":-0.05597484754525723,"163":-0.11097201157779352,"164":-0.14415970821435378,"165":-0.0938322138550019,"166":-0.14750229158483177,"167":-0.14162676999488394,"168":-0.12468815834540871,"169":-0.04328801011230804,"170":0.10475534501942999,"171":0.12538602438149757,"172":0.02624489930813258,"173":-0.06333824611354084,"174":-0.21550741405021892,"175":-0.266962242444419,"176":-0.09117537301590804,"177":-0.025521874904081053,"178":-0.04572772683184313,"179":0.024562800263612586,"180":-0.05376551887682254,"181":0.0387280218048673,"182":-0.05787330482080188,"183":-0.341471740659081,"184":-0.24295283986802668,"185":-0.08565251440255837,"186":-0.057764412343915335,"187":0.04393504306539005,"188":-0.09924489035386015,"189":-0.007172617262385891,"190":-0.0290266973070432,"191":-0.05178878783639572,"192":-0.24939165658673035,"193":-0.2683548001320424,"194":-0.2357568351342296,"195":-0.034983836418761315,"196":0.0037319262704389134,"197":0.0325436673741768,"198":-0.030332525979517185,"199":-0.039015443686434594,"200":-0.0657250048514105,"201":-0.15662055242656653,"202":-0.16671058534266303,"203":-0.14751349363428654,"204":-0.07100210790619114,"205":-0.016462851353744236,"206":-0.049304627662056566,"207":-0.05708289596021668,"208":0.04532999472556598,"209":-0.06094217297382848,"210":-0.20586239942395906,"211":-0.3485841723560013,"212":-0.24412422660701444,"213":-0.07135446292816085,"214":0.06351514954316773,"215":0.0461597427407882,"216":0.14783686992523123,"217":-0.054851513007919864,"218":-0.0829441256426848,"219":-0.1251571323595933,"220":-0.3112011318134458,"221":-0.21916092255166,"222":-0.0008336600794391112,"223":-0.008298153803452136,"224":-0.07060737300741464,"225":0.0012135740438956291,"226":0.13080778273006002,"227":-0.09111819261832227,"228":-0.06282192907623793,"229":-0.2524359521061881,"230":-0.199068201056583,"231":-0.09027632614471177,"232":0.04230869063325603,"233":-0.05959483753472555,"234":-0.07991716228790244,"235":0.08076889546618814,"236":0.023329401628190676,"237":-0.17573473310864604,"238":-0.23919777229651132,"239":-0.039276254784409756,"240":-0.07007627046814743,"241":-0.01577649039960555,"242":-0.01269262436973674,"243":-0.10475224190500056,"244":-0.04734848994424735,"245":0.07695632066914056,"246":0.004164250004084668,"247":-0.255019375892162,"248":-0.15299570066685994,"249":-0.04225651814925031,"250":0.07463611650666895,"251":0.07783307058627671,"252":-0.0407141541640518,"253":0.08132243547793845,"254":0.08709960129966215,"255":0.17830217620856517,"256":-0.2459688336444584,"257":0.02894013961056443,"258":-0.019497106746922163,"259":0.08255439371595691,"260":0.01869767413767584,"261":-0.06094487280110552,"262":-0.006492900080172727,"263":-0.11665293127787299,"264":0.16174818076917585,"265":-0.2246047830555042,"266":-0.12921089936352215,"267":0.07500230782481652,"268":-0.03684834207224672,"269":-0.065802248190794,"270":0.054971246836772486,"271":-0.0023833135805721955,"272":0.2055146314842088,"273":0.3455705925893593,"274":-0.35021645728730966,"275":-0.04194843865113878,"276":-0.0585013724660869,"277":0.03515475833929783,"278":-0.008577888895505663,"279":-0.08635953389764944,"280":0.10079648131866209,"281":0.14932479966567744,"282":0.4214415507824327,"283":-0.25519959096686706,"284":0.009606170153187843,"285":0.03053635639756161,"286":0.006031455167070571,"287":-0.014494893228175836,"288":0.052052218647541657,"289":-0.005956828629576503,"290":-0.049864212538749474,"291":0.3397618467033016,"292":-0.17813206054565084,"293":0.1470505629475435,"294":0.06293794517296084,"295":-0.01208695823748607,"296":0.04226749527359769,"297":0.034076168045836776,"298":0.03937775220525167,"299":0.20631893188521105,"300":0.06393609038741714,"301":0.3190835408678272,"302":-0.025903717352609015,"303":0.10253897564205708,"304":0.08841524887166075,"305":0.006461935985157373,"306":-0.017576976219614675,"307":-0.21112095045809048,"308":0.0844870435058173,"309":0.0751495921414524,"310":0.5744894704647091,"311":-0.18464989210455507,"312":0.09344885209104045,"313":0.04230596071897453,"314":-0.029669951210559417,"315":0.11914218365029963,"316":0.04186422399163263,"317":0.17004677270884258,"318":0.09192944034206713,"319":0.704762898354574,"320":0.002841365855798379,"321":0.06087873588645841,"322":-0.01716763492400026,"323":-0.01548984302944212,"324":0.11253422760576907,"325":-0.05797483824067725,"326":0.1421396840234454,"327":0.12517654655530044,"328":0.8599252654850198,"329":-0.009668524264265703,"330":0.06396633575146289,"331":0.013301711911021578,"332":-0.09012591002965767,"333":-0.09511718597412523,"334":-0.04273670591403565,"335":0.15558211167324537,"336":0.49216697771111956,"337":0.6620508777587756,"338":0.2247824817255529,"339":-0.010019911568622362,"340":-0.0021424601763755575,"341":-0.03085306740541333,"342":-0.09728995715728456,"343":0.016309021572804745,"344":0.11713801276784579,"345":0.18112249334892874,"346":0.5642399049529704,"347":0.14553958859398747,"348":0.14041542723058004,"349":0.07042063842177614,"350":-0.027301521882082406,"351":-0.048636779887228636,"352":-0.041419471994274516,"353":0.07061263156484401,"354":0.10809894869240827,"355":0.6942927216583042,"356":-0.022463703546478708,"357":0.04176485645078854,"358":0.043464167326421756,"359":0.015809515091472135,"360":-0.05027990289825754,"361":0.06777886598826284,"362":0.05124358809133547,"363":-0.014000815930477226,"364":-0.14113992536800288,"365":0.021399077397273963,"366":0.00636096870784667,"367":-0.0010674779520001636,"368":-0.0045211153544632956,"369":0.027377580553890297,"370":-0.01942251198638974,"371":0.1333302168181897,"372":0.15027599292023844,"373":-0.1951862811201099,"374":0.12439506428430051,"375":0.033961752038717034,"376":-0.005253385280109511,"377":-0.028488326712997204,"378":0.050061202410880426,"379":-0.03774144888987316,"380":0.00425601761739255,"381":0.0914862462645945,"382":-0.175125659504492,"383":0.034204172518737655,"384":0.0471171867280738,"385":-0.023835539371480852,"386":-0.010647401215787607,"387":0.025537528422287504,"388":-0.1405319989032338,"389":0.0678007788252587,"390":0.19764436427959325,"391":-0.19306070665548888,"392":-0.06280116430992982,"393":-0.0023260025773795172,"394":-0.014499800915601841,"395":-0.006694360299816341,"396":0.11121307606317786,"397":-0.04235318428332327,"398":0.034469685742585604,"399":-0.09916313934777704,"400":0.6357039044638562,"401":0.05122926640525212,"402":0.030217074660005224,"403":0.08224578262992246,"404":0.015405943938554288,"405":-0.0366351864916384,"406":0.017481289805578445,"407":-0.06848090773133719,"408":-0.18999922143034123,"409":0.6237747682908548,"410":0.033849177948157776,"411":0.029234070757132788,"412":-0.032943948568507846,"413":0.014747361359800724,"414":0.08676818427605872,"415":0.0037637341258906915,"416":-0.06452219238035285,"417":-0.02903088865590532,"418":0.6692523033054306,"419":-0.04090957190551679,"420":0.01974926431934624,"421":0.0021921538851376325,"422":-0.010387894258186776,"423":0.15699558057282362,"424":0.008621867613970114,"425":0.0971762933781793,"426":0.012953548850424993,"427":0.40458217859381007,"428":0.1048948021742062,"429":-0.053356142276149536,"430":-0.11631783004491815,"431":0.09924450126277415,"432":0.04117579722075324,"433":-0.07927659034466096,"434":-0.1274460593817274,"435":-0.0009203795251823433,"436":-0.04436161088952777,"437":-0.08432233875631259,"438":-0.035254118348186536,"439":-0.017351586124333872,"440":-0.11105053592826755,"441":0.03250163017370417,"442":0.12365749773994665,"443":-0.027096260577311754,"444":-0.21988007437103393,"445":-0.19109188389780885,"446":-0.09970764260786637,"447":-0.044326891089843376,"448":0.0458394164774236,"449":-0.04012180373615437}},{"sx":1,"sy":1,"depth":450,"w":{"0":0.006471860737894755,"1":0.03540514139152806,"2":-0.009651874386177744,"3":-0.05572724420317575,"4":-0.010658775676292608,"5":-0.014927935556112269,"6":0.04791558037376691,"7":-0.02654127398668919,"8":-0.07169847747379267,"9":-0.06421335985308838,"10":0.050788928148419184,"11":0.021442703886940723,"12":-0.02995195916996573,"13":-0.028870546885311522,"14":0.03869930632865916,"15":0.017115956636918207,"16":-0.02819178540561397,"17":-0.08038275254185197,"18":0.0888453654454319,"19":-0.037683380947264714,"20":0.03190175560552787,"21":-0.05760353244949296,"22":-0.10275770284123369,"23":0.049127307374903666,"24":0.04117853157037916,"25":-0.0037397205585635498,"26":0.033158423891680354,"27":-0.06269912499132199,"28":-0.010019254839983251,"29":-0.014310216775206679,"30":-0.042416855093047996,"31":0.006039806219051273,"32":-0.01201633296304537,"33":-0.02313513093012674,"34":-0.004436151668641011,"35":-0.03731979653978143,"36":-0.05731895077214022,"37":0.00064901402237803,"38":-0.08581908629548125,"39":0.01396293496128227,"40":-0.06478020735658606,"41":-0.0188840998173232,"42":0.017378507975490818,"43":-0.009035240288066779,"44":-0.08798215518782332,"45":-0.03127905058463302,"46":-0.06657114305923409,"47":0.017023009236834828,"48":-0.037280213678567056,"49":-0.049204078967869776,"50":-0.01225311334997413,"51":0.019612239369699785,"52":0.017116648455364536,"53":-0.03526948468473998,"54":0.08723549440366962,"55":-0.011880789984938269,"56":-0.0472997808166075,"57":-0.0007250526401314816,"58":-0.004334933947424075,"59":-0.04523403070708368,"60":-0.0010952062566568542,"61":-0.05408481995857661,"62":-0.05518741123356599,"63":0.03571025921806654,"64":-0.03256915579222037,"65":-0.027791597903202927,"66":0.033385575370590656,"67":-0.04086792884620721,"68":-0.005938940205952072,"69":-0.05303427116239084,"70":0.008892370215764583,"71":-0.01610584448062452,"72":0.021488628737476468,"73":0.0662887076914678,"74":-0.047018030577413654,"75":-0.09588549492866319,"76":0.024433085044302916,"77":-0.07424971906027114,"78":-0.045038570889305206,"79":-0.05568367854012433,"80":0.002725764557003462,"81":-0.050067638572548416,"82":0.015522500365653445,"83":0.05928817212098219,"84":-0.08398940474138347,"85":0.041899987928925436,"86":0.03789490625896383,"87":-0.0606436405732427,"88":0.0893698650009426,"89":-0.026002827737019407,"90":-0.027753190685344202,"91":-0.027150291590637858,"92":-0.04768902436524836,"93":-0.0034113905023723727,"94":-0.059208672459596864,"95":-0.024431958631097695,"96":0.022607534169540942,"97":-0.016541660316225025,"98":-0.008171022725785978,"99":0.025710687096094892,"100":0.0017076544925630785,"101":-0.03584732494227041,"102":-0.00595158266162568,"103":-0.13021405883135134,"104":-0.14259746666568177,"105":-0.021272947568845565,"106":-0.09228152518869043,"107":0.0336726465461557,"108":0.006740111371696898,"109":0.0722309235302126,"110":0.07901558539331989,"111":-0.00337270184542443,"112":0.006456411108553177,"113":-0.04982786392241402,"114":-0.04018937770718196,"115":-0.024980908756398655,"116":0.027755778614067344,"117":-0.014510611279717865,"118":0.02085397401832211,"119":-0.03931742493279592,"120":0.019068798734437963,"121":0.002482081997700628,"122":0.01130224918217178,"123":0.0910655388116192,"124":-0.0604071644377262,"125":-0.019603959472955637,"126":0.004263019763784025,"127":-0.04322980233023723,"128":-0.034550926536686406,"129":-0.08676372746336311,"130":-0.1162462500078397,"131":-0.006939682259093651,"132":-0.11176208322741417,"133":-0.015242623576068709,"134":-0.02440209143841748,"135":-0.06038005250171449,"136":-0.009554869107937207,"137":-0.1055441897976979,"138":-0.12232641578313028,"139":-0.027137747931533902,"140":-0.10682964549373096,"141":0.011572004462767951,"142":0.06086278949805195,"143":-0.1001022617130696,"144":-0.04733723655720883,"145":0.037139525683296856,"146":-0.006278895264744979,"147":0.002774397716992644,"148":-0.05356984648005884,"149":0.03778329417529093,"150":0.10931272058470967,"151":-0.1090658699714277,"152":-0.07002171675654047,"153":-0.06197920621218077,"154":-0.025656381592719844,"155":-0.0587857407309291,"156":-0.006448097011561474,"157":0.01074914853345158,"158":-0.13267803780341758,"159":0.01504867076213209,"160":-0.04578573641627682,"161":0.060821498485234826,"162":-0.01263725464577687,"163":0.020994640566825023,"164":-0.034720289190495135,"165":0.011595949711723213,"166":-0.029028163921756903,"167":0.03927613755396438,"168":-0.10455570928243355,"169":-0.08450149375672975,"170":0.009043969601945598,"171":-0.09359771806848782,"172":0.00959346096893176,"173":-0.030205468178392966,"174":-0.09644455842015309,"175":-0.013303301427805224,"176":-0.04736241903186178,"177":-0.12838534783603253,"178":0.01541221269307318,"179":-0.028217605770792135,"180":-0.036504741202091996,"181":-0.009918033788422763,"182":0.00853196391266419,"183":-0.0056129858033372015,"184":0.0345182130815822,"185":0.04649657246372529,"186":-0.03242494548141807,"187":0.04558536764397519,"188":-0.03452055805987625,"189":-0.03744070539422994,"190":-0.09291065169372736,"191":-0.10317605672393204,"192":0.010430013016839957,"193":0.04078653725349178,"194":-0.03769449971444743,"195":-0.021910515035169647,"196":0.03785875336019971,"197":-0.03232680946191843,"198":-0.002720899309359026,"199":-0.053052236599522844,"200":0.004634695597187269,"201":-0.01182792151148136,"202":0.01707677536512182,"203":0.014553823603129946,"204":-0.0423013016765931,"205":0.011222732190132036,"206":0.09248428635849511,"207":0.008434931139724051,"208":-0.060481705667995,"209":-0.02984352349108186,"210":0.09296108206264254,"211":-0.08410305017147708,"212":-0.037016504787269686,"213":-0.059503593324803566,"214":-0.11809153310271528,"215":-0.01607381872639913,"216":-0.06255455500342899,"217":0.02125194126837795,"218":0.0494323772426287,"219":-0.004718378562066861,"220":-0.05150947536491478,"221":-0.018618648864363305,"222":0.02547885094956543,"223":-0.02831260319734095,"224":-0.05362860076639999,"225":0.00035302944394133994,"226":0.04234575480938742,"227":-0.017027192261647422,"228":-0.04308583597844134,"229":-0.040389734253050036,"230":-0.01447071894537266,"231":-0.010992778574737475,"232":-0.032660824416737684,"233":-0.027859595033240515,"234":-0.06195518384154947,"235":-0.01851705198944665,"236":-0.01666383012576813,"237":-0.020656555100320138,"238":-0.01581982584260958,"239":-0.009819769844658984,"240":-0.022991005286306387,"241":-0.04832575207425922,"242":-0.04002321288959132,"243":-0.04536657631255372,"244":-0.08167024016361456,"245":0.014683841743911893,"246":-0.03409880648709785,"247":-0.03667946931804582,"248":0.0033863891940900848,"249":0.0610780862555397,"250":-0.06193522557064157,"251":0.0030204348408322456,"252":0.013261145915988832,"253":-0.011034575300325972,"254":-0.03638740434647368,"255":0.009532178789093473,"256":0.0019276863533895625,"257":-0.06993107413300116,"258":-0.028748171051225156,"259":-0.0284326857117051,"260":-0.02215631185328617,"261":0.04813457416970027,"262":0.0584423137381753,"263":0.03820055749728644,"264":-0.09098041182716278,"265":-0.02330224444248234,"266":-0.023023706692525948,"267":0.005339430243820299,"268":-0.06275834672619998,"269":0.015463584376658544,"270":0.015331443846605503,"271":-0.01171458903563557,"272":-0.005622211953170606,"273":-0.02012992494305335,"274":-0.06130462935603017,"275":-0.019472189189218333,"276":0.04663979071683888,"277":0.022717624839629136,"278":-0.03821610368858198,"279":0.025670933011065607,"280":-0.01990518297114396,"281":0.005572034507541055,"282":-0.0456167494462801,"283":-0.02786811998208812,"284":0.025407347281883225,"285":-0.0837096845964661,"286":-0.04415208046641522,"287":0.020140902312390303,"288":-0.017126608866999626,"289":0.05964236186583543,"290":-0.09647572026605501,"291":0.06252491601140915,"292":0.06229451358856876,"293":0.03912175490358225,"294":-0.15127188675014636,"295":-0.019912093645911146,"296":0.04903504834165962,"297":-0.008872243947633337,"298":-0.05624466839398836,"299":-0.04116895502973934,"300":-0.0032381936132097355,"301":0.039462641449978214,"302":-0.011272829435049717,"303":-0.00979954166506372,"304":-0.016082725329226003,"305":-0.028150339481505235,"306":0.02484082581896186,"307":-0.011524576101483932,"308":-0.008057664692648936,"309":0.004014621584835274,"310":-0.08705436856229262,"311":-0.011180988600021367,"312":-0.015277907082595011,"313":-0.005716290762056374,"314":-0.07589862911133338,"315":-0.010849509266986645,"316":0.08838718566158632,"317":0.06979143045510086,"318":-0.03473165662367532,"319":-0.05863844390106341,"320":-0.03216502487491406,"321":-0.02320818947953617,"322":-0.022129564957421848,"323":0.029401348070534725,"324":0.028038340412278227,"325":0.009197176087435565,"326":-0.06639141946325178,"327":0.019761090720201817,"328":-0.07095532386181709,"329":-0.03331793312607652,"330":-0.07538027680840247,"331":-0.043391292696910194,"332":-0.07969397151477794,"333":-0.02485377381672742,"334":0.014949695160067309,"335":-0.0443084646845289,"336":-0.00804958282928096,"337":-0.09147488990378667,"338":-0.06513120961333325,"339":-0.05667715563440766,"340":-0.017593096482216034,"341":-0.0027650890821716307,"342":-0.03532229204500345,"343":-0.08022953389405973,"344":0.011801892367629949,"345":-0.039026100249924166,"346":-0.04693566808516641,"347":0.029931480962382007,"348":0.031429741719822796,"349":-0.035237739820323535,"350":-0.03679904237557694,"351":0.007888550263510595,"352":-0.005352048193950278,"353":-0.06892122944863786,"354":-0.05524635914078332,"355":-0.042855701860754464,"356":-0.016805082692230272,"357":-0.08384914529379861,"358":0.009926859175588705,"359":-0.035381298120468925,"360":-0.031081742994860335,"361":-0.01441072664572451,"362":-0.10462570925069907,"363":-0.07774232411383815,"364":-0.027346456292847748,"365":-0.046886352363023666,"366":-0.007444295993595581,"367":0.012637825580420443,"368":0.024965186472222945,"369":0.08692649312879648,"370":-0.07990647229242032,"371":-0.07617042682907813,"372":0.033797687903059245,"373":0.035407957985486564,"374":0.027401447986537174,"375":0.04199528493776521,"376":-0.06848453428405983,"377":-0.050275062770980435,"378":0.04215000092538261,"379":-0.01824449824226933,"380":-0.09984460818518624,"381":0.019466477828411433,"382":0.019949827901331135,"383":-0.004194190648358596,"384":-0.020717396555228414,"385":0.03201390193190776,"386":-0.053949648645300816,"387":-0.09375695284908901,"388":-0.07218035018687358,"389":0.016839433165499306,"390":-0.007947332383570305,"391":0.03808737512824234,"392":-0.006418412468338956,"393":-0.059928671113599286,"394":0.08153201569264058,"395":-0.07324667145783408,"396":-0.034362175649158916,"397":-0.003774575064161763,"398":0.018845524001021078,"399":-0.016243244299411586,"400":-0.023513479505257298,"401":-0.008760786636990594,"402":-0.004730754273395206,"403":-0.09282486800332232,"404":0.04116937203722092,"405":-0.031014697697331263,"406":0.058042600006620565,"407":-0.063343839225732,"408":-0.05095873229473799,"409":-0.08539696711689802,"410":-0.034720690000597874,"411":-0.05559151537360801,"412":-0.05312669943740192,"413":-0.03398814524740848,"414":-0.013142211280310248,"415":-0.09539110798243643,"416":0.0014209578125344133,"417":-0.06482922443646383,"418":-0.011087959962454293,"419":0.038606719925310146,"420":-0.09594076617873434,"421":0.02296643616978018,"422":0.030924771846132425,"423":-0.12111775100741366,"424":-0.024454186460145477,"425":-0.007316589759659255,"426":0.04410980572437058,"427":-0.11830545149428624,"428":-0.055913085520425856,"429":-0.015598566840823665,"430":-0.09868872016189152,"431":-0.0977055722170611,"432":0.0038341159586005283,"433":0.017049763604772058,"434":-0.030908107079663145,"435":0.005208940967839427,"436":-0.08873037921330716,"437":-0.03363744564442653,"438":0.07115917002886221,"439":0.03169216663727259,"440":-0.021965485790085944,"441":-0.11776002480896229,"442":0.046370010247319425,"443":-0.030929517138001347,"444":0.021959395382996034,"445":-0.03459563865405471,"446":0.025595874043125855,"447":-0.10225203723352193,"448":0.012995572755705788,"449":-0.04613091741122275}},{"sx":1,"sy":1,"depth":450,"w":{"0":-0.11084895171343455,"1":-0.19044441935118747,"2":-0.21338843980118533,"3":-0.10793044955854732,"4":0.014502404704484297,"5":0.08440494937679656,"6":-0.04481239790953893,"7":-0.032273793966903906,"8":-0.044838479264196644,"9":0.0152029549600899,"10":-0.10195260000940265,"11":-0.03363898463508303,"12":-0.031063918489867712,"13":0.08983906801612809,"14":0.09640087771352294,"15":-0.025970093771235006,"16":-0.05516300522977995,"17":-0.05730369849756645,"18":-0.0012959114751703161,"19":0.036980257968973376,"20":-0.048413394461070645,"21":-0.0288538547388954,"22":0.00106329515549774,"23":-0.005344362689833913,"24":0.09200083312189052,"25":-0.010390121042141532,"26":0.02305100111166186,"27":-0.00804156717355775,"28":-0.04832613231982044,"29":-0.10411242159467392,"30":0.014859537683376993,"31":0.09603310240396554,"32":0.11580634898142028,"33":-0.028299909124623115,"34":-0.11519631972196646,"35":-0.044884538451770824,"36":-0.1270444486235127,"37":-0.04565964338532804,"38":-0.0014299111124536853,"39":-0.00830122388066307,"40":-0.058238960184736704,"41":0.0638636489084217,"42":0.014700921655672373,"43":0.010919261074471753,"44":-0.0370781357259502,"45":0.07316736741995185,"46":-0.09482515646387818,"47":-0.06185092950470006,"48":-0.0725936136042596,"49":0.09672274315763749,"50":0.20719544419869296,"51":0.013707967432711863,"52":0.04827483324417383,"53":-0.06032187755651525,"54":0.03388271614379551,"55":-0.15420000090226363,"56":-0.09081358935254982,"57":-0.027040219159238436,"58":0.06931404268299482,"59":0.11309195268155102,"60":0.10192592937093196,"61":0.009227811367777896,"62":-0.023026638581539003,"63":0.0006264421702539226,"64":0.04321116514517703,"65":0.027277383048881578,"66":-0.06168149018810991,"67":0.06054578495152317,"68":0.12317916113086608,"69":0.015822636892576684,"70":-0.17574394892812475,"71":0.004817414452138349,"72":-0.021987650620683006,"73":-0.05924306194868696,"74":-0.1180096226963841,"75":0.022181684308919192,"76":0.10408210371332452,"77":0.27181503152779435,"78":0.07334652799141146,"79":0.03982244658161543,"80":0.02596166213830349,"81":-0.02433957764448659,"82":-0.02526598959609708,"83":-0.007187406964942933,"84":0.009681666683344236,"85":0.10247532642413547,"86":0.15975759844890797,"87":0.08104445905130679,"88":0.0062334432458699416,"89":-0.005278650530430365,"90":-0.12545986198138953,"91":-0.09558449171124846,"92":-0.09994257777341829,"93":0.03837966679171869,"94":0.042716917666276936,"95":0.12178452160573595,"96":-0.05443105121844094,"97":0.11466941852850256,"98":-0.10171482937592073,"99":0.00037525129278354925,"100":0.005322136670708174,"101":-0.05998861995312251,"102":0.03866667630095766,"103":0.07861006516133025,"104":0.1709480312482499,"105":0.07274978072374197,"106":0.06417345419074491,"107":-0.03854253031490668,"108":0.023338289734130598,"109":-0.06643669946263579,"110":-0.08529842598913365,"111":-0.05425770185305781,"112":0.10394853673023693,"113":0.22338470690719825,"114":0.17042597626133713,"115":0.04688128459614491,"116":-0.007342508600312452,"117":-0.024766132078627216,"118":-0.07632977127600712,"119":-0.04103958290061067,"120":-0.008632703086229791,"121":0.09821126328622459,"122":0.21686419096148146,"123":0.04353858973541919,"124":0.07376876552327816,"125":-0.10392046857572282,"126":-0.03273605599340527,"127":-0.05736582191265624,"128":-0.08907270458676471,"129":0.012919973790541148,"130":0.13191353111166404,"131":0.25738175537020974,"132":0.11969491325012502,"133":0.06225630014080373,"134":-0.005768964422896803,"135":-0.13664749041611549,"136":-0.04916790866642878,"137":-0.13127651371862395,"138":-0.029441659268377125,"139":0.12794461652648859,"140":0.1768243027512785,"141":0.13933223953165905,"142":0.146577711074688,"143":0.023001032804082458,"144":-0.06563455593429054,"145":-0.11124074904437867,"146":-0.027705201476349785,"147":-0.006336404730056295,"148":0.10046581233140052,"149":0.20056631862396562,"150":0.10033729045817583,"151":0.1302018963844757,"152":-0.09355521689291088,"153":-0.06863692938215049,"154":-0.10026239609592959,"155":-0.11474593418135562,"156":0.01479594924036664,"157":0.15100013007783142,"158":0.19222344730055263,"159":0.21001931955689615,"160":0.1350423568900466,"161":-0.04022810340514338,"162":0.055471944151473274,"163":0.02987444056275987,"164":-0.020488209905025104,"165":0.040773700509633096,"166":0.21453899825847422,"167":0.2746580710978284,"168":0.22311820958211567,"169":0.10367391482334491,"170":-0.03271296971680647,"171":-0.007301070038605463,"172":-0.07422149255702278,"173":-0.06893191098546098,"174":0.010186503416904875,"175":0.07720419240303956,"176":0.32724048312298787,"177":0.1484161431717801,"178":0.19155530561825485,"179":0.05306843075334354,"180":-0.022062236353305786,"181":-0.07410118479866966,"182":-0.09405653763132966,"183":-0.0032861825991070083,"184":0.1709717994033049,"185":0.2963438862815674,"186":0.049308612613699496,"187":0.09263739652486941,"188":0.09087217449456672,"189":0.01624270156145345,"190":-0.09672437479225564,"191":-0.10837436251427142,"192":-0.06888919760966002,"193":0.06052154138641427,"194":0.21993062913409503,"195":0.26007844120774987,"196":0.07575510428149537,"197":0.018220963480205122,"198":-0.07716303315537663,"199":-0.08053641575773379,"200":-0.0823625138881914,"201":0.011816910090857361,"202":0.23958381358106118,"203":0.3553721467433414,"204":0.193853154178121,"205":0.0827588869595671,"206":0.046520663990776694,"207":-0.001130749366859336,"208":-0.010834319863211313,"209":-0.09523072333876008,"210":0.040609141307517846,"211":0.149176804306821,"212":0.23100203236001673,"213":0.20074105965231967,"214":0.08523466972179684,"215":0.07978293759735866,"216":-0.10428616927756318,"217":-0.007891057730710584,"218":-0.13666704015409145,"219":-0.07993385188250081,"220":0.13796119516861724,"221":0.28990646091599326,"222":0.20776403044934746,"223":0.05257593423103969,"224":-0.01033372012596419,"225":-0.028931430890447276,"226":-0.09115413371789671,"227":-0.03565861811488221,"228":0.04847117333452697,"229":0.07566560436228235,"230":0.27785379590593484,"231":0.14677228823038785,"232":0.0619980004325992,"233":0.03984275335496791,"234":-0.007375042308158309,"235":-0.10171248583927377,"236":-0.09801964584231138,"237":-0.12384483307432852,"238":0.11812130381896946,"239":0.2609307146279274,"240":0.1726655549378072,"241":0.12092720032631452,"242":0.05076476931061296,"243":-0.048037513934885784,"244":0.015816848373986434,"245":-0.10955394633341085,"246":-0.00449239398552956,"247":0.13842937210884096,"248":0.14426192388041031,"249":0.053176017832498604,"250":-0.02905281663042322,"251":0.015545523601666984,"252":0.044695711993695576,"253":-0.09390638589481341,"254":-0.1431196559639342,"255":-0.007442012731256927,"256":0.09822245478060662,"257":0.16526559331706053,"258":0.1859365741967976,"259":-0.05543700670532474,"260":-0.0702612603153017,"261":0.011337468879235526,"262":-0.026433593976307172,"263":0.06673148951269495,"264":-0.06032970068470552,"265":0.11965251029561673,"266":0.22398683393167104,"267":0.05786629966916755,"268":-0.016704750162107086,"269":-0.12835847255568472,"270":-0.06889198958052128,"271":0.0034603300568614467,"272":-0.05704744553442442,"273":0.025992676343842263,"274":0.02609313761356985,"275":0.16443413823802888,"276":-0.027684442703539907,"277":-0.03863805924287651,"278":-0.03648795923538191,"279":-0.062033736938089896,"280":-0.06965838728440604,"281":-0.09270856713530284,"282":-0.02306749548976163,"283":0.04576282555865081,"284":0.17395707636968757,"285":-0.009204030222024836,"286":0.09842916303802116,"287":-0.05027041776875721,"288":-0.03758789486606349,"289":0.06421295294555682,"290":-0.07997209341825605,"291":-0.07836244149060917,"292":0.04469593896439453,"293":0.00786542407713547,"294":-0.17234607711955965,"295":-0.05567433314236542,"296":-0.057118516099626405,"297":-0.05430777266292519,"298":-0.10852114553439177,"299":-0.16968499642264062,"300":-0.05296996745663021,"301":-0.07235949300013031,"302":0.048905781099516196,"303":0.013725416704902587,"304":-0.04162692266887495,"305":0.021450899611308104,"306":0.1688106505711098,"307":-0.12478712901405839,"308":-0.01597720002197682,"309":-0.047555977924265164,"310":-0.12038427349069525,"311":0.10166160131634595,"312":-0.18620394672381246,"313":-0.04957730568243995,"314":-0.047060413165767874,"315":0.03828571694551751,"316":0.12321812037438122,"317":-0.0579659410844605,"318":-0.12945636090748291,"319":-0.051697518159068076,"320":-0.023584123473051916,"321":-0.17603747534007808,"322":-0.1703759987151334,"323":-0.0284935178103007,"324":-0.07052571962121251,"325":0.06105126192824729,"326":-0.07918399518526974,"327":-0.1650730562046381,"328":0.03861782436000904,"329":0.007889038986040752,"330":-0.23403243526483014,"331":-0.03841369702115508,"332":-0.09913656083731742,"333":-0.04958426453986145,"334":-0.09573829052312793,"335":-0.14644377856843815,"336":-0.12217877904112205,"337":-0.26024023262876117,"338":-0.09777755815131087,"339":-0.2450447235397373,"340":-0.02048866935246973,"341":-0.008593606210499169,"342":-0.037157313791306656,"343":-0.12328359541057955,"344":-0.11706657182107046,"345":-0.039290095655539675,"346":-0.14105516798535267,"347":-0.08653565949014376,"348":-0.19937713273529045,"349":-0.06853884471914183,"350":-0.04198986372825243,"351":-0.00660126970563293,"352":-0.02958521023878332,"353":-0.09058685971160883,"354":-0.11541114565295596,"355":-0.19173036873536436,"356":0.06528617390542774,"357":-0.1620786861451132,"358":-0.07431234356027344,"359":-0.05119479025298808,"360":0.0763999481780142,"361":0.04727756069989246,"362":-0.06925416336715809,"363":-0.10082786050987348,"364":-0.00518357549517758,"365":0.08754737876685333,"366":-0.051085784760209946,"367":-0.17188431405696852,"368":-0.019637503788171282,"369":-0.09821589984775612,"370":0.029408586338837063,"371":-0.0900916018330903,"372":-0.045785494174107065,"373":0.08687459936112037,"374":-0.12569213185342779,"375":-0.05456576052228211,"376":-0.029894494392142812,"377":-0.09674009279019369,"378":-0.03826106344175273,"379":0.04837722285279051,"380":0.052737536320766804,"381":-0.04733903958405369,"382":0.009533470200201455,"383":0.09134289198219181,"384":-0.13174177467279694,"385":-0.10727173244510162,"386":-0.06816069938070142,"387":-0.06594768453867239,"388":-0.05129455235002675,"389":-0.057636960215691466,"390":-0.08440524925872366,"391":0.05009965464813036,"392":0.03817133140960949,"393":-0.016440814723688996,"394":-0.02370134870134419,"395":-0.05838246193499438,"396":0.05623243461735734,"397":-0.08006318929133424,"398":-0.05768462580907017,"399":-0.06405985317782067,"400":-0.09650634530496811,"401":0.024293437713753873,"402":0.039237937307923444,"403":-0.07777435444277632,"404":-0.10063369291022649,"405":0.03469586226432823,"406":-0.13503803517781454,"407":-0.050363481753819626,"408":0.07934537972702481,"409":-0.07008579648738504,"410":0.14597168427714133,"411":-0.08784981938802172,"412":-0.10274778262842253,"413":-0.03695873206171037,"414":-0.03521896423972975,"415":0.011316549917909034,"416":-0.05416568391451041,"417":-0.06841430961351049,"418":-0.03035768349166662,"419":0.09275268785345879,"420":-0.07613511662872816,"421":-0.0222938268632874,"422":-0.0205752816514678,"423":-0.010097296500677252,"424":0.08565686213127154,"425":-0.10953809342097326,"426":0.08757258832364961,"427":-0.0361810049402363,"428":-0.014392782514165273,"429":-0.0077649147952130815,"430":-0.009723955537007252,"431":-0.05799899907064536,"432":0.03622413564416754,"433":-0.06742606071691842,"434":0.015264219925226969,"435":-0.05580955442255744,"436":-0.16241610355803476,"437":0.03401391807718165,"438":-0.17825373152408797,"439":0.022370678074530227,"440":-0.12921320746651704,"441":-0.02328628850131362,"442":-0.05482128949039492,"443":-0.00752601343166326,"444":-0.05224811606774663,"445":-0.03135799739745149,"446":-0.013564074419000904,"447":-0.015209617210893216,"448":-0.04047712408503726,"449":0.00640931679034535}},{"sx":1,"sy":1,"depth":450,"w":{"0":-0.058550051048206604,"1":0.08452781679910575,"2":0.07715961242880573,"3":0.10756803812916405,"4":0.05480304929530671,"5":0.008406651645315774,"6":-0.07453812409143858,"7":-0.0049508301908553634,"8":-0.12774732254195845,"9":0.03490375577358293,"10":-0.02641495918448356,"11":-0.017064097098907296,"12":0.0660092405130839,"13":0.009301022646117213,"14":-0.07801921809733249,"15":0.035203953677404407,"16":0.027425221895534847,"17":-0.06272973040487849,"18":0.025873016318768427,"19":0.0997107674378246,"20":0.00385020736475426,"21":0.0419530535464812,"22":0.04700269925612211,"23":-0.041455864260298236,"24":0.01932906462150571,"25":0.053029945818942124,"26":-0.060796900463400035,"27":-0.060122715371079244,"28":0.09121451687724869,"29":-0.030132610156873674,"30":-0.09801396440740825,"31":0.04044127306466816,"32":0.12381472579366741,"33":0.18764353803806388,"34":-0.020547641009107217,"35":-0.028275857656033333,"36":0.10169969157832458,"37":0.01863306740958713,"38":0.060794148516282516,"39":0.006985993837250551,"40":0.04416735608884565,"41":0.025677313322588248,"42":0.007019211978703622,"43":0.0465441691573909,"44":-0.08245120738500185,"45":-0.058912584888108105,"46":0.15660900031733851,"47":0.028629562130615523,"48":0.01809392923104408,"49":0.19966163478170923,"50":-0.05201210085725587,"51":-0.029636164641185982,"52":-0.07571220781983751,"53":-0.018619368759160274,"54":-0.03325985968626088,"55":0.0868198133508332,"56":-0.02803584698381241,"57":0.0001694624526993417,"58":0.12205042676530219,"59":-0.003174893979059996,"60":0.14098784445159668,"61":0.045091161815664006,"62":0.12041450593002988,"63":0.11532117780961423,"64":0.08992880897162862,"65":0.011899066460727125,"66":-0.06472135347368109,"67":-0.08753723607422079,"68":0.040320570313579385,"69":0.012446193778098821,"70":-0.024176951744531102,"71":0.06807200364643992,"72":-0.06779019238569554,"73":-0.07697071328558593,"74":0.06253021577692267,"75":-0.00926137406799855,"76":0.028817387597586085,"77":0.11702634641350247,"78":-0.014166336509100777,"79":-0.05576115574883158,"80":0.09735757825512996,"81":0.029229889632712763,"82":0.019486692559260013,"83":-0.016969190011219784,"84":0.05030200424479808,"85":0.07233956548213855,"86":-0.10926870019312174,"87":0.02900951747587397,"88":0.07778772708536387,"89":-0.13995039576815407,"90":0.028686378198688498,"91":-0.0808672412805623,"92":-0.1054959188076201,"93":0.06622655531104937,"94":0.03539517296332924,"95":0.02099506847733203,"96":0.003724380499123246,"97":-0.06777210702434051,"98":0.10813537964790743,"99":-0.04502732604182095,"100":-0.1682743157807445,"101":0.024442163045068833,"102":-0.04866385121809362,"103":0.016030048001110884,"104":0.15366355051969327,"105":-0.10809682549617593,"106":-0.002837511115228686,"107":0.09537716925318816,"108":0.0535299470156792,"109":0.004512956663416222,"110":-0.02916061359434777,"111":0.07677656669740902,"112":-0.0010442197145898973,"113":-0.002926229889805615,"114":0.09190113868710227,"115":0.0653244829034826,"116":-0.059939733515111365,"117":0.04128814576028642,"118":0.04454659433930434,"119":-0.09451014202819728,"120":0.04872043978448713,"121":-0.00582907130476986,"122":0.15745119638905952,"123":0.01907708720221857,"124":-0.01284337197073474,"125":-0.045696612616924905,"126":-0.024294722597895002,"127":-0.04544857423234063,"128":0.04766011786313371,"129":0.03602823680618027,"130":-0.003371009128948035,"131":0.031977363873927064,"132":0.015148858742294612,"133":0.027139680993244958,"134":0.03203036437052867,"135":-0.02053905949547431,"136":-0.11548045739010893,"137":0.0399569935356782,"138":0.02541606242479287,"139":0.12766230961790062,"140":-0.10130479337411886,"141":-0.005857913529311331,"142":-0.152898125444114,"143":-0.0020394016205980705,"144":-0.04157503056976546,"145":-0.02366868652222252,"146":-0.04120178489432358,"147":0.050223705258928615,"148":0.043131063010762895,"149":-0.09714741910565526,"150":0.035874146336926045,"151":-0.07357071520995613,"152":-0.027327240954445463,"153":0.04667055546151305,"154":0.04532212930850774,"155":-0.00650894507193572,"156":0.013368733465714459,"157":0.10013925569255065,"158":0.09404106894047867,"159":0.12279038368583796,"160":0.10841227746529734,"161":0.04639849499344701,"162":-0.06410184952318879,"163":0.11298321357190454,"164":0.008830960436519746,"165":-0.13042884874525099,"166":-0.002641946594956912,"167":-0.021975217363032165,"168":-0.013374308827571154,"169":0.014748895137456284,"170":0.12014334557071478,"171":-0.12700667264135024,"172":0.09528729570394849,"173":0.12310760490299866,"174":-0.03803034386141504,"175":0.02755003561062078,"176":-0.0015994545444474831,"177":-0.11849204180124702,"178":0.030986981550197593,"179":-0.014900176243751494,"180":-0.1417733091051959,"181":0.03292176238030554,"182":0.07134134015485874,"183":0.025493391743458882,"184":-0.06729831385603681,"185":-0.082013119002208,"186":0.12842993886474366,"187":-0.14636744107993208,"188":-0.004284101564912123,"189":0.015650541661408807,"190":-0.04226687113971961,"191":-0.10270757616338329,"192":0.07799553659373573,"193":0.013232901329702574,"194":-0.0019378593657974881,"195":-0.04814074376206039,"196":0.032216489071103215,"197":0.08613180599160421,"198":-0.03421820664864088,"199":0.03721721723919752,"200":-0.10914067007108025,"201":-0.12329556472059071,"202":-0.16181692928578142,"203":0.02970564533878148,"204":0.01112885214750917,"205":-0.006758259657100123,"206":-0.05176741531694042,"207":0.004976949104052673,"208":-0.005185004655227764,"209":-0.08002517155028785,"210":-0.21474319759015087,"211":-0.0013886257965252198,"212":0.02546113712935067,"213":0.06487538858622212,"214":-0.08429318257938122,"215":0.17094110524804818,"216":-0.02267520448516492,"217":0.06242884427785602,"218":0.026427461237849996,"219":-0.0249151804730061,"220":-0.13977834858961188,"221":0.024202691387392342,"222":0.036587051700788645,"223":0.01445473940063531,"224":0.038160187430304485,"225":-0.07862294681454365,"226":0.011300518710947815,"227":-0.07980553442028082,"228":-0.07169456351708288,"229":-0.41575167169292204,"230":-0.01776769592952734,"231":-0.04449766427224603,"232":-0.026332960867552584,"233":-0.09131061778467428,"234":0.1788956753090768,"235":0.03956598266394741,"236":-0.12417907270889636,"237":-0.1289344149978691,"238":-0.39560454929465977,"239":-0.14592878017891697,"240":-0.05075649291455496,"241":-0.018779281771947376,"242":-0.057586518440677574,"243":-0.032714347521513615,"244":-0.08201913920987557,"245":-0.0026018127546862608,"246":-0.02388180309988578,"247":-0.5687927512276266,"248":-0.06609038318201492,"249":0.05936853087514798,"250":-0.03873117597576332,"251":0.04117873813368808,"252":0.11887203703568683,"253":-0.021975163896036504,"254":-0.012977580291198816,"255":-0.2433368005667924,"256":-0.5747723026884667,"257":-0.1451607774660339,"258":0.0025061531844258727,"259":-0.0020584372703212825,"260":-0.029740983183218956,"261":-0.22148785206936433,"262":-0.0895712123027834,"263":0.07454249442790317,"264":0.00912966397086543,"265":-1.0396300715091495,"266":-0.049345934123596696,"267":-0.07990643966815202,"268":0.0013852605139831715,"269":-0.059665930358245266,"270":0.02443862162706992,"271":0.09206870214257323,"272":-0.07667861325916217,"273":-0.06879797788838711,"274":-0.8353038949370235,"275":0.08696568480839159,"276":-0.14003874944557182,"277":0.07272900990454949,"278":-0.03306460075894092,"279":0.05113579724531403,"280":-0.008163045707985912,"281":-0.1094097799138266,"282":-0.10395041711833265,"283":-0.9996797892717607,"284":0.07306430726637626,"285":0.005868701753529665,"286":0.0069709750179333665,"287":0.018877159230028404,"288":0.11576804944458326,"289":-0.03859391088691514,"290":-0.003251330967920838,"291":-0.3339477925361109,"292":-0.988439890392534,"293":-0.4289054786189138,"294":-0.02524807374920055,"295":0.027909617341735065,"296":0.1533776136164368,"297":0.031125817079800257,"298":0.0780745431421429,"299":0.014884087580632909,"300":0.12568821649859588,"301":-1.331062381036078,"302":0.04228728321334465,"303":-0.0760060939638983,"304":-0.04119232531924507,"305":0.02737854132383397,"306":-0.08976415514127026,"307":-0.012425121459741598,"308":-0.03379755433160949,"309":0.0010717357828859174,"310":-0.9886593929153669,"311":0.005200557697667091,"312":-0.11344090951834682,"313":0.06687695994217348,"314":-0.05682508960978223,"315":0.014868616506248891,"316":-0.06904453139337195,"317":0.04278290071970919,"318":0.04262909103293733,"319":-0.8272706881230195,"320":0.3216620865336917,"321":0.10834077351444657,"322":-0.0294012940141652,"323":-0.015945984781067343,"324":0.17516408897509594,"325":-0.03405217072703081,"326":0.13350450588480467,"327":0.13455342692639363,"328":-0.6465727607099686,"329":0.42655762876727227,"330":-0.07252643246141557,"331":0.0209072713376726,"332":0.08101531806012553,"333":0.06841968876146917,"334":0.11057918072854532,"335":0.06022177058263013,"336":-0.1476299932500325,"337":0.6860281975820028,"338":0.04460265974725456,"339":-0.05064541859505501,"340":0.002259120462148101,"341":0.09626267816086441,"342":-0.09677856771995659,"343":0.004989046365771114,"344":0.11846893765516141,"345":0.13266436709694163,"346":0.485667613399283,"347":0.25671215742279635,"348":0.13288901293601316,"349":0.05545193068365776,"350":0.00995220288071314,"351":-0.05509060771704476,"352":-0.04956707079960307,"353":-0.057992247875135496,"354":0.20678572540466447,"355":0.6739098784811557,"356":0.8244012583557283,"357":0.12695286708003983,"358":-0.031162624682292375,"359":0.017278710800807347,"360":-0.14430430393533644,"361":0.0017353161802583649,"362":0.06361115702616696,"363":0.36455786145968466,"364":-0.11060502074549512,"365":0.6135242765593554,"366":-0.02167859692532746,"367":-0.09867389203715674,"368":0.016976916579302267,"369":0.061887818012258664,"370":-0.02538900332398043,"371":0.09340747742075142,"372":0.12573023276591197,"373":-0.1405187966999725,"374":0.11196537620984563,"375":-0.008252235297929646,"376":-0.011470324865150573,"377":0.12349405263164483,"378":0.020706211790823208,"379":0.05124174645307716,"380":-0.05043980578968767,"381":0.17257641078030092,"382":-0.05251367908237045,"383":0.0978399590638425,"384":-0.03309532516104548,"385":0.07351015558129376,"386":-0.0286961249664465,"387":-0.07873297442901656,"388":-0.034657908724981236,"389":0.009758714336664276,"390":0.12850843682931148,"391":-0.14174451820421274,"392":-0.2627463248000467,"393":-0.03706783611259276,"394":0.019254634592330375,"395":0.04053955569819426,"396":0.05448177593579563,"397":-0.00804129346696946,"398":0.032057929107181395,"399":-0.030679789411758297,"400":0.731204378148099,"401":-0.017817165536351456,"402":0.0413031391646212,"403":0.02959992520053962,"404":0.04937651382848174,"405":-0.012185476512221178,"406":-0.07820610895296536,"407":0.007490933763726575,"408":0.06449217895942352,"409":0.7135123648621742,"410":0.031753208680719874,"411":0.02575754423896592,"412":-0.07991021176425667,"413":-0.03138851051392056,"414":0.05988625961965473,"415":-0.02402078762627769,"416":-0.07577486217908254,"417":-0.030610341957732216,"418":0.7139964412320206,"419":0.09045125819659541,"420":-0.05688307307791112,"421":-0.045410536898267385,"422":-0.027559445908169212,"423":-0.030210928425364308,"424":-0.00872675438379173,"425":0.05740649106734977,"426":-0.07070597468451278,"427":0.18383519011911437,"428":-0.18190575242335,"429":-0.07429193966158491,"430":0.1284915328458141,"431":-0.006573639917901341,"432":0.07507933743283905,"433":0.06467167179349806,"434":0.11790987620992996,"435":0.02211443828368696,"436":0.19658053597862746,"437":0.0010505339851145388,"438":-0.05048430278750492,"439":0.06354588561249092,"440":-0.05571956934058474,"441":-0.04438565023150027,"442":-0.07414514591588083,"443":-0.09739116129610567,"444":-0.06292510651303351,"445":0.2156438590790432,"446":-0.0260819072094791,"447":-0.1246855211191168,"448":-0.0888270899942792,"449":0.005762358377680442}},{"sx":1,"sy":1,"depth":450,"w":{"0":0.03908901214356993,"1":-0.17453134643455043,"2":0.06953875801706608,"3":0.07056637873941296,"4":0.12915579801748225,"5":-0.0120474698207583,"6":-0.026954630578031734,"7":-0.06967710656913315,"8":-0.13314264454555264,"9":0.04166340755120648,"10":0.033644105880023215,"11":0.09530709200296412,"12":0.040051312743052625,"13":0.0802421795619719,"14":0.1591001682651806,"15":0.0003442853558378016,"16":0.012289896455781164,"17":-0.007935745871253402,"18":-0.006760676732961914,"19":-0.05129608611331809,"20":-0.02261496677916187,"21":0.02975758007070139,"22":-0.08872760256603313,"23":-0.1595443665547968,"24":0.04780921823170982,"25":-0.13871519789030026,"26":0.16983649030581596,"27":0.037664158660893364,"28":-0.048907602998961325,"29":0.07149845905538119,"30":-0.1076644864326945,"31":-0.03191421932808684,"32":0.05923354900749925,"33":0.02981306996318877,"34":0.005326369051299296,"35":-0.017048802913138022,"36":0.022538676888164647,"37":0.01113295120756132,"38":0.03325995536602818,"39":0.01897385147213418,"40":0.11472555644649111,"41":-0.008589875152325106,"42":-0.04215480410267911,"43":-0.12602631819303417,"44":-0.03071975467020928,"45":0.06154442115908327,"46":-0.009158938560832216,"47":-0.08963845418680799,"48":-0.032289161866975044,"49":0.061598874018593104,"50":0.1096312736031186,"51":-0.01968208579866001,"52":-0.06127294761113631,"53":-0.10565011910473941,"54":0.004395498367058308,"55":0.011811943645909212,"56":-0.21580614895802225,"57":-0.026453633483181388,"58":0.0062686625234712285,"59":-0.03402423770712809,"60":-0.06785656446639227,"61":-0.05860154803230171,"62":0.11583547809563029,"63":0.026589561387030534,"64":-0.008800429265537448,"65":-0.15363114679254242,"66":-0.0645756444957269,"67":0.12368534444872087,"68":0.04073119155708493,"69":-0.04394933842316267,"70":-0.0016555785359722258,"71":-0.016888216349702362,"72":0.11191651992009827,"73":-0.06374377671462808,"74":-0.0062338744958752666,"75":-0.11257293451221871,"76":0.12001434820328327,"77":-0.0014234245562775617,"78":0.07589086195300233,"79":-0.11342824875760237,"80":-0.07453730803438831,"81":0.044707809103252276,"82":-0.11577383537196542,"83":-0.06991767440435559,"84":-0.1309802551047486,"85":0.1838802964502525,"86":-0.035207440256311125,"87":-0.03302589420246961,"88":-0.1436860351570323,"89":-0.08780995444600474,"90":0.026918949758460875,"91":-0.17331184549107748,"92":-0.10301715643611684,"93":-0.0034105294412725873,"94":0.002761872396117744,"95":0.20467761291045378,"96":-0.038590545552736825,"97":-0.08313325381470422,"98":-0.0946863350185341,"99":-0.15724555572591215,"100":0.02008133658468075,"101":-0.06449728269811032,"102":-0.16695019009475298,"103":0.09230429626105091,"104":0.18287121309436288,"105":0.018145954228383696,"106":-0.0867545315435328,"107":0.04840382140899641,"108":0.008804796207454092,"109":-0.018864703129945315,"110":-0.13213394065557157,"111":-0.18485190904770152,"112":0.07758974604176758,"113":0.16567530736886787,"114":0.12127366856140376,"115":-0.1618296755561684,"116":-0.022047777958285466,"117":0.01613383791883385,"118":0.17075248931493853,"119":0.03803706620032558,"120":-0.07005485067131981,"121":0.21127878063704286,"122":0.16122485669547829,"123":0.0706141571834846,"124":0.012945507262638581,"125":0.012708281652687252,"126":0.0034316181640648255,"127":0.11364363448582793,"128":-0.014812341803888521,"129":-0.036748745968474536,"130":0.12515310080009412,"131":-0.016135635110705652,"132":0.19952724042393852,"133":0.02132771029673841,"134":-0.05440314641347832,"135":0.035807266397176726,"136":0.20581753164908492,"137":-0.014786610716923117,"138":-0.1081777728249459,"139":0.21657633963493195,"140":0.08577349055706299,"141":0.028679207763236614,"142":0.003244464427309209,"143":-0.031123139379258986,"144":0.031173580830079626,"145":0.3212330756301133,"146":-0.037094282974611155,"147":-0.16383476324338928,"148":0.06663707616199137,"149":-0.10084878243263301,"150":-0.04222634383677699,"151":-0.07173140331356168,"152":-0.0655845728170419,"153":0.11277624763152758,"154":0.21546402539422665,"155":-0.12289699975607762,"156":-0.09020467940480602,"157":0.17976804720637043,"158":-0.06818865209504901,"159":0.07746439209982656,"160":-0.16873501360470972,"161":-0.0478593144620161,"162":-0.024956289817731094,"163":0.05760798861881579,"164":-0.05673710068816614,"165":-0.05891634049050724,"166":-0.013942263203018276,"167":-0.0005537732535956739,"168":-0.1384792537656468,"169":-0.11132599810871474,"170":-0.19263512184230702,"171":0.06670404269640856,"172":-0.01247681678253603,"173":-0.14274039465544383,"174":-0.18111508869653237,"175":-0.09701363922598143,"176":-0.09135059013527044,"177":-0.16454466812387117,"178":0.020776621160336378,"179":-0.28796992988264863,"180":0.027785521891558265,"181":0.08446364113861882,"182":-0.09903268316564083,"183":-0.03327031621774367,"184":0.06172829109732233,"185":-0.1905807362145184,"186":0.06971173901699974,"187":0.16752533904932682,"188":-0.03212003866807833,"189":0.048767759158556565,"190":-0.00983907248687766,"191":-0.14743200497883482,"192":-0.010672452178290015,"193":0.045430147021056626,"194":-0.07185326250908348,"195":-0.16977953143402258,"196":-0.06022648843850912,"197":-0.0759279282254614,"198":0.15334049674512953,"199":0.1358210156583636,"200":-0.028265401814052217,"201":-0.021876238992397157,"202":0.0669512517336069,"203":-0.11168620784563797,"204":0.04395401430875476,"205":-0.08134219431228583,"206":0.1255287571231198,"207":0.22137172965825622,"208":0.17415205794708152,"209":-0.07186151293455428,"210":-0.07253343354490997,"211":-0.004508648847474889,"212":-0.10146283033502808,"213":0.038109293493098155,"214":0.13907306099757216,"215":0.14564387951399657,"216":0.21274199055061271,"217":0.14583360845157786,"218":0.10263387092820533,"219":-0.07028273894604437,"220":0.05940627632993827,"221":-0.07552050516584814,"222":-0.13372714902499558,"223":0.06353153985936612,"224":0.018579316933737024,"225":0.23619928047770242,"226":0.11697427220078074,"227":-0.009045949162105417,"228":-0.07144518954268118,"229":0.012996681060642319,"230":-0.10692504781501451,"231":-0.16829533017526704,"232":0.08770321527340959,"233":0.02748420547221943,"234":0.1465845506109985,"235":-0.06731369761018206,"236":-0.02348017838315466,"237":0.052101896489600896,"238":-0.19465686416238137,"239":0.06860674159302735,"240":-0.007082221835460421,"241":0.05772486620130152,"242":0.1397062957499333,"243":-0.00031418404713968177,"244":-0.02489153881959254,"245":-0.056201048469167486,"246":-0.012849615230249795,"247":-0.3083279932723128,"248":-0.1850702123592195,"249":0.08104653972793104,"250":-0.15501336264341894,"251":0.15273237103762802,"252":0.0780262352116784,"253":-0.03579389771068378,"254":-0.03774344366962758,"255":-0.10544491952497638,"256":-0.2814661804977666,"257":-0.3004923198846837,"258":0.13243304438436793,"259":-0.03602736432117304,"260":0.0681853231227552,"261":0.0071331808832891625,"262":-0.010200541183945129,"263":-0.055253550791214766,"264":0.15273896093480266,"265":-0.09511467645336438,"266":-0.22306007814107792,"267":0.08842306604495996,"268":-0.09059517907965645,"269":-0.028793865502282457,"270":-0.14200681682263316,"271":0.024215313689483053,"272":0.006082854693129322,"273":-0.05680240983889739,"274":-0.010200339454147703,"275":-0.023108568781489338,"276":0.11016816719272282,"277":-0.014254192508075811,"278":0.0371942465029831,"279":-0.12286492426280547,"280":-0.06418436599678849,"281":0.0771596100034145,"282":-0.08670900047275758,"283":0.016905747756609905,"284":-0.08134938212364752,"285":0.050935894935829604,"286":0.05426838338870244,"287":0.021932077892361148,"288":-0.12400630615678393,"289":-0.07750162580954505,"290":-0.06905209220786802,"291":-0.10947975847093779,"292":0.010450393149849095,"293":-0.018648867920544415,"294":0.01029854391504637,"295":-0.04593289646596109,"296":0.08081853175081466,"297":-0.15087198591402207,"298":0.11088394486639834,"299":-0.05338672907797403,"300":0.08465200099948769,"301":-0.15894044696056073,"302":-0.090035895264046,"303":0.02266324809653419,"304":0.09962438761365125,"305":0.026636118470696826,"306":0.05311572090458105,"307":-0.06221867551646101,"308":-0.1348973057094295,"309":0.09043542176316094,"310":-0.07131201888990216,"311":-0.35494678925762935,"312":0.2893486453604964,"313":0.13354488756414273,"314":-0.044463516782550845,"315":-0.10446759892342183,"316":-0.052787000891002675,"317":-0.19609183263208987,"318":0.03146539825242111,"319":0.0363897829133648,"320":-0.28551119718752443,"321":0.23277293185062312,"322":-0.1398891009020535,"323":-0.06627670195884332,"324":-0.020697027966707495,"325":-0.08393459644045893,"326":-0.17565334120966702,"327":0.13756340627939856,"328":-0.1028332163367857,"329":-0.4533293649990431,"330":0.21746018163516065,"331":-0.05611943384626911,"332":-0.015251672551882355,"333":0.21375621136185052,"334":0.018369515529907066,"335":-0.2555238019237133,"336":0.07427826840831445,"337":0.18131630833430692,"338":-0.27805591212111674,"339":0.006960105890548286,"340":-0.0005065777181071439,"341":0.00510853443478593,"342":0.020093253506267863,"343":0.03594304080734762,"344":-0.36280523662070063,"345":0.08372222620193344,"346":0.12026428768141283,"347":-0.048940792567414536,"348":-0.24020358800233826,"349":-0.10096124045069475,"350":-0.06569387448616969,"351":0.0293974369843169,"352":0.07325033303577591,"353":-0.304149992903995,"354":0.18991733532047325,"355":0.22474329123244488,"356":0.41078844595074443,"357":-0.08058210942062996,"358":0.05527708956382051,"359":-0.03626794832964456,"360":-0.11648579982241938,"361":0.0977570494539235,"362":-0.3247622626362168,"363":0.1559139703874638,"364":-0.10344629606470354,"365":0.29402881025225475,"366":-0.14348814988362013,"367":-0.12711023996760754,"368":0.011195193552227548,"369":-0.07424953254486612,"370":-0.049649638278621136,"371":-0.01468613000917427,"372":-0.011731144897799597,"373":-0.13406190877573507,"374":-0.061305809301582546,"375":-0.06045555389255743,"376":-0.024233818082979544,"377":-0.02797927507074905,"378":-0.08562189927032778,"379":-0.056909703165916765,"380":-0.11876056962617579,"381":-0.21453691543758505,"382":-0.11213790087135196,"383":-0.4176728596641148,"384":-0.017260326903073657,"385":-0.0017259171862363846,"386":-0.033306115502948284,"387":0.11544992591352544,"388":-0.020320872584686765,"389":-0.0003551936555356563,"390":-0.44065384628654986,"391":-0.09615681004411067,"392":-0.6043790061271058,"393":0.13861006471533388,"394":-0.04302287941582497,"395":0.1112516742733185,"396":0.04301737840089257,"397":0.1010441564327864,"398":0.14912435189546908,"399":-0.32237728340353106,"400":0.2530077810632778,"401":-0.5731596774416864,"402":0.2807949304374484,"403":0.32527706371826104,"404":0.01994338951132972,"405":0.055996637512414474,"406":0.038036333213116426,"407":0.16534982118504105,"408":-0.5081996791492817,"409":0.17628412954676673,"410":-0.4611041163770743,"411":0.31402761370252913,"412":0.09132529954078517,"413":0.08669180948061411,"414":-0.08371864450726109,"415":-0.11926849631730303,"416":0.11544186021128919,"417":-0.3503100949393652,"418":0.18379523932373967,"419":-0.5329827785242538,"420":0.1917401291732355,"421":-0.014262327099878744,"422":-0.028760735043019375,"423":-0.004028365265799157,"424":-0.03583704174339401,"425":0.13223644616464866,"426":-0.21535176651113042,"427":-0.04716916727702295,"428":-0.6360324309667825,"429":0.11454254152055084,"430":0.051102358885234504,"431":0.025727015886640132,"432":0.12418975747880844,"433":-0.026884776922177642,"434":0.10634995510662427,"435":-0.18373114419178918,"436":-0.16254905864869112,"437":-0.3837904191668527,"438":0.17719413321895616,"439":0.04106494687916571,"440":0.026264692623264814,"441":0.13868184524095503,"442":0.16981273023029525,"443":0.22575192281140533,"444":-0.03601068873452302,"445":-0.34880331488441346,"446":-0.082558991544494,"447":0.13596709817394506,"448":-0.06403962583218642,"449":-0.2336669465971699}},{"sx":1,"sy":1,"depth":450,"w":{"0":-0.011933535712979998,"1":-0.13108419835244367,"2":-0.014459939209877242,"3":0.048052802453900666,"4":-0.21520571382846776,"5":-0.0251854107404294,"6":-0.28615703962913414,"7":-0.15535112407255589,"8":-0.024373520308056434,"9":0.05769310283209719,"10":-0.01631001614947411,"11":0.019778639424045587,"12":-0.05712857896567133,"13":-0.04469205583443434,"14":-0.024845864933900244,"15":-0.09300620990678024,"16":0.11267600949475823,"17":-0.0894382908685411,"18":0.05049618030154619,"19":-0.060189882289414645,"20":-0.07187605651347258,"21":0.003122897353301083,"22":-0.0182254760841,"23":0.04638156349693289,"24":-0.1371850259514207,"25":-0.19429734222838024,"26":-0.010040361986342453,"27":0.055352082618812234,"28":-0.0019635038759702444,"29":-0.03172957120728389,"30":0.03178369400753634,"31":-0.08079646017831774,"32":0.020752178327266196,"33":0.008968663124258074,"34":-0.08437040060784894,"35":-0.061423230584725444,"36":0.05076079843671189,"37":-0.01905679039687681,"38":-0.012319668915178293,"39":0.03419904155030371,"40":-0.13029554652846426,"41":-0.0426101391966336,"42":-0.13682118743493035,"43":-0.08079496032996951,"44":-0.00942371620781076,"45":0.13313412341341488,"46":0.015485819237929549,"47":-0.087318350494212,"48":0.015278765782755065,"49":-0.04802280481379789,"50":-0.0854278320856987,"51":-0.13413156137200585,"52":-0.04904106767702903,"53":0.04657490234531636,"54":-0.02442846837014092,"55":-0.015439230679200553,"56":-0.045933500282378095,"57":-0.010483023451924872,"58":-0.028949559695122765,"59":-0.10188967950509634,"60":-0.058008273976379886,"61":-0.09673321478125156,"62":-0.03346074138442127,"63":0.048966350675848286,"64":0.007447700100900061,"65":-0.032918474266752686,"66":0.11567535452499483,"67":-0.026941836758511438,"68":0.11579759945867771,"69":-0.1346697409787039,"70":-0.039316237829544846,"71":-0.0811609885696966,"72":0.05495677186766296,"73":0.008596298955220679,"74":0.026735953467406284,"75":0.00131416841628568,"76":-0.046217884147198234,"77":-0.00879551837483156,"78":-0.0404979513410417,"79":-0.05897616977543277,"80":0.017930792801457453,"81":0.05345598611244139,"82":0.023108719507421875,"83":0.08406842313541105,"84":-0.06312472395073215,"85":-0.010377043838375568,"86":-0.00021424512691568364,"87":-0.1449317410589855,"88":-0.01481951492310263,"89":0.024356768997873125,"90":0.06728430122347402,"91":-0.05152292098241366,"92":-0.0644431219071362,"93":-0.03373871600417609,"94":-0.08109364694709274,"95":-0.10654665758110383,"96":0.03680493687726629,"97":-0.0390001857746242,"98":0.009201004057029947,"99":0.07709962915505306,"100":-0.08067344571244386,"101":-0.007318282216951071,"102":-0.0054232167570040365,"103":0.08166528291251644,"104":0.12133581949532113,"105":-0.09701581220500342,"106":0.045817804810737627,"107":-0.0021772631169201862,"108":0.029578010436698013,"109":-0.0359083123402277,"110":0.006867782466724509,"111":0.05934625598050787,"112":0.05371751898504294,"113":0.017012211442506406,"114":-0.05181950175052106,"115":-0.035257042664205325,"116":0.0855718860474731,"117":-0.015928634168436737,"118":-0.026232892004479317,"119":0.06010202836756168,"120":-0.008924660833826939,"121":-0.05440153324328085,"122":0.051948708982140185,"123":-0.06118653622416305,"124":-0.07442661076083057,"125":0.027923022536766783,"126":0.032190455073595026,"127":0.0042776780015548925,"128":0.07612714018029723,"129":-0.0006173149651784921,"130":-0.029313394234438944,"131":0.05884149625690542,"132":-0.0008318290074188831,"133":0.0916765167147916,"134":0.06096194609125137,"135":-0.02684855846854446,"136":-0.05677886358168052,"137":0.10208792130057076,"138":0.09631275772633781,"139":-0.017521932205438562,"140":0.16998300796199664,"141":0.011666503991291682,"142":0.13358539984344264,"143":-0.0021511051501511974,"144":0.0062486228055972145,"145":-0.0305232183815179,"146":0.01369297400003767,"147":0.05265074799905037,"148":0.03646291064846368,"149":0.09206317215056443,"150":-0.0074975870322546165,"151":-0.030272484297792817,"152":-0.05117410763484039,"153":0.0489792573118358,"154":-0.1116377223766806,"155":-0.08675196570089054,"156":0.03372819390763858,"157":-0.07834775188164192,"158":0.10323444230043619,"159":-0.05616639415249674,"160":0.12100751404268927,"161":-0.058083514074583044,"162":0.02735812976334161,"163":-0.0006383451308466278,"164":0.07429147919752456,"165":0.04034263098889171,"166":-0.027730769788337557,"167":0.09091656072681063,"168":0.1588907159648585,"169":0.03257235688085796,"170":0.023203750075428048,"171":0.08825928976451791,"172":-0.027079983619231193,"173":-0.02796853955617096,"174":0.047350112195004214,"175":-0.005441087700372382,"176":0.1711886752024676,"177":0.1356087132130365,"178":0.003986964240778857,"179":0.00603373356068827,"180":0.04262842224609533,"181":-0.05204135772873027,"182":0.0064893865120381165,"183":-0.08727132733356681,"184":-0.01242387985002308,"185":0.21711730420790265,"186":-0.009602929007744348,"187":0.025141101171259672,"188":-0.029660476897325865,"189":0.017963524595081576,"190":-0.041674416280808264,"191":-0.043666076163144954,"192":0.13649088348598126,"193":-0.03110952409532638,"194":0.29017622630572154,"195":0.14769678170873834,"196":0.03784803029119317,"197":-0.10071868025816065,"198":0.029971849633405843,"199":-0.009097618526996393,"200":0.051558585305044195,"201":0.0631899665353965,"202":-0.0890562302608783,"203":0.3714281691494327,"204":0.1475313681671299,"205":0.05299427334165115,"206":0.016340511442100396,"207":0.051525004019472645,"208":0.012329149875385116,"209":0.10255439478379218,"210":-0.04554828008776745,"211":-0.06544081372155174,"212":0.4644512463992278,"213":0.26565315457826394,"214":0.11896580243732163,"215":-0.0000061624496035320164,"216":-0.00695767997100684,"217":0.026695661930572948,"218":0.007720668736693795,"219":0.04545347575540946,"220":-0.07300946185071515,"221":0.5915987810520431,"222":0.18520951481003411,"223":0.09285698507035388,"224":-0.029487620920992077,"225":-0.06675036935011122,"226":-0.018167260913717315,"227":-0.01644642921960953,"228":-0.03246988896004009,"229":-0.013508028694137742,"230":0.5314887844762561,"231":0.3044112794279473,"232":0.08160434428224875,"233":-0.07469119751257748,"234":-0.016389227898816857,"235":-0.025086001128903076,"236":0.08743041924508169,"237":0.048410784471744746,"238":-0.2143492156916277,"239":0.6126131953122477,"240":0.11278930117036405,"241":0.03518973825472078,"242":0.000047407463116820245,"243":-0.11230745631124979,"244":0.03529763831284111,"245":0.05456322722168051,"246":-0.02136835243340396,"247":-0.2545301590953053,"248":0.6445210201127507,"249":0.3280308029257133,"250":0.0635486030422346,"251":-0.12555971213044545,"252":-0.12712717542240287,"253":-0.033890578237501474,"254":-0.016291320176819224,"255":-0.11446640578177569,"256":-0.25234724765534716,"257":0.5759707340548714,"258":0.3350605620119333,"259":0.017213763415454653,"260":0.05814716027816308,"261":-0.12516008273978918,"262":-0.03513112843017126,"263":-0.027356528358011865,"264":-0.005402633894600019,"265":-0.24084829664927454,"266":0.6170884051831704,"267":0.262173148654255,"268":0.09879728615266506,"269":-0.08576028803103375,"270":-0.106619193055065,"271":0.10043865897539077,"272":0.0007554231513646343,"273":-0.14177548512140362,"274":-0.14300088680683398,"275":0.6091204720862083,"276":0.349813529881952,"277":0.04132739837595187,"278":-0.13449837493022349,"279":0.03513785228628679,"280":-0.037023154390974616,"281":-0.10421393875558267,"282":-0.1707158139889859,"283":-0.24638895421774767,"284":0.4081607139079721,"285":0.32089731726122767,"286":0.11880118258519036,"287":0.0819510030638226,"288":-0.013029252591298465,"289":-0.0857574909716572,"290":-0.07666843857028105,"291":-0.010026608953351465,"292":-0.28291308740592125,"293":0.4519935097512245,"294":0.3633367733655785,"295":0.01244560628502669,"296":-0.017887513291708932,"297":0.058496314616540035,"298":-0.028951942918975505,"299":0.09392678776904029,"300":-0.003949676790487118,"301":-0.3254943784414177,"302":0.5095812583941635,"303":0.28207285995563053,"304":0.043626559408278205,"305":-0.00949573901709032,"306":0.0020622901355299276,"307":0.013250465577246587,"308":0.08671977826757746,"309":-0.0333655228265052,"310":-0.14310671288816065,"311":0.46886400154164004,"312":0.34050867072821894,"313":0.023648344567998948,"314":-0.05659713970544322,"315":-0.0026169544201936966,"316":-0.15130948176539508,"317":-0.12631403166181016,"318":-0.05931387848083525,"319":-0.22529457470997943,"320":0.2220939807483039,"321":0.2909367428976142,"322":0.0853249666602453,"323":-0.1386554744236187,"324":0.028944801831473597,"325":0.06474542730965459,"326":0.05077489322902815,"327":0.026970618301455893,"328":-0.305235075452938,"329":0.29952705491286025,"330":0.17531395311746692,"331":-0.10414067121521853,"332":-0.07455402028905883,"333":-0.02433283095772205,"334":0.03662230219119108,"335":0.01571577172596689,"336":0.049840302508080025,"337":-0.28726184485391826,"338":0.035311672020918825,"339":0.10668307398530817,"340":-0.08347473476833686,"341":-0.0942955903434439,"342":0.0394001823888034,"343":-0.06520678530333762,"344":-0.07501908186413181,"345":0.00957775052122268,"346":-0.46316276031311854,"347":0.0833978984863527,"348":0.02765705886375957,"349":0.00018692654222063793,"350":0.07971797776240996,"351":0.025650401417581282,"352":0.011547075086133542,"353":0.03767434146107814,"354":-0.04465143556160355,"355":-0.5169664639843177,"356":0.16124972854024694,"357":0.12576086805472173,"358":-0.030396625108531503,"359":-0.08317062605054254,"360":-0.0825326828373651,"361":0.03297225000002869,"362":0.035885355296185424,"363":-0.016570174337540763,"364":0.0011816992057411258,"365":0.06952201750402336,"366":-0.10113614192691352,"367":-0.04010953574070137,"368":-0.17785294234818913,"369":0.008184477921861758,"370":-0.022502043545694225,"371":0.06582436272587561,"372":0.1606028496727284,"373":0.030660262429670956,"374":-0.01718924919205151,"375":-0.1548044818752246,"376":-0.037660303314036546,"377":-0.005579891504184888,"378":-0.09405498620552145,"379":0.022213847272178358,"380":-0.09633274818368019,"381":-0.009330373073742067,"382":-0.034917861583335756,"383":0.0866341417436508,"384":-0.2488558894718239,"385":-0.10922351692784019,"386":0.04036645079915424,"387":0.03565253414225565,"388":0.033561807530283684,"389":-0.0812063299170223,"390":-0.018809709510773487,"391":-0.04093616428893069,"392":0.08054985944130572,"393":-0.2005065099792948,"394":-0.10280280428170162,"395":0.0397620241823474,"396":-0.05963710408951284,"397":-0.0019680165659634024,"398":0.019548988432713806,"399":0.08709669745319557,"400":-0.5093294987953944,"401":-0.052624901632140904,"402":-0.0625845792817141,"403":0.01921014061370163,"404":-0.05711419882945319,"405":-0.020756372261448653,"406":-0.08428100414491824,"407":0.04988593035592607,"408":-0.018569868588535116,"409":-0.6324551641692883,"410":-0.030125242714802415,"411":-0.19317908431417377,"412":-0.03601841175515213,"413":-0.02407240518675527,"414":-0.07002378535693395,"415":0.012580512047819223,"416":0.06622472073437327,"417":0.03823566617533163,"418":-0.46463507876200394,"419":0.06535918794112758,"420":-0.07447895997386142,"421":-0.0375269030831527,"422":0.011518454334165694,"423":-0.1021724848835957,"424":0.001777046055446776,"425":0.0013620090554808035,"426":0.1430848229742326,"427":-0.2613135776423402,"428":-0.06285006642512364,"429":-0.007931308460717598,"430":-0.05878672820868451,"431":0.08817463951616143,"432":-0.06786969787778986,"433":-0.03414117587239894,"434":0.07466390330520015,"435":0.0015567439450787635,"436":-0.3720388755958021,"437":-0.03731868249228661,"438":-0.08438974251539914,"439":0.0007790972016401796,"440":-0.04468460325449577,"441":0.009191485536805023,"442":-0.16569524554372592,"443":0.008424069454290268,"444":-0.12693252970495789,"445":-0.2689263313469139,"446":-0.0672347232762424,"447":-0.21310144192150254,"448":0.06106604894010957,"449":-0.14884739515212408}},{"sx":1,"sy":1,"depth":450,"w":{"0":0.05590657479443344,"1":-0.025994762410315782,"2":-0.010180607854929493,"3":-0.15847130454249905,"4":-0.03907585435733934,"5":0.03689349165099017,"6":0.04236083257158666,"7":-0.013411674124812816,"8":-0.04591493832704317,"9":-0.04799044055253781,"10":-0.131197537957009,"11":-0.08974813974199077,"12":0.04147692356139398,"13":0.055983970148652806,"14":-0.014283002743861389,"15":0.010232799907710878,"16":-0.07172776889513727,"17":-0.026825344774300538,"18":-0.047367266482697484,"19":-0.18899421032975505,"20":-0.06433426604208152,"21":0.003426817874393487,"22":-0.0836487761349028,"23":0.009071243617070677,"24":-0.0872360924625229,"25":-0.05110596685897381,"26":-0.10155453546758132,"27":-0.024430429371119985,"28":-0.08636420235445812,"29":-0.09087712911178722,"30":0.03761709716990521,"31":-0.12485570919530554,"32":-0.03573422706937449,"33":-0.02431958040834755,"34":-0.09421951510864973,"35":-0.13107775836774882,"36":-0.2024520932618183,"37":-0.1837913538315644,"38":-0.10331343510797757,"39":-0.03319989213275475,"40":-0.16945686072896537,"41":-0.04112575038389385,"42":-0.12848584234205837,"43":-0.18397553492284258,"44":0.0022820440391261606,"45":-0.08519425039825786,"46":-0.13943741474204566,"47":-0.031945753495902056,"48":-0.027080763251341188,"49":-0.08419006567089066,"50":0.048447837629998734,"51":-0.03787152284064694,"52":-0.08913144656541445,"53":-0.08453796905536556,"54":-0.11974803402645996,"55":0.050052500176524066,"56":-0.05250065763224336,"57":-0.030731265449834014,"58":0.010524325622270648,"59":0.1982376737839081,"60":-0.07897352123210213,"61":0.0021055805876381054,"62":-0.05974240338970472,"63":0.019793686454970438,"64":0.009708011748743469,"65":-0.08733043292122053,"66":-0.005879338291455682,"67":-0.07251886831469614,"68":0.068892953768701,"69":0.02790926789637058,"70":-0.08164292131435819,"71":-0.06216206014017827,"72":-0.05785834268192165,"73":-0.17300156595623598,"74":-0.002785633370616711,"75":-0.019129301048519586,"76":0.07035418995985367,"77":0.008185433654224706,"78":-0.049309463587048956,"79":-0.1294222990035371,"80":-0.15278694780027638,"81":-0.01712903005746138,"82":-0.091288673842191,"83":0.024073026508255296,"84":-0.048129098074074235,"85":0.0967413807454296,"86":-0.1039874737997109,"87":0.15633568674304518,"88":-0.07720429093852448,"89":-0.032430268101792975,"90":-0.0698781649263951,"91":-0.08596039418085874,"92":0.09882958342081227,"93":-0.06634169719440795,"94":0.09747878740528322,"95":0.05986191736887094,"96":0.06772188147584363,"97":-0.12223797978127442,"98":-0.0453084312467809,"99":-0.048640748546147236,"100":-0.01364983974912525,"101":-0.00038232093756598927,"102":-0.17045306726670742,"103":0.20465323514332193,"104":-0.04708590407200636,"105":-0.013221872719397216,"106":-0.10416293379718455,"107":0.08426525349276645,"108":-0.03366888515705273,"109":0.20838530658745033,"110":-0.04537458708526857,"111":-0.11670320792878644,"112":-0.04875856225614077,"113":-0.03678502430181622,"114":0.07258287592674363,"115":-0.027282431903126306,"116":0.06685097470641375,"117":0.051097002292010585,"118":0.06610359706467835,"119":-0.1349354884788585,"120":-0.03561464085544151,"121":-0.13601338921959702,"122":0.005635805572312663,"123":-0.03246034036672338,"124":0.019154102677475644,"125":0.0030647349025418776,"126":0.0067046653901160205,"127":-0.0023511833633217878,"128":0.02127045750224183,"129":-0.14542224625136152,"130":0.11086914911465486,"131":-0.11075132208882776,"132":-0.1179815778317759,"133":-0.06889234449725382,"134":-0.11607057241693204,"135":-0.12419229176533177,"136":-0.08507852233798603,"137":-0.00482753232695414,"138":-0.08570513492970692,"139":0.05460198416669116,"140":0.04531006161847487,"141":-0.008281115256846829,"142":-0.07794420505860554,"143":-0.08399881869033701,"144":0.07486454042101655,"145":0.03874961271478012,"146":-0.07524649657616117,"147":-0.04491213178735587,"148":0.013509327212611987,"149":0.06349970876679974,"150":-0.1202389641139756,"151":-0.017206091770119707,"152":-0.026849801382005163,"153":0.027349205023285313,"154":0.00195919392066335,"155":-0.09851558908958977,"156":-0.05526589488046592,"157":0.10400986289826622,"158":0.03504285184327553,"159":-0.004862694729666326,"160":0.037038244980603624,"161":-0.13027443305962863,"162":0.10310913720827411,"163":0.07429993436369334,"164":-0.05709613651047916,"165":-0.2727243511152662,"166":0.01847607777978362,"167":0.060743221997984584,"168":-0.03849779832494336,"169":-0.009925746098278563,"170":0.007010011619984253,"171":-0.16554874919242088,"172":0.11837922257676563,"173":0.009893232221834736,"174":-0.05483300085090195,"175":-0.05211398180217746,"176":0.12319352129769097,"177":0.004144821714138836,"178":0.020571105613483683,"179":0.013590904134147078,"180":-0.12144878984940302,"181":0.029966641045898253,"182":0.03291106777318421,"183":-0.12049259690476631,"184":0.09879621973429688,"185":0.058017896253524937,"186":0.09717708070466527,"187":0.12250910845930647,"188":0.07902753002936211,"189":0.09098851000998934,"190":0.05891398977337261,"191":0.1126950504119395,"192":-0.06027240690323195,"193":-0.1492315934217749,"194":0.04188819994935144,"195":0.08389910007317258,"196":0.007875788835819717,"197":0.07050609370299801,"198":0.03915834934421829,"199":-0.07036497089278612,"200":0.008082211266772901,"201":-0.07343265671032549,"202":-0.04583039346668217,"203":0.023634663262668894,"204":0.0017632914764007562,"205":-0.007786050839107985,"206":0.106812401131303,"207":0.04831696705820565,"208":0.05143074107990464,"209":0.03909569132904453,"210":-0.13977915642392974,"211":-0.10239458337350915,"212":0.10482737283679697,"213":0.1893571824336777,"214":-0.013613178678416086,"215":0.03090967373727451,"216":0.07614440634154523,"217":-0.05485727564837907,"218":0.1503584220835618,"219":-0.09917375312630579,"220":-0.04902327658037957,"221":0.03960432111336408,"222":-0.028385231410752727,"223":-0.07413860610286867,"224":0.00326844730048745,"225":-0.06047927727461074,"226":0.013575139642076654,"227":0.0841646760065198,"228":-0.03305026595622272,"229":0.051088168062236566,"230":-0.006131392669496108,"231":0.09553487194018304,"232":-0.07034590461739117,"233":-0.032827393550272796,"234":0.006390949903543895,"235":0.01853219416073297,"236":0.1486814815129571,"237":0.030464160491854075,"238":-0.1013623059656616,"239":0.15132278765174487,"240":-0.029587438913749427,"241":-0.04742742869215917,"242":-0.034666637944379755,"243":0.005100093335096307,"244":-0.08037958054670091,"245":0.1147291947502341,"246":0.0832227706137263,"247":-0.0632766703106493,"248":-0.018428953406152367,"249":0.027585834108376138,"250":-0.03188297550833682,"251":0.008436859095109404,"252":-0.04572812026097532,"253":0.03207834261776683,"254":-0.024847640070480504,"255":0.22967879504444078,"256":-0.038171383976315636,"257":0.03829447220777103,"258":0.10237656465720131,"259":-0.059091556371906676,"260":0.04245646426267354,"261":-0.09331522520330005,"262":-0.018640997486587155,"263":0.16296327567068986,"264":-0.08309781457153541,"265":-0.06499146474625936,"266":0.012300887793589727,"267":0.022639455408700576,"268":-0.04827268681813523,"269":0.10186443648020417,"270":-0.1474115824595588,"271":0.10640457724072501,"272":0.2274570039405866,"273":-0.13516184849488388,"274":-0.09502261384854596,"275":0.12819378968619938,"276":-0.00202510439886163,"277":-0.03465501955067339,"278":0.06075160434660239,"279":-0.07227049139907615,"280":0.07551227224553995,"281":0.1534103879810061,"282":-0.10932422747416028,"283":-0.0406409337136097,"284":0.009248124366079705,"285":-0.17483640049318663,"286":0.03501664387902885,"287":0.13749720954073835,"288":-0.17147070984579893,"289":0.025549531595295095,"290":0.14718318372652478,"291":0.007019057887751665,"292":-0.21248964204463505,"293":0.1472671013245988,"294":-0.0910154252355653,"295":-0.023140471092959584,"296":-0.00003592976704505543,"297":-0.10711987047716677,"298":0.09671098434115608,"299":0.13266281180966888,"300":-0.05260758098038798,"301":-0.3774634451070346,"302":-0.2365683259282989,"303":0.016343934365873957,"304":-0.004759857644762753,"305":0.04658970270947672,"306":-0.008011200080116299,"307":0.10708421263055679,"308":0.28773409250271453,"309":0.05889610799884385,"310":-0.5528545268089542,"311":-0.16242439245071005,"312":0.11935467243407229,"313":0.02415656868181478,"314":-0.005189608429738605,"315":-0.014025054616545773,"316":0.08319155207573949,"317":0.07908899838981592,"318":0.02573690552221557,"319":-0.6533037851582367,"320":-0.1629983298860773,"321":0.04068026967914363,"322":-0.04794867663362618,"323":0.0021831899724103726,"324":-0.05415190461421956,"325":-0.0006056712935953242,"326":0.10587665201711997,"327":0.010025439842325186,"328":-0.5798242949155664,"329":-0.31641428258859144,"330":0.032282927457113905,"331":-0.06970802076964966,"332":0.009782515842503385,"333":-0.0729196153691442,"334":0.032145876118347946,"335":0.0944316815101866,"336":0.1277588082955559,"337":-0.5249008983775545,"338":0.02655835239203139,"339":0.007966542769821228,"340":-0.08546491407791618,"341":-0.05087790420132644,"342":-0.051062820589766196,"343":-0.09636888546338605,"344":0.16119452357132275,"345":0.32397400367287793,"346":-0.2919671713598167,"347":-0.14057852886344904,"348":-0.010693331488623675,"349":-0.0013869028316782937,"350":-0.008206402581719575,"351":-0.0931944588323504,"352":-0.051809818269172754,"353":0.23376986623123822,"354":0.41726942243917126,"355":-0.29155763128656326,"356":-0.4025357624952028,"357":-0.03125367173454875,"358":-0.11191848366538816,"359":-0.1565140470473681,"360":0.0019852273268228787,"361":-0.186618838776301,"362":0.3347626601895062,"363":0.5887831835858298,"364":-0.058038335836009605,"365":-0.269452453304247,"366":0.10147608617464042,"367":-0.09566325867897749,"368":-0.11915222089171783,"369":-0.07849339150538172,"370":-0.06750023847189765,"371":0.18855835669418045,"372":0.6884024691738239,"373":0.11067776444055172,"374":-0.1088153109538359,"375":0.06434002711771396,"376":-0.1199138178864595,"377":-0.14986102910372495,"378":-0.002929485647554222,"379":-0.01330210422794044,"380":0.19902768459781445,"381":0.5234219998279014,"382":0.009308185124278128,"383":-0.05977182438455222,"384":-0.03224960533096606,"385":-0.17975134953629388,"386":-0.09022194296524946,"387":-0.1282323833012924,"388":0.07745577059906832,"389":0.12589371683794823,"390":0.6108851281510044,"391":0.053212934773172335,"392":-0.10459028995194698,"393":-0.06353499635070455,"394":-0.0849495770867366,"395":-0.10718314064242525,"396":-0.0012334185843554237,"397":0.007320983691627431,"398":0.08094582285973931,"399":0.5617073831311895,"400":-0.3672519038744146,"401":-0.14474836866146243,"402":-0.11407765370316841,"403":-0.013394446542699568,"404":-0.002203280592836696,"405":-0.09744646577089178,"406":-0.002661833436585015,"407":0.13017967816940934,"408":0.4235087719893453,"409":-0.2898027265764341,"410":-0.08722648600483016,"411":-0.1382751427766975,"412":0.046121126696650916,"413":-0.07273894344477157,"414":0.009072800983007355,"415":0.041310854362026236,"416":0.16297269015151766,"417":0.46660446938496547,"418":-0.30963560542924434,"419":-0.03215378629719465,"420":-0.0017157826801803098,"421":0.010511794004728806,"422":0.03295422489358598,"423":0.1216355877477367,"424":-0.024797183893759553,"425":0.11252800893766557,"426":0.34518820933953775,"427":0.06071706838854343,"428":-0.062067252810749485,"429":0.036169143253172,"430":0.030282591192355112,"431":-0.05028037478408791,"432":-0.005451493273663714,"433":-0.05376770427641422,"434":0.20351620671138076,"435":0.21234008386298028,"436":-0.1856067063190663,"437":0.023348202793343212,"438":0.07953965396275671,"439":0.16933529926210766,"440":-0.028039552378056217,"441":-0.08625923356088988,"442":-0.20661887018288222,"443":-0.0009109305652208726,"444":0.15376940037927064,"445":-0.4660575661775614,"446":-0.03224074428817049,"447":0.07228785584022514,"448":0.07478109176525966,"449":-0.04154063389022544}},{"sx":1,"sy":1,"depth":450,"w":{"0":0.0483539280690543,"1":0.05185813603653358,"2":-0.09188934620069855,"3":0.04539946172503424,"4":-0.09864938879937422,"5":0.13039866882898454,"6":0.02954337628981342,"7":0.03946823369815083,"8":-0.02349898131159568,"9":0.08901602706929261,"10":0.10605185005077518,"11":-0.00781712057116844,"12":0.10238348635328794,"13":0.03461065264629228,"14":-0.006288927819390209,"15":0.09062743829446787,"16":-0.0024306072752723,"17":0.04837147130596077,"18":0.02813781870855952,"19":-0.002837014755839713,"20":-0.1768374978339928,"21":-0.014427873389761682,"22":0.04125694250471786,"23":0.08033978388821317,"24":-0.017411517393927746,"25":0.12049628245640565,"26":0.0580627304721597,"27":0.0863440301853501,"28":0.018984892983598706,"29":-0.0007531037325912895,"30":-0.05591045880133795,"31":0.051934816054305326,"32":0.03359091966296563,"33":0.020659921853474816,"34":0.0019520293185667755,"35":-0.03310596273618443,"36":0.015713754843300995,"37":-0.045756395533726964,"38":-0.08500437573279973,"39":-0.020275917485282215,"40":0.10754339468432167,"41":0.04406376212917955,"42":0.051855017397528,"43":0.009194185284019454,"44":-0.002213480569855573,"45":-0.002405590094429244,"46":0.0022120749429841583,"47":0.10111092390123377,"48":-0.0013611702118161884,"49":-0.09295273646095821,"50":0.06011004262416994,"51":0.01850908143654855,"52":0.14609745908282615,"53":0.014994302517560194,"54":0.08811098044311598,"55":-0.03796324800083068,"56":-0.010289878450409714,"57":0.05770619197705674,"58":-0.040154864873769375,"59":0.11058497619704316,"60":0.001411769043251028,"61":-0.006855031164779368,"62":0.037807381904683475,"63":0.05963716278932823,"64":-0.02509016884589288,"65":-0.01834715230496274,"66":0.08673693666946396,"67":0.05637678035665451,"68":0.1683846733979951,"69":-0.007101752746276573,"70":-0.05545317208292282,"71":0.05401372864787389,"72":0.0384553685013249,"73":-0.03069236722500038,"74":0.10218795236071467,"75":0.13737822023918195,"76":-0.009430151033910249,"77":0.01776753945720636,"78":0.026090580954501785,"79":-0.0009391146992287715,"80":0.050892012789901075,"81":-0.02138824091709681,"82":0.03237953304800692,"83":-0.0360622065678457,"84":0.04659072561266286,"85":-0.010902437263172509,"86":0.11627598845202207,