
//<![CDATA[

// a few things don't have var in front of them - they update already existing variables the game needs
lanesSide = 4;
patchesAhead = 40;
patchesBehind = 10;
trainIterations = 500000;

// the number of other autonomous vehicles controlled by your network
otherAgents = 0; // max of 10

var num_inputs = (lanesSide * 2 + 1) * (patchesAhead + patchesBehind);
var num_actions = 5;
var temporal_window = 0;
var network_size = num_inputs * temporal_window + num_actions * temporal_window + num_inputs;

var layer_defs = [];
    layer_defs.push({
    type: 'input',
    out_sx: 1,
    out_sy: 1,
    out_depth: network_size
});
layer_defs.push({
    type: 'fc',
    num_neurons: 30,
    activation: 'tanh'
});
layer_defs.push({
    type: 'fc',
    num_neurons: 30,
    activation: 'tanh'
});
layer_defs.push({
    type: 'fc',
    num_neurons: 20,
    activation: 'tanh'
});
layer_defs.push({
    type: 'fc',
    num_neurons: 20,
    activation: 'tanh'
});
layer_defs.push({
    type: 'fc',
    num_neurons: 20,
    activation: 'tanh'
});
layer_defs.push({
    type: 'regression',
    num_neurons: num_actions
});

var tdtrainer_options = {
    learning_rate: 0.001,
    momentum: 0.0,
    batch_size: 128,
    l2_decay: 0.01
};

var opt = {};
opt.temporal_window = temporal_window;
opt.experience_size = 500000;
opt.start_learn_threshold = 100000;
opt.gamma = 0.95;
opt.learning_steps_total = 100000;
opt.learning_steps_burnin = 3000;
opt.epsilon_min = 0.0;
opt.epsilon_test_time = 0.0;
opt.layer_defs = layer_defs;
opt.tdtrainer_options = tdtrainer_options;

brain = new deepqlearn.Brain(num_inputs, num_actions, opt);

learn = function (state, lastReward) {
brain.backward(lastReward);
var action = brain.forward(state);

draw_net();
draw_stats();

return action;
}

//]]>

/*###########*/
if (brain) {
brain.value_net.fromJSON({"layers":[{"out_depth":450,"out_sx":1,"out_sy":1,"layer_type":"input"},{"out_depth":30,"out_sx":1,"out_sy":1,"layer_type":"fc","num_inputs":450,"l1_decay_mul":0,"l2_decay_mul":1,"filters":[{"sx":1,"sy":1,"depth":450,"w":{"0":0.024823003766638534,"1":-0.0031050866253070687,"2":-0.046003306792451786,"3":-0.05854333367420944,"4":-0.014645070367544085,"5":0.018419013016208723,"6":0.012876773308526934,"7":-0.012655788392518921,"8":-0.010170901640026443,"9":-0.030390581925847128,"10":-0.0017517804629722943,"11":-0.02688147183720281,"12":-0.09553479215578169,"13":-0.04631510917956617,"14":-0.05073640193561876,"15":-0.09191264758347302,"16":-0.02262908021010281,"17":0.15639299637798115,"18":0.0015928247759520228,"19":0.023492628113238892,"20":0.002915276911913536,"21":-0.0908470402579703,"22":-0.006212916522467155,"23":-0.06251096509576783,"24":-0.005322645107574435,"25":-0.061628849228134205,"26":-0.05205128430446898,"27":-0.015535890578343885,"28":0.030576809145763825,"29":-0.08793597162441504,"30":0.0525478692282553,"31":0.003767222048300063,"32":-0.055429885021846176,"33":-0.09088296196580246,"34":0.001738932407482045,"35":0.11549953130694973,"36":-0.016540102982737875,"37":0.01882810320852528,"38":-0.08082773238436353,"39":-0.053210290114915806,"40":-0.05484527379803715,"41":0.0019752948997939545,"42":-0.026816351533745002,"43":0.05521526886884023,"44":0.019779066752278935,"45":0.04315080976870465,"46":-0.028118786768024286,"47":-0.00871356619220687,"48":-0.009338841585739652,"49":-0.01887364434080754,"50":0.013187135934282794,"51":-0.037421915163243676,"52":-0.10233074044223239,"53":-0.09958490835505072,"54":-0.07397585093779567,"55":-0.014183695285535789,"56":-0.015626791546753147,"57":0.07608617526686091,"58":-0.030868228762788996,"59":-0.0027729046744647073,"60":-0.07171354263417404,"61":0.05933454359284681,"62":0.015600684102949784,"63":0.03819684410398301,"64":0.0008218475252630836,"65":-0.054562472008605215,"66":-0.0688864575503523,"67":-0.0022810818722136814,"68":-0.036814440105411184,"69":0.016606217547767355,"70":-0.04761190263917747,"71":0.008932824414865474,"72":-0.03181251832733956,"73":-0.014469563667556225,"74":0.016777696268850784,"75":0.02865317251086313,"76":-0.150618039923429,"77":0.005457757212768431,"78":-0.05521030742445412,"79":-0.07355378761041236,"80":0.013136050441267566,"81":-0.022092573591281965,"82":-0.035753919646637794,"83":0.064674232159617,"84":0.01803398372665785,"85":-0.04690670058643498,"86":-0.08469538249288015,"87":0.004244190131193502,"88":-0.007491274693958108,"89":-0.027129856793272115,"90":0.05114067667439575,"91":-0.057986219458359106,"92":0.024957488450377884,"93":-0.018279282636642313,"94":-0.020113689787435635,"95":-0.17946601277360263,"96":0.02812727519348476,"97":-0.03478419478729306,"98":-0.02072752951610368,"99":-0.01791812114759389,"100":0.039906380932100236,"101":-0.013996774499621016,"102":-0.0014263858355570498,"103":-0.028169840022820417,"104":-0.019878884445164672,"105":0.00012871063940661973,"106":-0.017793984710600553,"107":0.0034367643202676923,"108":-0.04073628318291612,"109":-0.04987698358781087,"110":-0.03520443508720035,"111":-0.0931771002001958,"112":0.005318781494555467,"113":0.049356929661683625,"114":-0.03918438892238634,"115":0.011382067120296,"116":-0.04867507084623772,"117":-0.06402075958808905,"118":0.02181203102034501,"119":0.06137437919813818,"120":-0.022816965799844678,"121":-0.012467760068080343,"122":-0.06228610361057786,"123":-0.036698561978984835,"124":-0.041170418490480164,"125":-0.0440865336856282,"126":0.05799766006270617,"127":-0.10072055557590795,"128":-0.07230207454954636,"129":-0.06584320910211494,"130":-0.09026436258571018,"131":-0.07980234800291514,"132":-0.014087936447868415,"133":-0.00759204823128276,"134":-0.0016559566740413471,"135":0.0038736699535041703,"136":0.06594520141645459,"137":0.03795440687773619,"138":0.0018663809015608088,"139":0.009134697661908631,"140":0.045766066425743226,"141":-0.07241878851831615,"142":0.033452268844271583,"143":-0.012684393817238638,"144":-0.04803567971457048,"145":-0.019375763537809277,"146":-0.09264051967467812,"147":0.02992309803233288,"148":0.031304324343551446,"149":-0.06670804699296157,"150":-0.09590788888355982,"151":-0.01679414326429859,"152":-0.0004987200702952137,"153":0.0014436673487108588,"154":-0.01589968040447894,"155":0.04822822380733973,"156":0.03757794517360033,"157":-0.020755279790801884,"158":0.04584857211531097,"159":-0.036210239640849184,"160":-0.014895079853928676,"161":-0.027148359228799893,"162":-0.05957161008611001,"163":-0.04325091029492866,"164":-0.008874427560211123,"165":-0.018441238127864485,"166":0.03407122534805143,"167":-0.00900237936688518,"168":0.02977055225785374,"169":-0.012919211325436662,"170":-0.00333032044585557,"171":-0.011434512250266189,"172":-0.05996907865982732,"173":0.00361810940459272,"174":-0.03538314814617397,"175":-0.05247626767983851,"176":0.014765313434528488,"177":-0.0034571350725542222,"178":0.01526890747558367,"179":0.022155019611815617,"180":-0.011317212148797428,"181":0.02151802735325027,"182":-0.05235658701612467,"183":-0.010100963890941853,"184":0.004797711029158213,"185":-0.054744062641483245,"186":-0.05864366042199716,"187":0.0019376873538637436,"188":0.04615727133910547,"189":0.0812224487601661,"190":0.03156272656577505,"191":-0.02297521875865426,"192":0.011383930153444147,"193":0.03526073672822604,"194":-0.08107304383894003,"195":0.002186886063894518,"196":-0.06871396770367892,"197":-0.027344589491225726,"198":-0.03815903683199878,"199":-0.02314744200090369,"200":-0.0993613480328341,"201":-0.058128843697841465,"202":-0.08579399554680855,"203":-0.00039178802643531516,"204":-0.009333471411420775,"205":-0.044611580063720756,"206":-0.04466151820491646,"207":0.00573560159368901,"208":-0.05227195128074591,"209":0.007960078456211175,"210":-0.030492154109550855,"211":-0.07153398201977594,"212":-0.06080592066039787,"213":0.04945640193646865,"214":-0.005049621859036502,"215":0.032919421082108866,"216":0.028246609165983223,"217":-0.009451144067765477,"218":0.014868126735993489,"219":-0.02507830830532173,"220":-0.01942949527003634,"221":-0.000564747179942301,"222":-0.005618373735506986,"223":-0.07949361112074922,"224":0.020495499397283193,"225":-0.017626226698834905,"226":-0.011005722932528082,"227":0.0018240650255147673,"228":-0.025495920750522757,"229":-0.0782101329003436,"230":0.005344728330651521,"231":-0.015473949520898632,"232":0.019597294852137556,"233":0.029188689609707313,"234":-0.028978171211758094,"235":-0.02363252454210655,"236":0.04472132859036658,"237":0.0008969204066327876,"238":-0.02506122533788843,"239":0.004531486532372716,"240":0.03962894955463046,"241":-0.058825794639875854,"242":-0.05465977658591997,"243":-0.04232017040625449,"244":-0.02616521328657776,"245":-0.13551278369458286,"246":0.050372099903132156,"247":-0.05614936767114568,"248":0.0031320654637879875,"249":-0.054688080538844934,"250":0.043729872851530814,"251":-0.05576466306385201,"252":-0.016254327290715617,"253":-0.08840293945580334,"254":-0.0968459193232451,"255":0.00915907547980399,"256":-0.08637159105442066,"257":-0.014289814258408324,"258":0.017181718015487145,"259":-0.026292298116878242,"260":0.018911377240616492,"261":-0.05961618140527884,"262":0.04268560990965362,"263":-0.04767976748418875,"264":-0.013540806019961498,"265":-0.07366742406062395,"266":0.05177803532275279,"267":-0.05910592813037486,"268":-0.044174377966804484,"269":0.01420852065804616,"270":-0.04709302241955021,"271":0.026864671591526963,"272":0.02447527340244465,"273":-0.11314201737276051,"274":-0.11748150450633212,"275":0.004860532139301116,"276":-0.029032498700021708,"277":-0.03751075571619296,"278":-0.034060391432131576,"279":-0.03502279443901761,"280":-0.07314720776141503,"281":0.06825418206402964,"282":-0.11251073872580543,"283":0.003047310665578143,"284":0.041575587005543646,"285":-0.030241599177813907,"286":-0.05726551047763298,"287":0.0447328009958747,"288":-0.06126678617772812,"289":-0.06243149562636785,"290":-0.05473763662865528,"291":-0.06636660921702703,"292":-0.0662850143121077,"293":0.018199496666263318,"294":0.03545722744041236,"295":-0.030600242476323664,"296":-0.01300303617513408,"297":-0.06162397869834266,"298":-0.04131326724765499,"299":-0.02447703552544768,"300":-0.005463529131809286,"301":-0.025889538393844932,"302":-0.044340104397032815,"303":-0.009615134265349348,"304":-0.03712871679873256,"305":-0.049766113981569625,"306":-0.012249521319747231,"307":-0.04179624545745721,"308":0.0019193235292625642,"309":-0.012787231262148686,"310":0.07960481004291037,"311":-0.06039797590172495,"312":0.008974659688638165,"313":-0.06846499738817571,"314":0.02345523893741746,"315":-0.03516145490922251,"316":-0.06719902417428116,"317":0.004506732624419315,"318":0.016873138745794998,"319":0.02028094906229486,"320":0.006727175484080886,"321":0.04342254799181436,"322":-0.011323990648437433,"323":-0.03440452889070672,"324":-0.09642445933260865,"325":0.02727419352874355,"326":-0.022482885787246977,"327":0.005973672254665824,"328":-0.10833680011814119,"329":0.025635823107004675,"330":0.0003047844396421286,"331":-0.0591162166617093,"332":0.020527226532607606,"333":-0.09551389299671202,"334":0.025753785598305184,"335":-0.04548380065655374,"336":-0.05561577321772663,"337":-0.048154428548714726,"338":0.008381152165908573,"339":-0.024994259044995408,"340":-0.026119707727385796,"341":-0.015100613665740885,"342":0.10604232695789241,"343":-0.0003236933467591979,"344":-0.03478158021585305,"345":-0.04781288339043075,"346":-0.045251730855228094,"347":-0.03958096653063524,"348":0.01464611638598527,"349":-0.02743887016980193,"350":0.027198608425109745,"351":-0.009274277202724593,"352":-0.0334999693869009,"353":-0.006781596950823397,"354":-0.006895853292738233,"355":0.017863216904321782,"356":-0.07448262044126124,"357":-0.09332427475011777,"358":-0.009592966672931537,"359":0.07892158267055639,"360":-0.08681673006609802,"361":-0.10984930097808748,"362":-0.05023220353655707,"363":0.006679986290417353,"364":0.0181559014513999,"365":-0.04897155816769421,"366":0.00922110224429102,"367":0.05380167955935316,"368":-0.07341048844945773,"369":0.018727011670120072,"370":0.011524225066666364,"371":0.05290683921795481,"372":-0.06757574458161357,"373":0.04044364286032534,"374":-0.08246462531573978,"375":-0.04427133951142229,"376":0.006254728323221487,"377":0.027091033239270507,"378":-0.024399970813411175,"379":-0.043381062096078116,"380":-0.05798603249418477,"381":0.04807041538783098,"382":-0.04528254465208855,"383":-0.08328121525032593,"384":-0.03666410947530515,"385":0.014634251654201855,"386":-0.04720839793502969,"387":0.08450409374935927,"388":0.02320898755543348,"389":-0.06948611984643663,"390":0.04351600817210918,"391":0.003712173948596261,"392":-0.002307126164003979,"393":-0.0896084265960632,"394":-0.12321349708768904,"395":0.03686280439772371,"396":0.05498201175906741,"397":-0.029335374740029244,"398":-0.08768234193521561,"399":0.061541001073727064,"400":-0.01851231865269271,"401":-0.003556193096061851,"402":0.0065578184360585755,"403":0.016169786255150895,"404":0.02239556821074432,"405":-0.0785476740141324,"406":-0.07494089432783826,"407":-0.08647235222409143,"408":-0.08237769560420745,"409":-0.06908081021793192,"410":-0.009623514956782287,"411":0.04239583533755571,"412":-0.019619653704125023,"413":-0.029290401832054388,"414":-0.021444256681707276,"415":0.028238249376607797,"416":-0.030084085833644844,"417":-0.04321386712900797,"418":-0.06559747429160805,"419":-0.033692717644793285,"420":-0.051069933214906216,"421":-0.03708709461118322,"422":0.006227062838387616,"423":-0.0027515001236234795,"424":-0.05911208381763013,"425":0.05264300890285814,"426":-0.002026155571051153,"427":-0.06871724201456697,"428":-0.005396682694213887,"429":-0.10601877292393289,"430":0.03274426945582828,"431":-0.04712589379637703,"432":-0.04123918922455454,"433":-0.08134576608133748,"434":-0.05522997646135991,"435":-0.045168995954758845,"436":0.002513243182809359,"437":-0.020388021844844915,"438":-0.0006348520312675389,"439":0.027954074473662025,"440":-0.09624608268403369,"441":-0.06818078236609723,"442":0.0369920958480033,"443":-0.01570354545784209,"444":0.022105181341709385,"445":-0.01909258140485425,"446":-0.0034000771249980493,"447":-0.03362587903406051,"448":0.026972506513432436,"449":-0.024240171408760187}},{"sx":1,"sy":1,"depth":450,"w":{"0":0.03746115110111109,"1":-0.003626991366211846,"2":-0.05982542555757724,"3":0.06224479328238243,"4":0.024173080045573267,"5":-0.03069098094426456,"6":-0.04626745731195954,"7":0.011296439623646057,"8":0.05416172501862268,"9":-0.02613972157840755,"10":0.026476672186380324,"11":0.006387856612001683,"12":0.013067781630218754,"13":0.055835340856307446,"14":-0.015755879443608505,"15":0.04192505959386272,"16":0.028382565876100153,"17":-0.05751497608757027,"18":0.023158414187081262,"19":-0.012003388518444482,"20":-0.022829712727413163,"21":0.03824823688750879,"22":0.017170633939314003,"23":0.016339086390108344,"24":-0.022896747851056953,"25":0.012457120822151873,"26":0.04655201051289207,"27":-0.13574059545764375,"28":0.056044590333399494,"29":0.0698090905924181,"30":-0.011975317972481907,"31":0.03400812913134131,"32":0.00953011316257476,"33":-0.0722079430844949,"34":-0.004191041082308196,"35":0.020315919277425838,"36":-0.0447209974917277,"37":-0.008971398325438177,"38":-0.0005497023648095248,"39":0.000571552684241472,"40":-0.004525315588361537,"41":0.057286977867271265,"42":-0.030577601443038647,"43":-0.04835973374598899,"44":0.06929247540629987,"45":-0.0009778770131028153,"46":0.02173944154235125,"47":0.04111981242387079,"48":0.0439720081492523,"49":0.029760951970127618,"50":0.0534220405070592,"51":0.03774786547451608,"52":0.02828176924697025,"53":-0.04517590229935282,"54":-0.002796437885446633,"55":-0.03425314174027427,"56":-0.023944724164555682,"57":0.11507664588174872,"58":0.00521918215580548,"59":-0.006113228653606008,"60":0.05522844835131874,"61":-0.015093105796395083,"62":0.098743090822239,"63":0.01280861175801795,"64":-0.011188945142554214,"65":0.14360681385726715,"66":-0.03357389977824733,"67":-0.009147112339431373,"68":-0.0870239232179912,"69":0.052225383569295604,"70":0.09081355342311608,"71":0.07265699162566805,"72":0.04971228066859567,"73":0.035594311988307245,"74":0.05638721622939802,"75":0.06883521110463313,"76":-0.049344756205071304,"77":0.08447315425848732,"78":-0.0673265961475256,"79":0.010698244489700715,"80":-0.0038723503457731346,"81":0.04656944296179971,"82":0.013370705725072042,"83":0.05325298767408119,"84":0.03146875918482227,"85":0.008881597935724293,"86":0.0008312997699125089,"87":-0.005003586431205216,"88":0.06880483362619917,"89":0.04704007746455265,"90":0.056959783296735254,"91":-0.05140989479227215,"92":-0.003957418593838228,"93":0.08233277375940755,"94":0.04690403368284183,"95":0.00398728533784927,"96":0.026054922493084307,"97":-0.007079623142888235,"98":0.09077088061719611,"99":0.04644787566144227,"100":0.011117542417921534,"101":-0.06189143396967422,"102":0.006997577018392181,"103":-0.030327548683714584,"104":0.0053798856625494555,"105":0.047968348517975753,"106":-0.0051888910240763,"107":0.046487498802284526,"108":-0.006766737669879316,"109":-0.01547362164684593,"110":0.0022232939705457457,"111":0.0649108231938899,"112":0.058796609586642526,"113":0.04134362196110328,"114":-0.07237146988453858,"115":0.04579293952898921,"116":0.004125055261963646,"117":0.006498067693409494,"118":-0.08340989240390366,"119":-0.016737057684534526,"120":-0.14070330905851455,"121":-0.020422015625590106,"122":-0.061265347258597676,"123":-0.03808092726854601,"124":-0.03161156116288808,"125":-0.02430252112167598,"126":-0.0036945335808034434,"127":-0.04296706718296354,"128":-0.0037793530118451005,"129":0.0062484465242794674,"130":0.0691417685669765,"131":-0.032026420427787056,"132":-0.013850633895442766,"133":0.07779564869371328,"134":-0.013389952196569164,"135":-0.009941020041525393,"136":0.018428780496552707,"137":0.047257051712008245,"138":0.009797352091489575,"139":0.04022138812977714,"140":0.006099525324135835,"141":0.06772795242637185,"142":-0.02079338741505233,"143":0.028936359600519258,"144":0.004554213756711794,"145":0.035676797828217706,"146":-0.04158793107659308,"147":0.029392230667063368,"148":0.017900718639737034,"149":0.04862239795349638,"150":-0.01964784451404436,"151":-0.012135146794938753,"152":-0.015252611204622204,"153":-0.0681678465641334,"154":0.019115257971741958,"155":-0.04667174915279582,"156":-0.02886754054783159,"157":-0.02623134554144202,"158":-0.08910406972089825,"159":-0.059276874179906514,"160":-0.06354526121601291,"161":-0.0015537567283404451,"162":-0.02332894914665643,"163":-0.13776831103379825,"164":-0.09153590469972782,"165":-0.0051783341488698485,"166":0.0859001928967936,"167":-0.0883518155123073,"168":-0.03640322316564827,"169":0.022293300758061872,"170":-0.017326003767128152,"171":-0.06015258655002127,"172":0.049666148088668524,"173":0.02993790472935507,"174":-0.0318350392232757,"175":0.02678127477445532,"176":0.071135292546501,"177":0.005335581188493183,"178":0.0448524151831368,"179":0.04987457114411861,"180":0.07591539090896038,"181":0.02567691486206128,"182":-0.03022390901151863,"183":-0.005692851912108029,"184":0.04523597263405583,"185":0.02115221399879168,"186":-0.008966508919422174,"187":-0.011857975535600638,"188":0.07471610189958602,"189":-0.032476175512637935,"190":0.018336619626125854,"191":-0.014911990400944123,"192":-0.012431304046386751,"193":-0.13186184398370673,"194":-0.08345661510560713,"195":0.0024219376989083716,"196":-0.08149533766477354,"197":-0.0010568691470744561,"198":-0.011154148051813537,"199":-0.06119791185511996,"200":-0.036369082193825134,"201":0.0605508313835802,"202":-0.03952764215253583,"203":-0.02116726637060984,"204":0.019807335767202887,"205":0.08502085690023209,"206":-0.10839111144025489,"207":-0.011192925266578469,"208":0.04422598719614998,"209":0.006580552344819186,"210":-0.0005947697846447524,"211":-0.014223243009306918,"212":-0.038149678418662514,"213":0.01832143543545011,"214":0.015024456377704925,"215":-0.027217249350489414,"216":-0.03945206904480898,"217":0.015820845473493394,"218":-0.0772253498775283,"219":-0.07838501271343677,"220":0.01906652145008435,"221":-0.06895518081931858,"222":-0.09578935807347981,"223":-0.02159821296261415,"224":-0.11681852614420198,"225":-0.03970812415716969,"226":0.04351209874268293,"227":-0.08017738132154259,"228":-0.004193074915271302,"229":-0.10542659873834172,"230":-0.02920795182305939,"231":0.07528183460398657,"232":0.043198913711127995,"233":0.07417734814543561,"234":0.013089069223062747,"235":0.05290833023582129,"236":-0.02113835038256292,"237":-0.03871221805499447,"238":0.13417725147300139,"239":-0.07228292183585726,"240":0.016990097395503105,"241":0.03541049557973434,"242":0.06798571808838663,"243":-0.05049307121852543,"244":0.014170347033891889,"245":0.037696793040581454,"246":-0.08726355454757713,"247":0.037916801476206914,"248":0.013766742466644236,"249":0.03741731070137986,"250":-0.0073794695960922195,"251":0.025248949462946278,"252":-0.007999830069072783,"253":-0.034450543482035134,"254":0.009513548804140395,"255":-0.03135347016642636,"256":-0.07943504577886545,"257":-0.021375778554085612,"258":0.032870384475759094,"259":-0.02311501495601354,"260":-0.06488535637227287,"261":0.11176311506654578,"262":-0.012457722044639866,"263":0.0060649526168644686,"264":-0.03835569048141948,"265":-0.23309946646830468,"266":0.026706278003145546,"267":0.07462261091182605,"268":-0.04554963745053727,"269":-0.04506243003071205,"270":0.017133829353546605,"271":-0.05166933407059329,"272":-0.01849837409297022,"273":0.0248359798225821,"274":-0.5231559717685796,"275":0.022775885739413557,"276":0.08306665914060918,"277":0.025902364088391572,"278":0.019762290388914288,"279":0.05444470201031094,"280":-0.04101923380975232,"281":0.01995906342628206,"282":-0.06432661049120085,"283":-0.5037291904760522,"284":0.21783331382996127,"285":0.10391718633864175,"286":-0.0037294563426010043,"287":0.10982397779863132,"288":-0.032044568581767754,"289":0.007760323823063632,"290":-0.085988075663831,"291":-0.028265145002039815,"292":-0.5405804439818009,"293":0.321835446329199,"294":-0.00516629181535434,"295":0.10864157324091268,"296":0.023990809445610082,"297":0.00007139397701520203,"298":0.0034170451270149646,"299":0.007293891354896019,"300":0.03582794089067403,"301":-0.5353518846567386,"302":0.23360653494867864,"303":-0.07040144564658762,"304":-0.011734416101321688,"305":0.0029295031313005316,"306":-0.07440250884077591,"307":0.036422345020731765,"308":0.029663265972040873,"309":0.0452828241694463,"310":-0.454745047810017,"311":0.5217256171365074,"312":0.08829623172436836,"313":-0.03350640361286037,"314":-0.09184082782660223,"315":0.002614774208408449,"316":-0.018912019573286417,"317":0.007171451005112181,"318":-0.027736938424397155,"319":-0.47809856836230247,"320":0.5952003922260455,"321":-0.010162108921140852,"322":0.02569017563865889,"323":0.07172828544799564,"324":0.0743620357860351,"325":0.0627294900536011,"326":-0.07077902335782718,"327":-0.045324920019328724,"328":-0.5603949352105567,"329":0.5123089132029943,"330":0.106086828483757,"331":-0.02304768114840247,"332":0.02343585206748416,"333":-0.06828711794868016,"334":-0.023998314033427906,"335":-0.021337397537665528,"336":-0.07560035031428684,"337":-0.3860082668568696,"338":0.7466203299427198,"339":0.06574271051825543,"340":0.023082261259575597,"341":-0.12949384916743517,"342":0.02448955530821463,"343":0.03554911802864045,"344":0.014303786863188651,"345":-0.002471918884955153,"346":-0.7693605392517956,"347":1.0846005211218877,"348":0.18037710991609462,"349":-0.04795375384245772,"350":-0.00697253784669013,"351":0.04719116604886486,"352":0.016662834509690097,"353":-0.014387972777568054,"354":-0.03772433955784763,"355":-0.941520843324473,"356":1.236894498815807,"357":-0.007223337123599337,"358":0.036128270350218886,"359":-0.02339443593705228,"360":0.038187344806757166,"361":0.0005209887078460937,"362":-0.03685848120482054,"363":-0.04487222104737211,"364":0.1521009338923801,"365":0.8971308655320063,"366":0.11475182464896821,"367":-0.0200363584078448,"368":0.028565200125990946,"369":-0.003476148442260472,"370":-0.06332110047223687,"371":-0.07035195232776886,"372":-0.0758711322082595,"373":0.1841994157460349,"374":0.6873993356255709,"375":-0.05200740577084366,"376":-0.044909203184519284,"377":-0.03935285408326202,"378":0.00790730464543948,"379":0.040804783086969984,"380":-0.021019540399372795,"381":-0.10271846474782904,"382":0.33947339639553126,"383":0.7584678639254341,"384":-0.04750733450067358,"385":-0.0710957424181913,"386":0.024047537730016326,"387":0.07774830715332452,"388":0.02226681715999331,"389":0.017612541169704315,"390":-0.01028519115660021,"391":0.14240860590886428,"392":0.9412606245859123,"393":-0.057787407084344905,"394":-0.07236869919720557,"395":0.046276194200719864,"396":0.04063355244911137,"397":0.028300115934026794,"398":-0.044890375052077346,"399":0.005156127659575429,"400":-0.9534372975125045,"401":0.3600820562919366,"402":-0.016153577958989047,"403":-0.06519396486674625,"404":-0.04344146033268004,"405":0.040593036910460005,"406":-0.08136830216923188,"407":0.019116036953686605,"408":0.07043766766703853,"409":-0.9439247811108088,"410":0.21216564819239753,"411":-0.10772772662451352,"412":-0.012689577312080013,"413":0.00481423350786579,"414":-0.04421437452045265,"415":-0.05404423724561654,"416":0.023784923132499906,"417":-0.06903316017004114,"418":-0.8992617403205336,"419":0.16219239167396873,"420":0.006503819461591096,"421":-0.03271625986510542,"422":0.014153151200048958,"423":0.0015722441197587233,"424":-0.04083794937975654,"425":-0.014853765785363847,"426":0.009770296248016667,"427":0.12396067755709059,"428":-0.028186784449640956,"429":-0.04170438319961977,"430":-0.0074816786755663575,"431":0.014575188071430227,"432":-0.05438289861097091,"433":0.04599990575164508,"434":0.008250124885043227,"435":-0.01869430380292487,"436":0.016813988959708544,"437":-0.023442275903858844,"438":-0.08093048756986022,"439":0.024342070054709637,"440":-0.030456602849302843,"441":0.058027745700487195,"442":0.12648156259904134,"443":0.09899000803568482,"444":0.08707959489215925,"445":0.0170298975579367,"446":-0.14775680682195894,"447":-0.005377570788838547,"448":0.03623394667826965,"449":0.08702010499788905}},{"sx":1,"sy":1,"depth":450,"w":{"0":0.015938880253458354,"1":0.0008555815742424358,"2":0.01003417829990894,"3":-0.03527570604750856,"4":-0.029314339397056757,"5":0.027544933495372598,"6":0.05196569777316192,"7":0.11933490444704173,"8":0.025290486762639237,"9":-0.031235604593024855,"10":0.0006623843815202854,"11":-0.08495092857025509,"12":0.06769951776824176,"13":0.02606229288657048,"14":-0.03526542208042209,"15":0.020606255215631832,"16":0.052690811832513805,"17":0.13651870369736577,"18":0.07999441255215071,"19":-0.0016880722918107944,"20":0.024521628404553273,"21":-0.002799382921095528,"22":0.011341324165976068,"23":0.0364945512042491,"24":0.02775273379342557,"25":-0.07169591100513899,"26":0.03590050407650127,"27":0.04046553932892217,"28":-0.00507833145605462,"29":-0.04742527308146355,"30":0.021988213270624647,"31":0.01928782686362011,"32":0.023033121147004943,"33":-0.002054483001312133,"34":0.09524748089434712,"35":0.15314697196194157,"36":-0.00408939431851056,"37":0.015893690487046083,"38":-0.05850694193200073,"39":-0.11262516761462223,"40":0.05390845650929439,"41":-0.008805478340020264,"42":0.030547044674971772,"43":0.027902553420005426,"44":-0.047111989459759446,"45":0.025898445274812804,"46":-0.04186344950007108,"47":-0.06783019174956338,"48":0.058623914153600375,"49":-0.04168974359886968,"50":-0.026690611933229746,"51":0.05920757257688194,"52":0.07030056971317397,"53":-0.05147501434502619,"54":0.012674211228769045,"55":0.06061916503019678,"56":-0.04589678950332912,"57":0.040429361316314236,"58":0.07960106999188866,"59":-0.015621732717551608,"60":0.06879911448500538,"61":0.036190881954207735,"62":0.060234454780442676,"63":0.004676730556606843,"64":-0.01910629462528006,"65":-0.018908383870786378,"66":0.07591569124048364,"67":0.012039584682097605,"68":-0.000940507486197069,"69":-0.04100246213960805,"70":0.055207337403414165,"71":-0.09333871344705438,"72":0.050827521184410134,"73":-0.06681835051639465,"74":-0.04381497637790649,"75":0.043307650721561175,"76":0.021861849936829058,"77":-0.10276993516875617,"78":0.04579168307209519,"79":0.056408238816353,"80":0.08584590570086748,"81":-0.04859687823090752,"82":-0.09947603626986155,"83":-0.06720026297601951,"84":-0.05679676302399877,"85":0.03348036752310715,"86":0.09936642654383966,"87":0.07641954001040065,"88":-0.00979071112614926,"89":0.09243745199897557,"90":0.07302939389627776,"91":-0.027449636195505264,"92":-0.10414466965556486,"93":0.009820807129984316,"94":0.004792873263484015,"95":0.031314268526182826,"96":-0.014248518770354626,"97":0.09220846649441368,"98":0.0230589216678263,"99":-0.03888337737614614,"100":-0.08119711649808749,"101":-0.006615907815967205,"102":-0.011495316964437764,"103":-0.03036433569851587,"104":0.029913529745217014,"105":-0.00914378651083871,"106":0.05782290201188837,"107":-0.009649150091139817,"108":0.004837329952438447,"109":0.09849857406751952,"110":-0.03558595396262144,"111":0.04842267803579938,"112":0.06443628889296195,"113":0.03522643183116076,"114":-0.013965629861251355,"115":0.05936975853343094,"116":0.07766808588042166,"117":-0.010518018544972868,"118":0.014947785243753191,"119":-0.03020933540035481,"120":0.01571922782377105,"121":0.04202507231237292,"122":-0.032639347996868434,"123":0.0020073302340246216,"124":-0.008706214172563932,"125":0.10701046447972837,"126":0.07077011532421712,"127":-0.0391677641102215,"128":-0.09613872111434675,"129":0.02419364264631298,"130":0.02113043553807285,"131":0.03388363337675162,"132":-0.09359740027874112,"133":-0.06800699046127855,"134":0.013564894575234165,"135":-0.07018484329990334,"136":-0.015345427586669942,"137":-0.05910754895265117,"138":-0.1068513426332692,"139":-0.033296545527729836,"140":-0.024590095944021735,"141":0.010440278683258726,"142":0.05663587328934789,"143":-0.03849042156533192,"144":-0.025676539559568796,"145":-0.006737789073882962,"146":-0.14134460259537876,"147":0.03020820398357043,"148":0.07133275272392167,"149":0.026046980914148372,"150":0.04779537119512496,"151":-0.04330566115769064,"152":0.07219546881689647,"153":0.028154208300136197,"154":0.0366422495097137,"155":-0.016056104364501323,"156":0.03912727803600636,"157":0.08791908501617186,"158":0.04761133387103492,"159":0.04329305926244118,"160":0.04628461620653124,"161":-0.028548249621763073,"162":0.012445326150712761,"163":0.013000889274309948,"164":-0.051827909142068564,"165":-0.030997158126835324,"166":0.09031932670540771,"167":0.06007487441033351,"168":-0.021291797328161836,"169":-0.006340387849698723,"170":-0.018556629560161512,"171":-0.06966974625597053,"172":0.01782937374599304,"173":-0.05600264225495358,"174":-0.05806449649679589,"175":-0.01986806018179936,"176":-0.00528121876649974,"177":0.006853795884126745,"178":0.07343459752695271,"179":0.0740469507151759,"180":0.012675876600623956,"181":0.03415241110864167,"182":-0.05172170377515235,"183":-0.17948235413249009,"184":0.052259226603424705,"185":-0.003803701148419368,"186":-0.04606566727453363,"187":0.00133354464877516,"188":-0.054542156837242554,"189":0.0745904337491551,"190":0.02291147199500977,"191":-0.017971319394753812,"192":-0.12108178288385464,"193":0.00871995790707972,"194":0.027735020115671118,"195":0.00848223621169012,"196":0.05344872924698287,"197":0.01369374322091937,"198":0.15945548384496933,"199":0.0817412077520413,"200":-0.09446968339828196,"201":-0.22791768773101176,"202":0.06408873531946416,"203":0.029057392424180425,"204":0.0056501672948254845,"205":-0.024260128507125934,"206":-0.024153249066176653,"207":0.004565278989121358,"208":0.02895603196599405,"209":-0.013788015091869802,"210":-0.2541840635110718,"211":0.0006668089116365979,"212":0.003929926245437164,"213":0.06565773608411317,"214":-0.007645504582429251,"215":-0.007231567403901424,"216":0.15383712657668103,"217":-0.06601802577015237,"218":-0.0366644379060546,"219":-0.27292116106984265,"220":0.028891532678482428,"221":0.018351079231472674,"222":-0.0035055059432137284,"223":-0.020913658371297716,"224":0.005306564313319452,"225":-0.0579993859092143,"226":0.07751783784907305,"227":-0.06068513421483982,"228":-0.3685159489457423,"229":-0.012473489654355088,"230":0.1367603677000243,"231":0.036802762339756045,"232":0.10626002217370134,"233":-0.07605221136479817,"234":0.1401168642428308,"235":-0.04942298335238247,"236":-0.15942011307368822,"237":-0.4307277645812072,"238":-0.050594002119733666,"239":-0.06416065081240331,"240":-0.048192142992551965,"241":-0.06260924255730345,"242":0.05664717307855584,"243":0.03823969436302245,"244":0.096710224997093,"245":0.03174717035322794,"246":-0.4455480091144322,"247":-0.09840091947470375,"248":-0.006359707748787237,"249":-0.06771075290358683,"250":-0.07417651993704068,"251":-0.0644665029481492,"252":0.11614660599259378,"253":0.06191996016497832,"254":-0.13138713503081095,"255":-0.41712665355998696,"256":-0.05570013599074707,"257":0.049916702307464665,"258":-0.03237800493983932,"259":0.007956766890017248,"260":-0.024668183464479517,"261":-0.034863082566757554,"262":-0.03555294737493744,"263":-0.02469676527113321,"264":-0.3731693176526772,"265":-0.06134045865910879,"266":0.11019298706796977,"267":-0.05469615032246829,"268":0.05999725342716775,"269":-0.005028602759495065,"270":-0.05145248820593384,"271":0.0871623956945054,"272":-0.03767859202147981,"273":-0.4100739254260259,"274":-0.033794002953966056,"275":-0.015082238572591326,"276":-0.032781503317160086,"277":-0.06616888553973953,"278":-0.08785426094561402,"279":-0.043114704765120034,"280":0.018199655293555796,"281":0.06791845796227852,"282":-0.4033285524441954,"283":-0.07489198590069947,"284":-0.06151617033653555,"285":-0.07376350743219284,"286":-0.034305594700638806,"287":0.02383099045674711,"288":-0.001493493666808258,"289":0.0381440193507754,"290":0.06748502088187179,"291":-0.3317130327834959,"292":-0.13053155657114185,"293":-0.17873413127279575,"294":-0.06936680874542318,"295":0.0437308297254095,"296":0.008275972583969988,"297":0.11531126692747559,"298":0.09026407267882702,"299":0.06854822217740955,"300":-0.15097627444535103,"301":-0.0867604095043933,"302":0.002738030904576056,"303":-0.16540098303885808,"304":-0.0027445281387648633,"305":-0.012903827407252782,"306":-0.014421868345157973,"307":0.03561949302640199,"308":0.08332100195228286,"309":-0.055609128778917036,"310":-0.10023984598303555,"311":0.05314933000533306,"312":-0.0547055917887521,"313":0.009995307832903793,"314":-0.04858970355761207,"315":-0.040018581085313185,"316":0.08087511276465174,"317":0.11520693656636359,"318":-0.06146559359236657,"319":-0.1224273587306956,"320":0.03661216385193669,"321":-0.127203381149917,"322":-0.04786049944114766,"323":-0.05269419816313863,"324":-0.061919869526187464,"325":0.0015276961424110832,"326":0.05955552630239166,"327":0.055129142175877124,"328":-0.08447503341664404,"329":0.04547005703641866,"330":-0.12104343796625526,"331":0.021073274815578122,"332":0.002865357332231033,"333":0.014603938555533756,"334":0.025394489943117278,"335":0.16332892592773834,"336":0.20644750344781346,"337":0.09201992142674924,"338":-0.2675544762466318,"339":-0.14295769958625462,"340":-0.022859207902761497,"341":-0.03772046837587498,"342":-0.04836661710041837,"343":0.03827208414450983,"344":0.17632832073784918,"345":0.3385570319816025,"346":0.1722340416994166,"347":-0.012722870231126199,"348":-0.03733207410338602,"349":-0.08967390283026484,"350":-0.03879520830297228,"351":0.07482752746691015,"352":-0.05012000307329551,"353":0.07446786513570329,"354":0.19944096495701577,"355":0.24111823789749973,"356":-0.010149775930813022,"357":0.00691549078779267,"358":0.006590754322907288,"359":0.10232393151906631,"360":-0.009999325640497094,"361":0.04222569561403826,"362":0.12173595982783816,"363":0.11457503202255606,"364":-0.018251512662635545,"365":0.10952833902837954,"366":-0.052493039969104364,"367":0.01541018260875992,"368":0.05572900101853854,"369":-0.00472068021327128,"370":0.04537463973922613,"371":0.0528055923331545,"372":0.09383963174100157,"373":-0.056292456678229755,"374":-0.10183804607125746,"375":0.06085095367146434,"376":0.08467417309057587,"377":-0.0020253719371294684,"378":-0.022619307884203934,"379":-0.07291932191053431,"380":0.04132385738481982,"381":0.1368677157464711,"382":0.014772958421356796,"383":-0.08968381570962373,"384":-0.01698683397625655,"385":0.053723164390314465,"386":-0.02679027170134422,"387":0.058328774317133826,"388":-0.015414138788332685,"389":-0.011581733357747032,"390":-0.00030044768335043615,"391":-0.053983502603255636,"392":0.028107345504232148,"393":-0.038918866658919575,"394":-0.08714881176426921,"395":-0.14174474602425466,"396":0.03728396151469615,"397":-0.003305030421994378,"398":-0.019337793891937845,"399":0.09917564303921758,"400":0.22209485019036798,"401":0.03918143007221371,"402":-0.03704192640894849,"403":0.08423586103381582,"404":0.10951817148522505,"405":0.11196665894925256,"406":0.0659474076593926,"407":0.0006076640086278928,"408":0.006792289689669131,"409":0.34187241408661473,"410":0.03125571836362793,"411":0.007391156851610183,"412":-0.03223957837223845,"413":-0.06937875928050385,"414":0.04371282143550414,"415":0.00986981743795597,"416":0.06731174549857438,"417":0.023579965097606504,"418":0.20638292188962157,"419":0.03645588570218144,"420":0.06140430760817335,"421":-0.07207309534211723,"422":-0.08393613671910387,"423":-0.038814012951619854,"424":-0.06059403606591214,"425":0.027292553088623484,"426":0.11750389959242985,"427":0.23537022434453053,"428":-0.06329981114176551,"429":0.042753142304285924,"430":-0.055456289406263765,"431":-0.09925707911206777,"432":0.03708425872792685,"433":-0.020916422078595117,"434":-0.010230583823223189,"435":0.06896434174770959,"436":0.1754183258524079,"437":0.057799836622270444,"438":-0.08113706447064796,"439":0.07279689511213382,"440":-0.02794126859960332,"441":-0.01431283089464667,"442":0.043021796889247725,"443":0.0009043000030487486,"444":0.028358284569359432,"445":0.2206823948446229,"446":0.02457157739197077,"447":0.09660442432555452,"448":0.007561003266904044,"449":-0.033842868390581}},{"sx":1,"sy":1,"depth":450,"w":{"0":0.007503750661772255,"1":-0.028849625060798103,"2":-0.03694937191462061,"3":0.009866609330550264,"4":0.0321538832023034,"5":0.0964514045986229,"6":0.06313016170077454,"7":-0.03603640905613098,"8":-0.02922135315929602,"9":0.013122213551512702,"10":-0.0358962486819161,"11":-0.004464833911940552,"12":0.014832056436785833,"13":0.02066879453092817,"14":0.07411436556088737,"15":0.0481761797396979,"16":0.00283268550941413,"17":0.04741580176416639,"18":-0.04485905598824845,"19":0.023501666974882943,"20":0.02878602074000802,"21":-0.0012396349660126283,"22":0.0035656598653572174,"23":0.012668828466353418,"24":0.08162333504929746,"25":0.013061038418415875,"26":-0.008585093504823412,"27":0.06374640567170221,"28":0.03862474610690362,"29":-0.015452688748672335,"30":0.015209042230455995,"31":-0.013348579368137437,"32":0.049699544456120674,"33":-0.03968323413196244,"34":0.035867269690982535,"35":-0.07101272729838337,"36":-0.01860301643099391,"37":0.03235430175844211,"38":-0.06966415565519983,"39":-0.0032718790806843946,"40":0.0844839799023083,"41":0.13206483066165012,"42":0.07737009213459524,"43":0.07437786446756067,"44":-0.0657059972826487,"45":-0.05795303835556129,"46":-0.06533460734238028,"47":0.005325544808144387,"48":-0.05335368808096905,"49":0.037039240393540694,"50":0.11356601972167171,"51":0.051756277025104075,"52":-0.006852317152585212,"53":-0.013614916947255036,"54":-0.006810984400433886,"55":-0.02789400516324158,"56":-0.0648079510662758,"57":0.04176402389461787,"58":0.02550334220657497,"59":0.086167539479879,"60":0.07394385923593283,"61":0.01716293851078323,"62":-0.05191577594283477,"63":0.056170320803273784,"64":0.04271562413142559,"65":-0.011034640531714778,"66":0.01128146979991879,"67":-0.06603616800048272,"68":0.019630100680096442,"69":-0.03067265532532215,"70":0.003691065966683339,"71":-0.026177585951730847,"72":-0.011372771754311114,"73":-0.015610154748849345,"74":0.022143186646041865,"75":-0.02483647892809179,"76":0.09929726432506213,"77":0.16125175078572404,"78":0.06151016883430339,"79":0.05268445184389114,"80":-0.0030544842944483595,"81":-0.05010453042182741,"82":-0.025554702407232503,"83":-0.009430778203894622,"84":-0.02556945969718186,"85":0.04177482253387832,"86":0.018605143981131386,"87":0.06003188295284639,"88":0.04560659268809035,"89":-0.03835210862272057,"90":0.035793254224010675,"91":0.00241743071703753,"92":0.025839896667524054,"93":0.04578388963460874,"94":0.052514479204601276,"95":0.11870439871686063,"96":0.028028873925099767,"97":0.04032713562759452,"98":-0.06569951335185299,"99":0.04664286559834466,"100":-0.012644680891015397,"101":0.011520551803863447,"102":-0.06882611978815731,"103":-0.034276775434585516,"104":0.07654009762406201,"105":-0.007068212920304058,"106":0.0023090226023068975,"107":0.027271246409925887,"108":-0.002895184583974317,"109":-0.053700351258322954,"110":0.0021965862059736955,"111":-0.012336593617543978,"112":0.012547994885968592,"113":0.11063428730291623,"114":0.00919523037442071,"115":0.014494937163225518,"116":-0.026162034325102508,"117":0.013699787377111954,"118":0.026936556963152117,"119":-0.010729567987767509,"120":0.0456244681065087,"121":-0.0043854426448118105,"122":0.16409191541567217,"123":0.08236214453314351,"124":-0.0014183119634143054,"125":-0.020729157951410455,"126":-0.05847688945466199,"127":-0.11736418817551848,"128":-0.03189327598178487,"129":-0.04675983616069701,"130":0.011593438220584888,"131":0.06657831773612356,"132":0.1208460403222383,"133":0.036199497613589204,"134":-0.04052221396698573,"135":-0.10396220940800271,"136":0.05842680321628117,"137":0.040385352394718195,"138":-0.09589406899741096,"139":0.06607871796478905,"140":0.20446663650290126,"141":-0.03060204991333862,"142":-0.011704154414235324,"143":-0.025393574567923446,"144":0.05449642692945762,"145":-0.006683715589278122,"146":-0.0626770496972289,"147":0.0351338719572233,"148":-0.11497068174754992,"149":0.21195004273100326,"150":0.042108452799174106,"151":-0.04482902749785123,"152":0.025958872829950318,"153":-0.0067095513337327595,"154":-0.020826496445439456,"155":0.001205650600399857,"156":-0.010339835460906891,"157":-0.06211783166030132,"158":0.19248444437803733,"159":0.038821969046889566,"160":-0.0690579027723995,"161":-0.03416005644675951,"162":0.04806436934198859,"163":-0.038720540854630746,"164":0.02630888937623916,"165":0.003078888563196955,"166":-0.027483605491810417,"167":0.14560328798025748,"168":0.039785556152080216,"169":-0.07053005225009872,"170":0.0017843245537576308,"171":-0.08749661830122336,"172":-0.01854963126267626,"173":-0.0009798301308324917,"174":-0.06642546591539063,"175":0.06525087692772406,"176":0.20603543930200416,"177":0.06107553171406468,"178":0.03828789943216714,"179":-0.007555369441154096,"180":-0.01505728034825691,"181":0.047895872371540575,"182":-0.13835061900915951,"183":-0.05840357993612429,"184":-0.074528978614395,"185":0.22893662629896339,"186":0.0019399838433045433,"187":-0.009649006680613297,"188":-0.026956713984867813,"189":-0.02184063304078981,"190":-0.023134065563525572,"191":0.04031296399456076,"192":0.024917606558686647,"193":-0.08670899220007146,"194":0.2835384560231963,"195":0.05699866207917465,"196":-0.02197567778572058,"197":0.022563927574957992,"198":-0.032746752147184144,"199":0.015510134357122606,"200":-0.0380657358886603,"201":-0.0035784573433336572,"202":0.0190261715534326,"203":0.32036492415082995,"204":0.023805838329297512,"205":0.0016221149375829776,"206":-0.07073095572208116,"207":0.06251995207440443,"208":-0.06328324741594196,"209":-0.010575658213210298,"210":-0.010572500703104911,"211":-0.03444506549378285,"212":0.38874123153490214,"213":0.01947877215835249,"214":-0.07134171806379154,"215":-0.01290535499272793,"216":-0.017278701048431065,"217":0.011860070470322299,"218":0.047129412223685004,"219":-0.05103675137219656,"220":-0.07508289887545298,"221":0.3203656576909906,"222":0.0037465969894694075,"223":-0.02238645857410524,"224":0.0477632689453531,"225":-0.024805483683760236,"226":-0.05245426761228845,"227":0.04466209022456441,"228":-0.012905580087511206,"229":-0.04619068054959015,"230":0.41639653753193323,"231":0.032104291413703745,"232":-0.09968515996042857,"233":-0.04155984138449833,"234":0.000374227970618404,"235":-0.03134415139780666,"236":-0.06367840476467926,"237":0.011302451907812046,"238":0.031553361215507496,"239":0.40128340354052705,"240":0.06182438094417059,"241":0.06439350131935566,"242":-0.04052273275742397,"243":-0.034301560695202314,"244":-0.03189949080981767,"245":0.06128813846080564,"246":-0.02484552658700181,"247":-0.044318374981518416,"248":0.43712082784956313,"249":-0.13390820519282254,"250":-0.06569385232368594,"251":-0.03728356753915838,"252":-0.001807950547643157,"253":0.0051457087890426,"254":0.019968858410752993,"255":-0.061621088214857046,"256":-0.04832791109882635,"257":0.4561043227590885,"258":0.018267122743245934,"259":-0.05712970743678581,"260":-0.0525821501293174,"261":-0.06544539051073262,"262":-0.0668296630048001,"263":0.03586310087788409,"264":0.009015693597374684,"265":0.022809214919282537,"266":0.3116797320253486,"267":-0.10601110097875377,"268":-0.06521400861455849,"269":0.03563473089556318,"270":0.0005671104985945988,"271":-0.024303047326298382,"272":-0.04458166760317414,"273":0.046441237185677824,"274":-0.004806312477109514,"275":0.5199143343397463,"276":-0.06285892729418312,"277":-0.015293175686400722,"278":-0.05664807627159483,"279":0.027297866987269867,"280":0.02021060922482765,"281":0.018118300188381748,"282":-0.06486698169009004,"283":-0.02948455608448627,"284":0.4882313843429309,"285":-0.04647687928581263,"286":-0.05883614910032511,"287":0.03483693339725542,"288":-0.002150007794705961,"289":-0.02058288110865196,"290":0.018405879375682593,"291":-0.1136253084950671,"292":0.012807737569307516,"293":0.4749369624594112,"294":-0.10393341189300186,"295":0.06149735310935938,"296":-0.021937114505421497,"297":-0.013321664575262836,"298":-0.11270495111694866,"299":0.03295910037498779,"300":0.034685642380244824,"301":0.12917598173954295,"302":0.3014237600717099,"303":-0.0743628599013779,"304":-0.018413183708478303,"305":-0.0044061669025271125,"306":-0.017152963265083254,"307":-0.01169551695729251,"308":-0.027110155501341215,"309":-0.006747872443337762,"310":0.16330457715065833,"311":0.15199014346841466,"312":-0.18219181930363976,"313":-0.007962702867891436,"314":0.01746896454146265,"315":-0.029701381328041343,"316":0.0515267921021983,"317":-0.053247008700251425,"318":-0.04254741265160261,"319":0.0030476197872486947,"320":0.24257472185512613,"321":-0.06427386101441974,"322":-0.07404364133663294,"323":-0.07662673952851136,"324":0.04017495169879989,"325":-0.06460386569818229,"326":0.035849327095985456,"327":-0.010057275453268372,"328":0.04645472271346167,"329":0.05255527359746077,"330":-0.1373182082191901,"331":-0.015170626585573008,"332":-0.017788866299441784,"333":-0.02586562067228585,"334":-0.017645216351489555,"335":-0.01980290808954122,"336":-0.005490502271457314,"337":-0.5990754636904256,"338":0.048220506181084,"339":-0.11471613995974007,"340":-0.010749514119763043,"341":-0.0007818989090123057,"342":-0.023502424529960673,"343":-0.07870197327040776,"344":0.0761153654945518,"345":0.03425176190987998,"346":-0.8030704808530038,"347":0.05506139384508618,"348":-0.10168730626671588,"349":-0.06414302883922846,"350":-0.024681013404027997,"351":0.02233187566766653,"352":-0.05138221054306901,"353":-0.027783016302333423,"354":0.011111587992413722,"355":-0.9641240007928135,"356":0.24702790434672853,"357":-0.061818201479779296,"358":0.015719706943273702,"359":0.0458003089972195,"360":0.027238806279793467,"361":-0.021357320106057797,"362":-0.02365371440862676,"363":-0.021498443622942735,"364":0.0002530684141631764,"365":0.04152483038782942,"366":-0.020666773880928895,"367":-0.02666289970453946,"368":-0.0067644968139971215,"369":-0.05581685638722947,"370":0.031106115599701712,"371":0.04672827393909197,"372":0.030869329914692767,"373":0.02155594911125973,"374":-0.05525079359381744,"375":-0.0851048194487834,"376":0.03116650749291198,"377":0.02521506509856541,"378":0.034980159801435984,"379":-0.04408043312121688,"380":-0.035831360059235255,"381":0.06490860468046808,"382":0.07695901745456873,"383":-0.052578001685221684,"384":0.03430517138191482,"385":-0.09641879048100623,"386":-0.09281787229118835,"387":0.014942191937982815,"388":-0.04940334556828271,"389":0.01050001475581987,"390":0.023910683892319824,"391":0.06644507216781131,"392":0.04149499002460459,"393":-0.009418688988588617,"394":0.02366157234364895,"395":0.08548227016417466,"396":-0.019426913635173345,"397":-0.007541899603750132,"398":-0.06745012683104847,"399":-0.025023483660795157,"400":-0.851641279562277,"401":-0.13157788240710602,"402":0.015880021391002225,"403":0.05633223801755058,"404":-0.10212028167587607,"405":0.057779496810258436,"406":0.015336217688342613,"407":0.02779226720821337,"408":-0.050244064829593336,"409":-0.8691320649318969,"410":-0.05437582292439814,"411":-0.030566758731865745,"412":-0.015516222934513253,"413":-0.046598906147900944,"414":-0.09523013866726927,"415":-0.041104251287232885,"416":-0.008258397733289912,"417":0.061570250122648176,"418":-0.7988207266476304,"419":-0.01602048706070386,"420":-0.03960189604894139,"421":0.013673989721816058,"422":0.027641937508776717,"423":-0.011208603005739726,"424":-0.00047136448761061903,"425":-0.037131176835054805,"426":-0.06967297417847433,"427":-0.13105971551350495,"428":-0.04061629982498666,"429":-0.015525256738537056,"430":0.03439547743701456,"431":-0.01922080043313148,"432":-0.010056943609524473,"433":-0.010024440263666261,"434":0.014114922998218421,"435":0.0185266862196917,"436":-0.19965799229533188,"437":-0.023259034598026404,"438":0.07064294355849894,"439":-0.053269880943143826,"440":0.0037941369669209604,"441":0.02013262264253103,"442":0.0305046846812736,"443":0.018394070455979787,"444":-0.06799665152850302,"445":-0.15143806036958685,"446":-0.01894971424095691,"447":-0.022620427369406823,"448":0.030885303236885486,"449":0.019541112431975885}},{"sx":1,"sy":1,"depth":450,"w":{"0":0.027812304598292006,"1":-0.14108973900222113,"2":-0.08410132244621082,"3":-0.10623481954002786,"4":0.059523566821676636,"5":-0.08376480869951176,"6":-0.09215183752253758,"7":-0.02370727270279628,"8":-0.08749217079045066,"9":0.01052760520877049,"10":0.02229427588616378,"11":-0.015130757485600365,"12":-0.002670116462936428,"13":0.01769333983952553,"14":0.02277854670419044,"15":0.07795226843302296,"16":0.1123681027591084,"17":0.09767793544162795,"18":-0.0036739864404226955,"19":0.06860735679536065,"20":0.08417964561102212,"21":0.0690429550845236,"22":0.0007166176308332129,"23":0.060885386072738155,"24":0.02749430173875688,"25":0.06275089175725158,"26":0.0308873605655128,"27":-0.010818976944697047,"28":0.055903819044868,"29":-0.03312517806530602,"30":0.07869039879172225,"31":0.010467118826191482,"32":0.08149612498744131,"33":0.04068833472171722,"34":0.0743027992938165,"35":0.017253547577553707,"36":0.045203513174303385,"37":-0.01886949010732586,"38":0.036270838802086584,"39":0.01339685461916124,"40":0.09620214784906105,"41":-0.04849729361886098,"42":0.06897839627721064,"43":-0.0017624739160471495,"44":-0.01861121424202353,"45":-0.08307478648077417,"46":-0.13400353849714935,"47":0.04171290303933967,"48":0.06379078070148014,"49":0.07657229230659739,"50":0.02765430955769322,"51":-0.001549174685025541,"52":-0.08852460892162313,"53":-0.05631303169962574,"54":0.047402664921026766,"55":-0.04497836349318825,"56":0.08240462279210503,"57":0.0018015932082879238,"58":-0.038300553649922325,"59":0.027008717256207664,"60":0.012970330909821068,"61":0.05597981942433962,"62":-0.01526840800238415,"63":-0.037365101688749,"64":0.06188793942726223,"65":0.05021571484228782,"66":0.026616056033837775,"67":-0.06828953932502992,"68":0.10597493977239172,"69":0.04523357340566169,"70":0.08934946736219929,"71":0.03191251551747532,"72":0.11727512683123179,"73":-0.015007540399966641,"74":0.08833639043346218,"75":0.1022254837358652,"76":0.04201916410343821,"77":0.10078459608053787,"78":0.19971671839172553,"79":0.008907387919117644,"80":0.11663521956179303,"81":0.0816033040778888,"82":0.07342120249285522,"83":0.06722863934659716,"84":0.00894603953457904,"85":0.04505133841846206,"86":0.029706532799976256,"87":0.0067740228166753395,"88":0.048185785685400113,"89":0.00986238773991384,"90":0.034877363104233644,"91":0.08535320352513445,"92":0.011356550780786956,"93":0.009497876194554639,"94":-0.03492234051928385,"95":0.09979729179844886,"96":0.022003132105392523,"97":0.026153682416018363,"98":-0.049914459469105055,"99":0.2032147297972613,"100":0.0550216619952512,"101":-0.008056944299045955,"102":-0.07538577840050148,"103":0.03105447851405047,"104":0.13399966019200485,"105":-0.02545160576110906,"106":0.002147507452376594,"107":0.017803898052475373,"108":0.22312010095771695,"109":0.053571527006313784,"110":-0.09613805035799775,"111":-0.023027368269000783,"112":0.09571023367771582,"113":0.023924973984963262,"114":-0.014392534675615309,"115":0.003708026728070546,"116":-0.021082762187895357,"117":0.023978453824947548,"118":0.04420494104796811,"119":-0.04999684024059091,"120":0.006010298295867612,"121":-0.06383793712485145,"122":0.08688360137112437,"123":0.09503404176027966,"124":-0.05832034609579415,"125":-0.09403246925111144,"126":0.054335617333405944,"127":0.13623422687472717,"128":0.018517137369092933,"129":-0.11681215620126742,"130":-0.002996192656726521,"131":0.0032518293687217614,"132":0.1985113781666721,"133":-0.013667965801514342,"134":0.06284845202126181,"135":-0.003372355362570068,"136":-0.040112432192190975,"137":0.06010739311252649,"138":-0.04414087425373192,"139":-0.028866974412090362,"140":-0.04098958135292924,"141":0.0981211454346149,"142":0.0706032916055183,"143":-0.0312958482621976,"144":0.05095852668034586,"145":-0.029668103354204917,"146":-0.09907166191511053,"147":0.08730196055970868,"148":0.1418072325938738,"149":-0.010783123883489974,"150":0.16355242720175908,"151":0.026323547603437147,"152":-0.046287937773748955,"153":0.14578739954176395,"154":0.024655706700163257,"155":-0.07454685000269959,"156":0.07772444020340626,"157":0.10229620003538804,"158":0.162074616396395,"159":-0.13663419165511217,"160":-0.060074945319475194,"161":0.016959393453583962,"162":-0.09511962305251397,"163":-0.13691234734931834,"164":-0.05088778983034497,"165":0.14524411145141605,"166":0.044998214905890246,"167":0.019216399737247265,"168":0.03028955914937681,"169":-0.0071564702376315245,"170":0.09468092826578176,"171":-0.0046747739029727245,"172":0.03976785128885925,"173":-0.052256802661401175,"174":0.02791904992107874,"175":0.027433714753365108,"176":0.10431026958990428,"177":0.150356042517694,"178":0.0007294248225086658,"179":0.06533530102450151,"180":0.11048118014074644,"181":-0.0051079509683803655,"182":-0.07461826664377938,"183":-0.16074975331422148,"184":0.1895271412664812,"185":-0.007488441893299753,"186":0.08706428902743385,"187":0.028604209914301713,"188":0.05355914970918174,"189":-0.09126927068960491,"190":-0.05382696529873792,"191":-0.03884024156628405,"192":0.14111270476570806,"193":-0.005756582213337617,"194":-0.03205366295212847,"195":0.0553126055257176,"196":-0.09876010327155148,"197":0.0016886484556044633,"198":-0.05640543906607091,"199":0.10554892601655697,"200":-0.12714119051736866,"201":0.003764515730677703,"202":0.021683893503441035,"203":0.09120570727153951,"204":0.09354731840458076,"205":-0.002826091017181371,"206":0.007476394146190673,"207":-0.05660452593279545,"208":0.05001914366952695,"209":-0.10736058361518043,"210":-0.06714796440996894,"211":0.17675714794753467,"212":0.036135704216804725,"213":0.09044844610834511,"214":0.043297691038823284,"215":-0.0652165324808531,"216":0.050657197719523275,"217":0.01841485494055539,"218":-0.036941978378044756,"219":-0.22434381782188692,"220":0.1111513367349507,"221":0.011898312911760111,"222":0.07207604168546854,"223":-0.04217627663791669,"224":-0.087923076213111,"225":-0.1306174487462544,"226":-0.05946275020897352,"227":-0.03638889282995207,"228":-0.00454376960953082,"229":-0.008395672900479288,"230":0.04719126107209919,"231":0.17901630211008351,"232":0.02510170935725851,"233":0.06838749041377949,"234":-0.15045545525619056,"235":0.08839723625209839,"236":0.007044079860591079,"237":-0.06760071877581648,"238":-0.16426670738513768,"239":0.14016695815270336,"240":0.10828675458492994,"241":-0.08422936180790824,"242":0.0711902671548189,"243":-0.13583726114993344,"244":0.01813376343878641,"245":0.06798014014798796,"246":-0.07903557501653269,"247":-0.20312232096682153,"248":0.09520608378417234,"249":0.09284123693323268,"250":-0.13496510438917014,"251":0.003770083454401202,"252":-0.19458021044637588,"253":0.01723612236368711,"254":0.007023795703869255,"255":-0.1888468824747891,"256":-0.3580395593721184,"257":-0.007421223322443527,"258":0.15345365009954293,"259":-0.02277304659778896,"260":0.04861033561705139,"261":-0.0996508177483893,"262":-0.011688369263716176,"263":0.03660267609021476,"264":0.07919851936774969,"265":-0.07227811036191485,"266":0.1459428824513875,"267":0.06370996199733467,"268":0.03303645229978398,"269":-0.08248426081942213,"270":-0.1338142803180873,"271":-0.0018202577050793684,"272":-0.0173801631649309,"273":0.022285358786844393,"274":0.1652160971004756,"275":0.24603512005206563,"276":-0.03600712966079663,"277":0.06355805950929798,"278":0.1469352961293172,"279":-0.04641381740779755,"280":-0.01637153199018172,"281":0.06120216617158722,"282":-0.10648693105037998,"283":0.04546394141619084,"284":-0.0008856260484894802,"285":-0.05916169382800166,"286":-0.05547394084352546,"287":0.05623468200452008,"288":-0.04468726903845687,"289":0.04881341937831858,"290":-0.04773778991703722,"291":-0.21876248019420882,"292":-0.26684370855612216,"293":-0.11842229408235419,"294":0.017804990043168063,"295":0.08657911111318546,"296":0.13160809638488155,"297":-0.030822859732161936,"298":0.018506375732638854,"299":-0.04726860352392222,"300":0.0308577722598654,"301":-0.15325678137086637,"302":0.12940923691595527,"303":0.007707586268774359,"304":-0.0003218125565081298,"305":0.11012369074519497,"306":-0.05041464324200246,"307":0.06847298995442631,"308":0.04378049466607317,"309":0.02920396002172994,"310":-0.532679813769841,"311":-0.12202749820071677,"312":-0.11563228116584837,"313":0.10334277348687755,"314":0.04071583951908561,"315":0.014061727142386977,"316":0.023758534497558475,"317":0.03364995024975438,"318":0.11325970230816551,"319":-0.6391999316003171,"320":-0.09143451993285628,"321":0.026949911069063106,"322":0.10737427827801173,"323":-0.02196254798781691,"324":0.0003512704161185092,"325":-0.04352181010880066,"326":-0.03077600830606185,"327":0.035199375459647034,"328":-0.3578129255332133,"329":0.014038063438808153,"330":-0.0014516473046322221,"331":-0.0035546290279588177,"332":0.049907265013867524,"333":0.09961659885341455,"334":-0.09492062905720175,"335":-0.06971583066838759,"336":-0.21428931884569472,"337":-0.5490260497000734,"338":-0.24697898028502108,"339":-0.002383654551342991,"340":0.008105669494114585,"341":-0.061309603744691396,"342":0.07136257979381444,"343":-0.07048672197066752,"344":-0.11517084743603212,"345":-0.21290447630376194,"346":-0.18021843326189366,"347":-0.4051717539704222,"348":-0.0256298520088756,"349":-0.032005518320466005,"350":0.0983077736650017,"351":0.04838312977385769,"352":0.02974483525955781,"353":-0.09335538356938529,"354":-0.0036582972873993097,"355":0.12900218290573398,"356":-0.2118794707521567,"357":0.05745618016069408,"358":-0.10234416503640649,"359":0.050983327942057954,"360":0.04263167351016494,"361":-0.13199148930459093,"362":0.05166792900344904,"363":-0.07542726629101178,"364":-0.357869766656439,"365":-0.10027381992584528,"366":-0.0010778631032120158,"367":0.02373042496253402,"368":0.11735925747935315,"369":0.03910147286449086,"370":-0.00832562500495595,"371":0.02615413088043286,"372":-0.2707526354625164,"373":-0.3344883272636765,"374":-0.47604446492403646,"375":-0.021494162519955607,"376":-0.01322873448098902,"377":0.06477151945046268,"378":0.015817142443706127,"379":0.11180744042867947,"380":0.10417189502626352,"381":-0.37237763191161444,"382":-0.29973218276480673,"383":-0.7294461572139317,"384":-0.08553411523443652,"385":-0.12284390741367424,"386":0.0290764977186215,"387":0.05136914696612845,"388":0.017165742597576236,"389":-0.002684348028601619,"390":-0.22312607148641148,"391":-0.4137641578505975,"392":-0.8285860159854515,"393":-0.0308780512448296,"394":-0.06768104037240254,"395":0.14895111675891265,"396":-0.1359375162624977,"397":0.2988539537118498,"398":-0.06336252130604526,"399":-0.10871864726409985,"400":0.1697361415377531,"401":-0.4038400175656941,"402":0.0358907798151085,"403":-0.008133842828758517,"404":-0.01367074194764857,"405":-0.24575256397680048,"406":0.2426183531202154,"407":0.17085585235713804,"408":-0.11421842816522819,"409":0.05923792044707358,"410":-0.3780218546145746,"411":0.05113306525189644,"412":-0.049125917633623034,"413":0.0718076264770737,"414":0.0253863011298629,"415":-0.047390138757462175,"416":0.04239165132268153,"417":-0.2317711666020475,"418":0.01667757628989474,"419":-0.42454402047510836,"420":-0.047931290373202935,"421":0.026253717919836512,"422":-0.10803810364522463,"423":-0.007075565958083622,"424":-0.06136516543258907,"425":0.08619046973749367,"426":0.01840503524832504,"427":-0.06769697582148738,"428":-0.19628267754191214,"429":0.057805242445199155,"430":0.019966950182993378,"431":-0.08465647332386399,"432":-0.04422489228965575,"433":0.214750358448844,"434":0.04173863339129909,"435":0.22618316428099558,"436":-0.15135149838444265,"437":-0.16571869860992755,"438":0.08175525758010355,"439":-0.006025510601562728,"440":0.18694061773263193,"441":-0.1718911597249705,"442":0.23807829776271489,"443":0.1958586807333327,"444":0.2532820674325316,"445":-0.6662016455445303,"446":-0.13829118271812807,"447":0.08867981763091759,"448":0.008669079954791818,"449":0.10457464727905802}},{"sx":1,"sy":1,"depth":450,"w":{"0":-0.03032541646406354,"1":-0.02041178736890866,"2":-0.04663954853026992,"3":-0.022743419257079317,"4":-0.09807425069596261,"5":0.06849762932643787,"6":-0.006986086105144929,"7":-0.10882575207885095,"8":-0.06187469523032332,"9":0.0019380021682165276,"10":-0.032991990103377264,"11":-0.01027141053339486,"12":-0.04177099902891946,"13":0.04638231305619185,"14":0.02560640344312966,"15":-0.08157642054074221,"16":-0.06062529457449159,"17":0.04994792952849189,"18":-0.10077940477826212,"19":-0.05558783125000943,"20":-0.04183466152789801,"21":-0.06640964869966805,"22":-0.017730543228727306,"23":-0.024537218469313584,"24":-0.12439247726355915,"25":0.0627158077664983,"26":-0.0452193704433101,"27":-0.03458865132387868,"28":-0.08324243470810215,"29":-0.016194043971498987,"30":-0.025669067313006975,"31":-0.028942598084442293,"32":-0.043650903908055504,"33":-0.0023259050509296317,"34":0.04844153159079013,"35":-0.017478032129831133,"36":0.006997422529076016,"37":0.01872852872723185,"38":-0.02666115715706786,"39":-0.006865571332601131,"40":-0.031320415441258714,"41":0.09958967608796056,"42":0.052512967942141754,"43":0.04889133820534748,"44":-0.05861494106718748,"45":0.056317763540428833,"46":0.03428474425429488,"47":0.031243474611361045,"48":-0.01874738332854681,"49":-0.040345737719198735,"50":0.016782292176501602,"51":-0.04080704908053595,"52":-0.03234040113637618,"53":-0.09023530477546003,"54":-0.08173458010544378,"55":-0.06845150732878756,"56":0.0017532387005962005,"57":0.025559424753867327,"58":-0.008902756663777106,"59":-0.004623271731985462,"60":-0.016555087646207563,"61":-0.030070836416848993,"62":-0.07137447132750024,"63":-0.029899974981347256,"64":-0.040009216285016816,"65":0.003985580687339579,"66":-0.038040295606031144,"67":0.03798574142564397,"68":0.005259747796199385,"69":-0.028156486757339227,"70":0.01848909797129969,"71":-0.01240018794528375,"72":0.05301547771865842,"73":0.03304247699807719,"74":-0.06363604805459894,"75":-0.04576172582395661,"76":-0.034443410325138896,"77":-0.08437388429160605,"78":-0.02866461785900442,"79":-0.05169045934474302,"80":-0.02031123231560143,"81":0.035595275357947674,"82":-0.010284227250870144,"83":0.00244704657221459,"84":-0.031069639593413658,"85":-0.021057485918290285,"86":0.015707935301484198,"87":-0.012623239384521853,"88":-0.004889390268752084,"89":-0.0485762084638795,"90":-0.025582996168703513,"91":-0.13652183202903118,"92":0.03752958638250552,"93":-0.09268722660783651,"94":-0.05836684519798528,"95":0.04658597907842345,"96":-0.07858704515305621,"97":-0.05631318668562978,"98":-0.07286082236080453,"99":-0.06769812813033745,"100":-0.009498849757603386,"101":-0.009418904057652128,"102":0.03473687434439983,"103":-0.016142339357969618,"104":0.04324999622333748,"105":0.020341759426404184,"106":-0.09505394931424876,"107":0.004642277551000335,"108":0.006241557879159837,"109":0.013137160422047548,"110":-0.1447567990278701,"111":0.044295573660001926,"112":-0.00488740120559664,"113":-0.024050895322519795,"114":0.028525395328152015,"115":0.04363813044170998,"116":-0.030698036705694248,"117":-0.055169331428289704,"118":-0.039424911269503225,"119":0.03910651755511124,"120":-0.02853169065777778,"121":-0.09594055179459837,"122":-0.0031099421919283166,"123":0.010070052925827876,"124":0.10066013836567429,"125":-0.07311346246026057,"126":0.015123095727049687,"127":-0.02604940687203173,"128":-0.05587044675930415,"129":-0.098569360271193,"130":0.010086481911715284,"131":-0.023145989644565497,"132":0.0074671645164820985,"133":-0.034965722019240524,"134":-0.04540643662094275,"135":-0.0019057147158839606,"136":-0.023715785653315204,"137":0.07204698878793203,"138":-0.010506645750417886,"139":0.009570788013071615,"140":0.028046743148627384,"141":0.029109605316539836,"142":-0.034446764828393955,"143":0.05189378647713603,"144":0.004498372106987577,"145":-0.022830236095958144,"146":-0.0983271109123547,"147":-0.05021662778971971,"148":0.04952448948218804,"149":0.035204359863675865,"150":-0.0029074714266373314,"151":-0.0024580960503869133,"152":-0.10874163011987835,"153":-0.04140839329737187,"154":0.042514238430973905,"155":0.011460222323033111,"156":-0.054293055101361135,"157":-0.07900927246697781,"158":0.010546115209577621,"159":-0.009123033294166187,"160":0.06401191731121328,"161":0.05643212843587509,"162":0.027682988665590286,"163":-0.033423958195639245,"164":-0.10014104472516488,"165":-0.00235699374178708,"166":0.03234375747184311,"167":0.10272592453184339,"168":-0.0693988968911494,"169":-0.10092281002698021,"170":0.08665873668597202,"171":-0.025211908879094223,"172":-0.01741849870925091,"173":-0.04567281893487824,"174":-0.005781527661386846,"175":0.06623867695716754,"176":-0.013023144072756494,"177":0.02709932697360062,"178":0.08609409504152446,"179":-0.003090366859933693,"180":-0.06252895583162178,"181":0.003936045380222431,"182":-0.04579109699212902,"183":-0.09243994874494943,"184":-0.10871058668627051,"185":0.046436651312034505,"186":0.0650485961347483,"187":-0.027531221314899296,"188":0.022363257686345117,"189":-0.0561740685888637,"190":-0.049036182567526704,"191":0.04823453339403646,"192":-0.01563305845765588,"193":-0.06367444985738356,"194":-0.03333902393451219,"195":0.0050249004117669865,"196":0.015522136458186146,"197":-0.015610306293234809,"198":0.07357584450607857,"199":-0.08238403135920695,"200":-0.06293021146264671,"201":0.02203936877706262,"202":-0.02860742392739269,"203":0.10325429068337173,"204":0.023976082027239515,"205":-0.08331931255090816,"206":-0.0725350868980245,"207":-0.0256382682936649,"208":-0.050350085485469126,"209":-0.03530010242754196,"210":0.018502278293397272,"211":-0.013261252587632364,"212":0.017583929606515475,"213":0.05235493764161511,"214":-0.046814684919557856,"215":0.055016465375403244,"216":-0.02874752037376753,"217":-0.06743746902391441,"218":-0.01542139399245007,"219":-0.017960657396858554,"220":-0.061892295131764814,"221":-0.04365062207727879,"222":0.06231710593263601,"223":0.014501852355095175,"224":-0.020456757800851308,"225":0.0088431242079767,"226":0.02378365829612018,"227":0.03527770823420513,"228":-0.01919175133458947,"229":-0.08365657783852969,"230":-0.13810674730902717,"231":0.04343096444256207,"232":-0.06581803021167959,"233":-0.11948657368119209,"234":-0.04619633774155726,"235":-0.0615390693068967,"236":-0.002094031286977596,"237":0.0029350079025120173,"238":0.02041404834087203,"239":0.029436553246748192,"240":-0.01810839805912751,"241":-0.11399886455852844,"242":-0.02646912590144758,"243":0.020042571113622416,"244":0.021285064721373394,"245":0.011682411064441636,"246":0.0804153245685661,"247":-0.07393308432408909,"248":-0.00910258425757971,"249":0.057751225072077174,"250":0.0342433462079925,"251":-0.043076643252367264,"252":-0.00812393332723035,"253":0.008450953287265127,"254":-0.02745395455752433,"255":0.20804859145712334,"256":-0.19235402508527408,"257":0.07821648761297711,"258":0.028935839902729927,"259":-0.014817531775908116,"260":0.02393034075620824,"261":0.030875073375569842,"262":0.0515845236375316,"263":0.07597804430392933,"264":0.21798798932675512,"265":-0.13680561344042325,"266":-0.13580817782929863,"267":0.04985951240146636,"268":-0.027010844133078648,"269":0.005116352216756438,"270":0.03619584584330078,"271":-0.0751334706884908,"272":0.06640904482441555,"273":-0.0012587107172742922,"274":-0.5379186566964101,"275":0.008412418497996656,"276":0.0833395815098383,"277":0.0673626347543542,"278":-0.022000886950399565,"279":0.012541221216490836,"280":0.01874588077014653,"281":0.05511265475417069,"282":0.14975216844451536,"283":-0.515463541530077,"284":0.020256845834467286,"285":0.010697570022117877,"286":0.08418734814659752,"287":0.025151524983389458,"288":-0.05118510433281205,"289":0.058118535478217354,"290":0.05970920153655894,"291":0.27667889625408926,"292":-0.585368576086236,"293":0.0418374387743592,"294":-0.019970063630369784,"295":-0.01896424564290803,"296":0.061900373908350396,"297":-0.030308595135831014,"298":-0.003082056427085188,"299":0.07063766055213538,"300":0.2586756246615871,"301":-0.3777314556524305,"302":-0.09163179243170401,"303":0.021761532755899846,"304":-0.03285988642070318,"305":-0.05699495368099131,"306":0.05027670567664296,"307":-0.007198967204912509,"308":0.02355517367950822,"309":0.44341373826650776,"310":-0.7165432752962652,"311":-0.12454932445303844,"312":-0.024664601768389437,"313":-0.09557522593446943,"314":0.03086454163311501,"315":-0.024181603329849265,"316":0.10890883176161412,"317":0.028753175242308845,"318":0.4368423575444147,"319":-0.806184366351368,"320":-0.09886763879192055,"321":-0.07577697835612385,"322":-0.006126325873097156,"323":-0.017436252212673368,"324":-0.06187394576889624,"325":-0.025516476116677223,"326":0.015026999835873377,"327":0.3419076478625846,"328":-0.7655261392883794,"329":-0.07429168840353835,"330":-0.05274390784527257,"331":0.014286828807042639,"332":0.00542300932473021,"333":-0.0352716202962412,"334":0.010082935701645099,"335":-0.06408202651058317,"336":0.50022658612635,"337":-1.06858936674922,"338":0.04826344099817436,"339":0.048064912257186954,"340":-0.016903130643755256,"341":-0.052505377274886876,"342":0.01900971444872548,"343":0.018234333276823594,"344":0.03846270722266967,"345":0.5969639639454652,"346":-0.6144591232061305,"347":-0.016561133843742398,"348":0.09003784114529056,"349":-0.06478339316958251,"350":0.057738276569399845,"351":0.016988044261214735,"352":0.054107769739277584,"353":0.10766943454647243,"354":0.6506026356948893,"355":-0.3403489312546749,"356":-0.15617361188366652,"357":-0.04973502523117349,"358":-0.05958476872953606,"359":0.07444225619090095,"360":-0.03793128545317627,"361":-0.02214638500161509,"362":0.12313774988267051,"363":0.6639328016898128,"364":-0.09715760723225607,"365":-0.13738928842689377,"366":-0.07380857642164272,"367":0.007078865869701916,"368":0.07923955675980693,"369":-0.028353358146874875,"370":-0.03917380207994738,"371":0.16907302343092226,"372":0.8148041014537298,"373":-0.03279219506343337,"374":0.05622965254419622,"375":0.009525530196752246,"376":-0.0042605821460531094,"377":0.01067513012390694,"378":0.060252299633159014,"379":-0.059805425926063104,"380":0.10150689561009628,"381":1.1006776921653638,"382":-0.03522235388814472,"383":0.07567495746088727,"384":-0.05508003755412984,"385":-0.02693147197474902,"386":0.04855469234078499,"387":-0.0033619498168439236,"388":0.09107901492101154,"389":0.0564303512561829,"390":1.5375715584353418,"391":-0.057630554418628514,"392":-0.1214417224146008,"393":0.06591698040862587,"394":-0.002207858459533466,"395":0.02371559801537407,"396":-0.0919117155838327,"397":-0.042560676767305815,"398":0.08553173467563575,"399":0.6158102771384868,"400":-0.3435357414559366,"401":-0.12839321700182332,"402":-0.005480063054734178,"403":-0.020069038193416912,"404":0.02082808522253863,"405":0.012130481542154785,"406":-0.03559531936521232,"407":0.004772514037067613,"408":0.4042325978147498,"409":-0.43575807273909156,"410":0.032793126833887444,"411":-0.05147502032181056,"412":0.004425958303037901,"413":-0.005499692441494425,"414":-0.008010373458252968,"415":0.013972166118135636,"416":-0.009530683543901327,"417":0.17054094879868464,"418":-0.27391364823280495,"419":0.06939517979519737,"420":0.02049047573285589,"421":-0.017893943472790802,"422":-0.04261989243189519,"423":-0.009301809322970863,"424":0.026988214255043552,"425":-0.007234608726880753,"426":-0.010489096538115854,"427":-0.029411011170900007,"428":0.10677989430225288,"429":0.09381864694641265,"430":-0.010967705051605924,"431":0.0225102249164691,"432":-0.0017000373135462245,"433":0.0033449243855743736,"434":-0.0010411554212322212,"435":0.17029821193084818,"436":-0.05459370543817292,"437":-0.06314000845190501,"438":0.010454638934139632,"439":0.034437029461093435,"440":-0.024526708410125896,"441":0.046176262671024454,"442":-0.04274217013671955,"443":-0.04174752566684112,"444":0.18065939418715202,"445":-0.06687926491340958,"446":0.031379203386747004,"447":-0.016875894823846924,"448":0.049528641007445716,"449":0.016128450925453012}},{"sx":1,"sy":1,"depth":450,"w":{"0":0.03267988950796146,"1":0.07709620189948613,"2":0.07288627993883001,"3":0.0712613576836218,"4":0.02558639368036627,"5":0.022819008831959173,"6":0.05392152168275371,"7":0.04185789498524635,"8":0.09466946899106608,"9":0.016761632668555855,"10":-0.050462154943647856,"11":0.00009666110200579785,"12":0.005147886108318676,"13":-0.03303817020391297,"14":0.05098606161572564,"15":-0.047058877059694255,"16":0.009539734616097357,"17":0.026028483444447203,"18":0.029685161913258606,"19":0.01708443215858488,"20":-0.01364696004508895,"21":-0.009139916996121019,"22":0.04874374235723013,"23":-0.07492094362254709,"24":0.011026630198183545,"25":0.013987649171621893,"26":-0.12122656961087339,"27":-0.06607288569485732,"28":-0.015145259791017949,"29":0.07197895713236643,"30":0.04009862589704814,"31":0.023509574020678565,"32":-0.000777999165545965,"33":-0.0456901517431281,"34":0.0006489077519516614,"35":0.05036882873623282,"36":0.030875536493722086,"37":0.05525619237563653,"38":0.07129892040971121,"39":0.02750080468361045,"40":0.02174264612188894,"41":-0.020515693684511088,"42":0.07048642541780106,"43":0.10911764200760263,"44":0.06435783933408802,"45":0.007358244966593847,"46":-0.026900459711237276,"47":0.006476262725390214,"48":0.0073982452651358485,"49":0.05049104871225042,"50":0.07071802634376788,"51":-0.07238791501748919,"52":0.022901086738012333,"53":-0.004189339547181234,"54":0.02782586469562582,"55":0.04102951423244804,"56":0.004751496108950907,"57":0.018144074762957058,"58":0.008241514590419875,"59":0.0005899209416858032,"60":0.06619220941124966,"61":-0.018263739517946093,"62":0.025682133962734728,"63":0.04174802224985729,"64":-0.0006728388951496539,"65":0.015674215690786874,"66":0.03462187287495474,"67":0.01872218670967362,"68":0.006543649576632272,"69":-0.02718441857860221,"70":-0.06515759332147784,"71":0.011386607287053898,"72":0.001192844774280961,"73":0.1007898300967055,"74":0.004613830854006081,"75":-0.01732114185189248,"76":-0.008142499182037815,"77":0.038715014432229224,"78":0.03628464795428237,"79":-0.02157782793191945,"80":0.016279627957682397,"81":0.0702110839832332,"82":0.04303281100608836,"83":-0.01857308654936719,"84":0.06517125307913052,"85":0.05231220369395043,"86":-0.05854643594005632,"87":0.008188312512264978,"88":0.07323276095139683,"89":-0.09023946576523197,"90":0.001361210763339818,"91":-0.0027991439378627398,"92":0.04415359917347798,"93":0.05827114569737606,"94":0.06939373289960467,"95":0.029202206141511755,"96":0.010108918503830312,"97":-0.01842194020984573,"98":-0.022946185548710345,"99":-0.019970050747433347,"100":-0.05979034090167418,"101":0.05402282243993917,"102":0.013538034842519205,"103":0.010866522146450215,"104":0.043492018711950575,"105":-0.061833908358158704,"106":-0.03937835833617358,"107":-0.043744558830807204,"108":0.013523911028306593,"109":-0.00708455939759535,"110":-0.05463673065293831,"111":-0.01706784882029504,"112":0.09586623870125341,"113":-0.04486724677226582,"114":0.008846483364751844,"115":0.01826796497413882,"116":0.0029850833489723934,"117":0.01433505338031818,"118":-0.029709912401701004,"119":0.012363931064210418,"120":-0.014679355258198731,"121":-0.046065473961398505,"122":-0.003173384338806007,"123":-0.023628494628263046,"124":0.01747640729058862,"125":-0.05088553515535713,"126":0.10285965859643367,"127":0.030128372252621938,"128":-0.010689117865321984,"129":-0.005004483130281364,"130":0.03781470216576455,"131":0.03275895710303466,"132":-0.03726384580294188,"133":0.029365086378693776,"134":0.025106138271780747,"135":-0.010124553309069424,"136":0.0011218212141218464,"137":0.006039338216086007,"138":0.010565844877879286,"139":0.048900521368624654,"140":0.04842238037272105,"141":-0.0450981524804982,"142":0.019141082672952305,"143":0.03385634852392078,"144":0.08086820367690663,"145":-0.02212531079080363,"146":0.0002723396833213664,"147":-0.09590397348314136,"148":-0.03888338450861386,"149":-0.056960172455890974,"150":-0.024214375982057935,"151":-0.09199522301649106,"152":0.00037238188869742134,"153":-0.07149854181105418,"154":0.010124727604697058,"155":0.04066513035584678,"156":0.016756431929691142,"157":-0.1158321679001326,"158":-0.02408344445116018,"159":0.0105948401339695,"160":0.02947661281629184,"161":-0.024159893975337087,"162":0.036999670098274075,"163":0.07827565370567979,"164":-0.01981299887497346,"165":0.010185535480036189,"166":-0.08624043453280807,"167":-0.05383599468027811,"168":-0.0332471745847859,"169":0.025786909267558864,"170":-0.08793789987809429,"171":0.001775132431905061,"172":0.020126530070263014,"173":-0.04380799638055293,"174":-0.08380001779093578,"175":-0.10655330146713153,"176":-0.04203169620220082,"177":0.021633778036114496,"178":-0.009789163328848797,"179":-0.06364422313688808,"180":0.020293994002864833,"181":-0.01963691614105912,"182":-0.031249202364456274,"183":-0.1643192743620976,"184":-0.02386206926726383,"185":-0.03274293637202776,"186":0.05590645813681235,"187":0.014388589666029253,"188":0.033209143920580594,"189":0.06577244563205147,"190":-0.015450489506435875,"191":0.05585504071326198,"192":-0.08432582906500892,"193":-0.06396226584751762,"194":-0.0046420735442790325,"195":-0.041368784988038525,"196":-0.0005917392922395301,"197":0.04110298316622759,"198":0.018548048045559245,"199":-0.013782238419113796,"200":0.05320062204437119,"201":-0.025317836273531753,"202":-0.11843660538637892,"203":0.00889377772730999,"204":-0.06635328258768747,"205":-0.05179193974602654,"206":0.018804083883980922,"207":-0.06613510193514437,"208":-0.014004295904929001,"209":-0.005584776766018775,"210":0.008126277660615733,"211":-0.2239583156105993,"212":-0.07689388453680195,"213":0.08707825374363161,"214":0.022496261663897333,"215":0.03797961063837416,"216":-0.022544131064989488,"217":0.007555482226434653,"218":-0.01661716179860156,"219":-0.15379998536143338,"220":-0.1414010546821211,"221":-0.019026207224363795,"222":0.019263025956022733,"223":0.04157479484088373,"224":-0.003484676440534842,"225":0.11453041079978392,"226":-0.05883964958779468,"227":-0.005112447287386634,"228":-0.1737328500243472,"229":-0.060535313909412636,"230":-0.12015126756727017,"231":0.0007704025406375499,"232":0.06886445781049694,"233":0.03958328261834977,"234":-0.016544203643482944,"235":0.07297180075262837,"236":0.0031867929052142177,"237":0.016542732626756235,"238":-0.1866745042496588,"239":-0.10586684519300145,"240":-0.010199370187509979,"241":-0.010587820252098654,"242":-0.025109263276723925,"243":0.009449999113790878,"244":-0.017266678661638443,"245":0.002725950202687022,"246":-0.006806424467226496,"247":-0.1429229763919537,"248":-0.022029828836286815,"249":0.0006285602541809256,"250":-0.05221077020555051,"251":0.06332995475462527,"252":-0.0345788986119987,"253":0.003914400536129087,"254":-0.009126982213261442,"255":0.026644976858158226,"256":-0.16879712069321764,"257":-0.04838597848888749,"258":0.028655751526398054,"259":0.12309716545807219,"260":0.03527057877352427,"261":0.03399136515867697,"262":0.048396562727545375,"263":-0.03555371749958537,"264":-0.06302688784597393,"265":-0.25472687842750275,"266":-0.13958520725187773,"267":0.0682388132783335,"268":0.021368869018783567,"269":0.0383870889017259,"270":0.06438568358121499,"271":0.04403954240880893,"272":-0.0656928597478592,"273":-0.15978346151961156,"274":-0.24326270368750563,"275":-0.22450959842918924,"276":0.02905835262958398,"277":0.06674086516479953,"278":-0.008204821465589684,"279":-0.006811614382924873,"280":-0.0725602379747583,"281":0.054437427697937024,"282":-0.05237900786277529,"283":-0.2018534978115058,"284":-0.09339666533485043,"285":0.027178959258849538,"286":0.06678716667689322,"287":-0.0028778860884727674,"288":-0.005863432538551592,"289":0.0406088299229164,"290":0.00474021351096816,"291":0.10607546365438889,"292":-0.23746209012306368,"293":-0.03399856714060755,"294":0.020278123679751785,"295":0.030461729526777254,"296":0.051193602766191545,"297":-0.02265960027308135,"298":0.03943072308222496,"299":0.009678190625751417,"300":-0.23032795144794488,"301":-0.31715006741411,"302":-0.20694676088075595,"303":0.0991334298927373,"304":0.04564555953436316,"305":0.08369792004761374,"306":-0.011351839347912972,"307":0.048059555537976695,"308":-0.016847305235357053,"309":-0.32256300951688976,"310":-0.708635652879612,"311":-0.18482258323688308,"312":-0.043524990652191675,"313":0.09404565456529179,"314":0.054618365103829884,"315":0.14682963173897545,"316":-0.032741560386703665,"317":-0.10608266846076864,"318":-0.2598511847998373,"319":-0.7304377550110593,"320":-0.1966620869648412,"321":0.07867349795564424,"322":-0.014991040377889953,"323":0.050979142048417546,"324":-0.027637230455038624,"325":0.0115668106713303,"326":0.0003103428033873304,"327":-0.2930972991241344,"328":-0.6325216207637439,"329":-0.2225485733422587,"330":0.09871495535910722,"331":0.07462541487787537,"332":0.03293216113226057,"333":-0.05393607174521195,"334":0.022479488814856306,"335":0.017668482689728943,"336":0.032395284307799505,"337":-0.35285922453398844,"338":0.003441748767527314,"339":0.13012484257878287,"340":0.051658392215938764,"341":0.08041501823710832,"342":-0.004708275457342469,"343":0.054167368227594756,"344":0.01623258533302962,"345":-0.055252180967115705,"346":0.3541375353133307,"347":0.039926431840266736,"348":0.11461618010799506,"349":0.03267156426149158,"350":0.007175385169655999,"351":0.0658895393438256,"352":0.05361930912725246,"353":-0.04724370834897473,"354":-0.21299874695282447,"355":0.6896469508991919,"356":-0.192847077092664,"357":0.01648191268425746,"358":0.04420229154256741,"359":0.07935668993030831,"360":0.06211597195393989,"361":0.03611823119214963,"362":-0.029533529543336077,"363":-0.18283114885465523,"364":-0.5784000941216094,"365":-0.0895766232699451,"366":0.12267562020825241,"367":-0.008685701327897952,"368":-0.025615508593784232,"369":0.03599537399596837,"370":0.04639354024792119,"371":0.049656863242030655,"372":0.008567569425035948,"373":-0.6736842497859552,"374":0.054932912930395816,"375":0.06139578604952679,"376":0.021556571189596026,"377":-0.010164505188261282,"378":-0.09699740307394462,"379":-0.025182617142669853,"380":-0.024697589388052717,"381":-0.05656962286612531,"382":-0.5121277711646184,"383":0.21451710694280932,"384":0.1360348544021318,"385":-0.07315375239309725,"386":0.03392568552844403,"387":-0.02233133216321577,"388":0.004979153678886369,"389":0.0014079698700386017,"390":-0.0023007726374965937,"391":-0.5318239794950539,"392":0.13476911941069158,"393":0.02595376825424434,"394":0.03222341860813351,"395":0.10588796924928495,"396":0.08201118246966416,"397":0.04692378456202029,"398":0.10763090576205223,"399":0.036897705235548,"400":0.8826521136188715,"401":0.07025354924103953,"402":0.03406196977044489,"403":-0.048313745619304155,"404":-0.017406946129215353,"405":0.05548009677411642,"406":0.029576620419228254,"407":0.03701565875456089,"408":0.13761211520060918,"409":0.8248696991386897,"410":0.12355555125291909,"411":0.03672680531512979,"412":-0.020199849918704996,"413":0.044543529617135647,"414":0.051532607412252296,"415":-0.048069368498061774,"416":-0.020194234065949335,"417":0.07156625904107095,"418":0.6657523609052869,"419":0.07373796065583577,"420":0.04607983611252618,"421":-0.0006503969110892378,"422":-0.028398933759371175,"423":0.004332713531327766,"424":0.03548548831114252,"425":0.01910478246498237,"426":0.04174564900669644,"427":-0.04884239611054802,"428":-0.0231180800646277,"429":-0.01894742801122353,"430":0.015378691044747761,"431":0.058089246164410364,"432":-0.034768161836400094,"433":-0.000894268589939013,"434":0.06094953543502281,"435":-0.003363839636128476,"436":-0.45607014305166466,"437":0.018487581665575903,"438":0.05230873695446217,"439":-0.028507872775314917,"440":-0.007802476927660744,"441":-0.027098696133042638,"442":-0.06930455386320795,"443":-0.0022227254370888365,"444":-0.01004089415261609,"445":-0.20655013999997104,"446":0.19519799852841088,"447":-0.0360816805061232,"448":0.016050734258578347,"449":0.049443615819788886}},{"sx":1,"sy":1,"depth":450,"w":{"0":-0.02696830156477558,"1":-0.009569665328509055,"2":-0.01657976219014699,"3":0.1338151172923685,"4":-0.059089871730607035,"5":-0.07128680887111766,"6":0.03669935126283388,"7":-0.003994446412617975,"8":-0.01826526371108889,"9":-0.03171913745336417,"10":-0.05518915356032574,"11":0.01998635338122984,"12":0.11942814080841493,"13":0.01661007374653285,"14":-0.042198807268830144,"15":-0.02866690222845666,"16":0.05088440803649485,"17":-0.06342189443935968,"18":0.020930334387544238,"19":0.08460437548806843,"20":0.02916294008369164,"21":0.022303733000677197,"22":0.09687266928864875,"23":-0.018655885975653194,"24":-0.055092374152075636,"25":0.014567366716074044,"26":-0.03727576568012018,"27":0.10017213392658209,"28":-0.0018542637375178394,"29":0.11462617048214022,"30":-0.043146394537804604,"31":0.05304242861305483,"32":0.05017160336520796,"33":0.07121483000513179,"34":-0.04288262227135649,"35":0.03962920098275317,"36":-0.04609592956453697,"37":0.059126721931864884,"38":0.007111488083056231,"39":-0.07256873407570139,"40":-0.014173629452275472,"41":0.06922464882196742,"42":-0.05123864805625002,"43":0.1140479627977092,"44":0.04786002126900574,"45":0.049149661295374354,"46":0.04170897624529862,"47":-0.011672427529647079,"48":-0.10107265866282795,"49":-0.03951522860456314,"50":0.1566283818435966,"51":-0.0019641202477323695,"52":0.0345243454563463,"53":0.08834384125160916,"54":0.02249060830773124,"55":-0.012547050076185206,"56":-0.048901809102167564,"57":-0.04110655199579764,"58":0.046110035672174185,"59":0.1850675591136799,"60":0.1454161938366,"61":0.09860199410671187,"62":-0.03796549341131093,"63":-0.03207439907278257,"64":-0.018617570172328415,"65":-0.06992079151677254,"66":-0.03488580182010129,"67":0.017234896564388726,"68":0.0614075614453894,"69":-0.039669888456650426,"70":0.07962521797411082,"71":-0.027172408664084248,"72":-0.09763637830882724,"73":0.060064275661093555,"74":-0.07864527763558454,"75":-0.01972715410819444,"76":-0.009767101805754515,"77":0.10436642686747664,"78":-0.02902410790630272,"79":-0.08964862448995367,"80":-0.06350525924977685,"81":-0.07176032624402699,"82":-0.07753711657902498,"83":0.02692679705561494,"84":-0.019849126346886473,"85":0.019043132915940723,"86":-0.011723097321458587,"87":0.025469982954642388,"88":0.0836920016753462,"89":-0.06406638552918441,"90":0.11664684835463453,"91":0.006431310696381869,"92":0.1329296893290477,"93":0.021715005078035164,"94":-0.03003046406892799,"95":0.06183663255398786,"96":0.058872764706725984,"97":0.07433984938627133,"98":0.06112914562611328,"99":-0.07437625859740601,"100":0.033563959137714344,"101":0.14710328761146482,"102":-0.03097590495943661,"103":-0.041527225250093766,"104":0.07945701190051711,"105":0.05467137388740272,"106":0.03882969785128887,"107":0.0661269963021503,"108":-0.04595906913671896,"109":0.08735097485416929,"110":-0.006592056119721782,"111":0.010033773303560407,"112":-0.004003650326326131,"113":0.07955001376425175,"114":0.181461790102948,"115":-0.046730081623257556,"116":-0.016858932531872282,"117":-0.004301120771814774,"118":0.07771040694867815,"119":0.0621154407313469,"120":0.00020615427240403737,"121":0.00506164551808342,"122":0.005135152885869248,"123":0.0069167995299225585,"124":0.016903290088495136,"125":0.03865655559240122,"126":0.07790291749225266,"127":0.012396752618539219,"128":0.0355067179247348,"129":-0.08043164196826419,"130":-0.19083965339534495,"131":0.12974339070244592,"132":-0.03817142942421912,"133":0.027371521846722247,"134":0.11472582059729189,"135":0.03327563205008161,"136":0.04566958134482251,"137":0.07300874282478244,"138":-0.03681253682904832,"139":-0.05497024147789212,"140":0.2061762779513624,"141":0.12490753885106372,"142":0.06307411079973514,"143":0.08552445927841174,"144":-0.021882515221603838,"145":-0.03794104198475016,"146":0.013437846644954995,"147":0.03918884930908647,"148":-0.19168583376016304,"149":0.0232759883157012,"150":0.03565750426280083,"151":0.010470427960445937,"152":0.1330590197414013,"153":-0.014270087017677135,"154":-0.022701837870273328,"155":0.011144357146736278,"156":0.03861900403569361,"157":-0.06043689825661154,"158":0.11688940816010616,"159":0.04059773845285235,"160":0.08406459345916771,"161":0.05317164085352493,"162":-0.005605998386146213,"163":0.0421902856957833,"164":0.011702781130743802,"165":0.09819279925686168,"166":0.01044110117670108,"167":0.10500730451485306,"168":0.022352710917614062,"169":0.03767444311614585,"170":-0.10276129385265044,"171":-0.027509378537893925,"172":0.04292516439051026,"173":0.034432973903057794,"174":0.09167974966328053,"175":-0.046962524189476385,"176":0.01156401483978052,"177":0.009951880613197647,"178":0.016084248641089743,"179":0.044288452934687,"180":0.049334936282011355,"181":-0.07290895031805528,"182":0.0138401069261928,"183":-0.13905228784951032,"184":-0.12140981732743257,"185":0.0439088357493458,"186":0.11864733894548571,"187":0.004055422762122845,"188":0.04503822699884892,"189":-0.039237785599808325,"190":-0.025364894740699414,"191":0.03583155449225022,"192":-0.02213362294541335,"193":-0.13431058090040635,"194":-0.03121559371651425,"195":0.13207602071460475,"196":-0.00542970671895515,"197":-0.04216664826858355,"198":-0.1106758112839887,"199":0.004374266318316024,"200":0.02392624032431945,"201":0.034737722051219715,"202":-0.2421969014949369,"203":0.08512510156799086,"204":0.16124553123802873,"205":0.02325324978766242,"206":-0.055644865098178405,"207":0.04584627611033534,"208":-0.02185580739083985,"209":-0.08402230741289693,"210":0.051520219329884986,"211":-0.17526846113502714,"212":0.05015418042356633,"213":0.15187918735280306,"214":0.0555152659783958,"215":0.0075088051115916234,"216":0.05031315108847427,"217":0.0065797018344677235,"218":0.06367217548276641,"219":-0.04620964292067753,"220":-0.2152079804401163,"221":0.08890830502294617,"222":0.03967160552257119,"223":-0.004133003452052782,"224":-0.01418331081674194,"225":0.015280391860257946,"226":-0.03189849143709242,"227":-0.03917189207509884,"228":-0.0881072954801429,"229":-0.19680804233209534,"230":0.14167476055482922,"231":0.05011099065130878,"232":-0.039805261830658,"233":0.0772614979447744,"234":0.05589849890080335,"235":-0.0005410522839158536,"236":-0.03642668081460355,"237":-0.02413034092546482,"238":-0.22420663333912585,"239":0.1419653561751562,"240":0.012275415945716277,"241":0.025263234991192197,"242":0.06064785432399203,"243":0.001335545616915845,"244":-0.10140668341597776,"245":-0.03399005495293211,"246":0.024446427227005955,"247":-0.2780709670121283,"248":0.24209953874746773,"249":0.06610921548580391,"250":-0.026564338278446283,"251":-0.06929662187590684,"252":0.09510026980638785,"253":-0.09734320598385762,"254":-0.009844635607766022,"255":-0.09289496259946342,"256":-0.19562644520605862,"257":0.20308956142100856,"258":0.2225499452204466,"259":0.01498852092712323,"260":-0.04876000484535171,"261":-0.01107451930726911,"262":-0.04693183497151804,"263":-0.029116322597828204,"264":-0.046781894932473436,"265":-0.28243739968043885,"266":0.08335833715919438,"267":0.07816801154929891,"268":0.068572884948819,"269":-0.03524982522817429,"270":-0.021312025061540348,"271":-0.0766304064313166,"272":-0.018840189433708764,"273":-0.10293922979451534,"274":-0.13192932641581642,"275":-0.008963824437389044,"276":0.11177024667963484,"277":-0.047552863085583534,"278":0.06490837263100659,"279":0.035065992326498006,"280":0.035098266102098104,"281":-0.07995080146257773,"282":-0.09586655532457466,"283":-0.13925608823902433,"284":0.011736168938837006,"285":0.21452283105978054,"286":0.040369628590099856,"287":0.08892162896392389,"288":-0.026223889177548834,"289":0.061119386844586746,"290":-0.0582711752583876,"291":-0.10077373999020255,"292":-0.05489679176968706,"293":0.1634462731171369,"294":0.04131012107812238,"295":0.08058087132939591,"296":0.057199105386453404,"297":0.0595609360909651,"298":0.0567368494012886,"299":-0.028020827462643748,"300":-0.06636695078840146,"301":-0.21471143060511916,"302":-0.2694320623267083,"303":0.09530256352277627,"304":-0.0023901372445299172,"305":0.04764288412937059,"306":-0.040336770123722845,"307":-0.10432630180154961,"308":-0.09946846927720908,"309":-0.03313208828806012,"310":-0.3379313585109018,"311":-0.3611144276201419,"312":0.08798422429892262,"313":-0.07141209546157733,"314":-0.012426365249404813,"315":-0.004441191836641563,"316":0.07612385167357841,"317":-0.12237747248393341,"318":0.0003880523030121586,"319":-0.17122049241934476,"320":-0.4283482061585122,"321":0.1734862603393393,"322":-0.042196423598154925,"323":0.06248702993418519,"324":0.08282333199445793,"325":0.10049231373085026,"326":-0.12861293778505264,"327":-0.011161679796003784,"328":-0.14455774487627776,"329":-0.3650597488628852,"330":0.10605572392284957,"331":0.028164336568454934,"332":-0.015426355986446535,"333":-0.00818292751146851,"334":0.08012004354425785,"335":-0.04726632088499657,"336":0.012155733292454377,"337":0.06523574573407566,"338":-0.026214558565132537,"339":0.16395056078895728,"340":-0.032045217212319656,"341":0.006004717240727833,"342":-0.02711979446646695,"343":-0.010431704743655155,"344":-0.02052852347729353,"345":-0.14033417643781979,"346":0.06927451630965985,"347":-0.1995584357291527,"348":-0.04523689135080867,"349":0.029698455581533688,"350":0.0902611113469492,"351":0.08665326510000747,"352":0.05584415745079301,"353":0.07890797232485933,"354":-0.13366664442958232,"355":0.01984540750048003,"356":-0.6151605652783,"357":-0.06179391906900079,"358":-0.05391846151711727,"359":-0.042546117863553536,"360":-0.028489882566820206,"361":0.01113496037763381,"362":-0.03248158425415826,"363":-0.06492372700254388,"364":-0.0038396527574597306,"365":-0.5406824070087639,"366":-0.017806751139407214,"367":-0.0697289396738472,"368":-0.05849519083748155,"369":0.0498919172115614,"370":0.0621143290282378,"371":0.02012339043846115,"372":0.025305905529586767,"373":-0.04966706596451806,"374":-0.2359085473076864,"375":-0.027535855967302618,"376":-0.01127781166207699,"377":-0.16575368156569767,"378":0.10417779778894368,"379":0.06552961686837709,"380":0.016115286529818806,"381":0.04125989157481637,"382":0.047156352078781,"383":-0.21712758289167844,"384":-0.012263621113064135,"385":0.013433748849198426,"386":-0.15254928144682647,"387":-0.02151457047888772,"388":0.013998876615581192,"389":-0.039657717504301956,"390":-0.11497784902687065,"391":-0.0008283435086714682,"392":-0.3031301204405506,"393":0.07555692714821026,"394":0.02963176130369596,"395":-0.01324218680313953,"396":0.005894117605492166,"397":-0.00032946548843941216,"398":-0.06717986067786713,"399":-0.06996183314080806,"400":0.113039861140046,"401":-0.36205858939800883,"402":-0.03418895734965092,"403":0.060673098224060244,"404":-0.02916027722951002,"405":-0.00046074705350926447,"406":-0.11712051883048405,"407":-0.0054023484542580855,"408":-0.11544121893136913,"409":0.0296177846572596,"410":-0.42711058575426103,"411":-0.07574328888547302,"412":0.008398118306035313,"413":0.038732099924920826,"414":0.043257255567167335,"415":-0.10779191685817748,"416":-0.005142992266902821,"417":-0.0014422097734355735,"418":0.0076270133680878755,"419":-0.2524095369542091,"420":0.010588052921653279,"421":-0.017259957405680756,"422":0.02214429074376216,"423":-0.052279714896296514,"424":-0.02188908651981148,"425":0.02412444011468514,"426":0.14418851688912707,"427":-0.014464074145493564,"428":-0.28586650205764697,"429":-0.03523017899335119,"430":0.044795999258268215,"431":-0.031400716132919906,"432":-0.03291420348693459,"433":0.024204529931320582,"434":-0.003977286300987379,"435":0.07380567836044939,"436":-0.1622991988032895,"437":-0.12599843867958468,"438":-0.016778311281941998,"439":0.02634593983653328,"440":0.09901917082313853,"441":-0.031833502403054575,"442":0.004374689685677659,"443":0.13302434043112976,"444":-0.00932761328286961,"445":-0.15320261014737882,"446":-0.024809865127164987,"447":0.0820480003815634,"448":-0.0019408425799041648,"449":-0.0019311775999245418}},{"sx":1,"sy":1,"depth":450,"w":{"0":-0.04195006034690011,"1":0.05160021907646598,"2":-0.10431363247205425,"3":-0.04483579917829608,"4":-0.01026489893898867,"5":-0.0446229341596432,"6":-0.09069398375912018,"7":0.027624489309358104,"8":-0.005584306966417189,"9":-0.033744661892178895,"10":0.02979425402464388,"11":0.03181825013434618,"12":0.002598973442433448,"13":-0.0005945742324295936,"14":0.06634216362750377,"15":-0.02121083777159798,"16":0.13920439366411858,"17":-0.11110432989861332,"18":0.0343304072975118,"19":-0.08384088820317706,"20":-0.057564227470113284,"21":-0.03261290846730578,"22":-0.026552684196744215,"23":-0.10221618891213417,"24":0.07586152526490055,"25":0.0516597176754769,"26":0.04183002219951784,"27":-0.0011829219885329183,"28":0.04514691956655658,"29":-0.030180418030475376,"30":-0.05909746600696019,"31":-0.04520567486700895,"32":-0.01797411816354545,"33":-0.0891557781309302,"34":0.025748423194188637,"35":0.026164110964424392,"36":0.03818161511536157,"37":0.09897746755688347,"38":-0.0715786979374427,"39":0.06713860463670539,"40":0.05484071986367796,"41":-0.08069294828674393,"42":0.019389522301937946,"43":-0.02728243571951147,"44":0.040042468778212555,"45":-0.03139258101362461,"46":0.050693345156791386,"47":-0.016737948561031408,"48":-0.03611956483812842,"49":-0.03225272641830871,"50":0.055721357354167875,"51":0.0600197704040443,"52":-0.07622471903288527,"53":0.007254572934636256,"54":-0.02186303322512263,"55":0.018728201303481413,"56":0.04094547096635434,"57":-0.05325162983711062,"58":-0.07016822011295804,"59":-0.032873330253102837,"60":-0.04227532566357854,"61":-0.0649395117946935,"62":0.02712827167117958,"63":-0.0224000556064311,"64":-0.0666407607169328,"65":-0.056574812878542116,"66":0.03738202271545163,"67":-0.07061713602614936,"68":-0.18096040289686985,"69":-0.09846834405487706,"70":-0.10434589758694841,"71":-0.07067871339644807,"72":-0.0740428846955726,"73":0.0015130947918215287,"74":-0.05029101827907331,"75":-0.015982888251499683,