
//<![CDATA[

// a few things don't have var in front of them - they update already existing variables the game needs
lanesSide = 3;
patchesAhead = 50;
patchesBehind = 8;
trainIterations = 500000;

// the number of other autonomous vehicles controlled by your network
otherAgents = 0; // max of 10

var num_inputs = (lanesSide * 2 + 1) * (patchesAhead + patchesBehind);
var num_actions = 5;
var temporal_window = 0;
var network_size = num_inputs * temporal_window + num_actions * temporal_window + num_inputs;

var layer_defs = [];
    layer_defs.push({
    type: 'input',
    out_sx: 1,
    out_sy: 1,
    out_depth: network_size
});
layer_defs.push({
    type: 'fc',
    num_neurons: 30,
    activation: 'tanh'
});
layer_defs.push({
    type: 'fc',
    num_neurons: 30,
    activation: 'tanh'
});
layer_defs.push({
    type: 'fc',
    num_neurons: 30,
    activation: 'tanh'
});
layer_defs.push({
    type: 'fc',
    num_neurons: 20,
    activation: 'tanh'
});
layer_defs.push({
    type: 'fc',
    num_neurons: 20,
    activation: 'tanh'
});
layer_defs.push({
    type: 'regression',
    num_neurons: num_actions
});

var tdtrainer_options = {
    learning_rate: 0.001,
    momentum: 0.0,
    batch_size: 256,
    l2_decay: 0.01
};

var opt = {};
opt.temporal_window = temporal_window;
opt.experience_size = 300000;
opt.start_learn_threshold = 10000;
opt.gamma = 0.97;
opt.learning_steps_total = 10000;
opt.learning_steps_burnin = 1000;
opt.epsilon_min = 0.01;
opt.epsilon_test_time = 0.0;
opt.layer_defs = layer_defs;
opt.tdtrainer_options = tdtrainer_options;

brain = new deepqlearn.Brain(num_inputs, num_actions, opt);

learn = function (state, lastReward) {
brain.backward(lastReward);
var action = brain.forward(state);

draw_net();
draw_stats();

return action;
}

//]]>

/*###########*/
if (brain) {
brain.value_net.fromJSON({"layers":[{"out_depth":406,"out_sx":1,"out_sy":1,"layer_type":"input"},{"out_depth":30,"out_sx":1,"out_sy":1,"layer_type":"fc","num_inputs":406,"l1_decay_mul":0,"l2_decay_mul":1,"filters":[{"sx":1,"sy":1,"depth":406,"w":{"0":-0.05563853591316203,"1":0.04138256327411016,"2":0.035224965008477126,"3":-0.006947614458937034,"4":-0.059777911770281855,"5":-0.09822430714817224,"6":-0.07619449342114669,"7":-0.09750871519130903,"8":-0.07125567835572137,"9":0.06952459594432314,"10":-0.016021743153021805,"11":-0.04572697873748733,"12":-0.04516463772438442,"13":-0.1001103470480348,"14":-0.0676781243839896,"15":0.1011842623766855,"16":0.03152166446874354,"17":-0.022978299816985417,"18":0.004304351493810084,"19":0.08498220841122968,"20":-0.155927784094902,"21":0.009436218376557556,"22":0.14810576345875387,"23":0.022416693524427742,"24":-0.06608012760107423,"25":0.002351858424001628,"26":-0.11363241153741745,"27":0.003400273245196115,"28":0.026650402195103732,"29":-0.04108595357949844,"30":0.07940321545305487,"31":-0.05215456021216757,"32":-0.1449200004910696,"33":-0.0814548845435987,"34":0.06882762355724302,"35":0.019483347565634888,"36":0.09437032181839032,"37":0.14162293805217188,"38":-0.08169808605481123,"39":-0.07465478633429193,"40":-0.012136530259906223,"41":0.02406994588688164,"42":-0.09880250585474953,"43":-0.020957360459335352,"44":0.006906626393857061,"45":0.03449541520949524,"46":-0.08870769776094958,"47":-0.11085875303421967,"48":0.04146455143176758,"49":-0.05372798885016776,"50":-0.04634812195095783,"51":0.01957376239557024,"52":0.050681954906731,"53":-0.019951551855005675,"54":-0.07644677841188958,"55":-0.06006925789065925,"56":-0.025978791384782592,"57":-0.10175654955243954,"58":-0.05531284669152041,"59":-0.05315491682316315,"60":-0.024731438222142382,"61":0.05600713981840227,"62":-0.029852994575770786,"63":-0.09811276294055447,"64":0.08943265599131789,"65":0.07669896991780525,"66":0.02153684524448611,"67":-0.08865027178137112,"68":-0.01407439412936688,"69":0.11551710961371499,"70":-0.08081928612427694,"71":-0.06660688243681696,"72":0.0025227960897484677,"73":-0.0015359481281617396,"74":0.08879902710289153,"75":-0.010135476605149553,"76":-0.07870729729765458,"77":-0.012914063809200708,"78":0.036992377579879304,"79":-0.00826630230312095,"80":-0.016779879507542873,"81":0.04334458520596533,"82":0.025708375852704714,"83":0.10873276702867485,"84":-0.026019132176634,"85":-0.05408487591279806,"86":0.00012582570084368304,"87":0.023810567380973664,"88":0.07244038135948691,"89":-0.05178869762703914,"90":0.07244646686789338,"91":-0.03309173850454686,"92":-0.06019775929344971,"93":-0.013043848844056561,"94":0.039120858591257156,"95":0.002139388250054679,"96":0.06439813336405883,"97":0.05962580436300772,"98":0.09160145163721063,"99":-0.05778485602602376,"100":0.02474321812032793,"101":0.005900147388580102,"102":0.09843641781702121,"103":-0.0548170732699249,"104":-0.06911115867091502,"105":0.022506725084005533,"106":-0.06329359917467255,"107":0.1266316977088229,"108":-0.012127305026234967,"109":0.003128825256949423,"110":0.011299021638898574,"111":-0.045098996037531425,"112":0.0073560401011381815,"113":-0.08501903352014831,"114":-0.029807234041829594,"115":-0.07891682655630837,"116":-0.051382451221822764,"117":0.06505515332858725,"118":-0.003913885693736673,"119":0.03656651441307655,"120":0.036879071843290576,"121":-0.05992577967387627,"122":0.03775137460836925,"123":0.06333028584407455,"124":0.11418750540106463,"125":-0.02794969905155244,"126":0.1536874127580972,"127":-0.030796653359020282,"128":0.069606199089596,"129":0.02728165638820908,"130":0.013108821453783424,"131":0.002826831477006284,"132":-0.04500397763392292,"133":0.13744465739392447,"134":-0.006881199762599077,"135":0.12229937643730122,"136":0.06009954131382616,"137":0.03459756124479521,"138":0.10968487917857982,"139":0.022985554347305006,"140":0.0034241644873037173,"141":0.004551031408594682,"142":0.05438569199323643,"143":-0.014908588474561921,"144":0.016744765168282723,"145":0.022288017783151932,"146":-0.04636725788349643,"147":-0.035638081575700885,"148":-0.002038239967651022,"149":0.07175309587281371,"150":-0.06259717694924379,"151":0.040130852713313056,"152":-0.018932932085869086,"153":-0.01543434170963514,"154":0.06212011012369642,"155":-0.00027315005615509907,"156":-0.027786217187825944,"157":-0.017164207504799904,"158":0.029276746178501428,"159":-0.007812970617796518,"160":0.07207084732084743,"161":0.06189761375520551,"162":-0.006910751641973802,"163":-0.03367630260162696,"164":-0.08624879810479485,"165":-0.04948869734000561,"166":0.042810473896928096,"167":-0.054221436842461994,"168":0.03430322508578711,"169":0.04305303034167426,"170":0.017205231676863622,"171":-0.04604475784920666,"172":0.10909414280544409,"173":-0.1314203829324793,"174":0.050501109541917805,"175":-0.07862347218544237,"176":0.03406749336811138,"177":0.005515639463299949,"178":0.06366736487494075,"179":0.17126295837898692,"180":-0.03640075276802264,"181":0.030569498476463532,"182":-0.0539196440983492,"183":-0.095917430633142,"184":-0.013680953444841187,"185":0.039253583415208924,"186":0.07377432346623833,"187":0.013420403948730312,"188":0.031099203912568114,"189":0.04695195653129867,"190":0.051917218995543184,"191":-0.016589767119947158,"192":-0.043082010644365905,"193":-0.02617232913683952,"194":0.022931388000127152,"195":-0.0868244449453238,"196":0.04103794386115619,"197":0.04746122370270515,"198":-0.08600096324845753,"199":-0.02015748282134229,"200":0.09176082634087708,"201":0.0008133464466849167,"202":0.05556940367526891,"203":-0.0064423339153007195,"204":0.09826636865168548,"205":0.03865342378872277,"206":-0.0780644823086494,"207":0.032568366983228916,"208":-0.06489435181582243,"209":-0.0989974612180479,"210":-0.030323808250457888,"211":0.14167635504903814,"212":0.06431527202997565,"213":-0.060621827751446256,"214":0.0278152616756383,"215":-0.11627602390707804,"216":-0.10039811172619968,"217":-0.02534299572193059,"218":0.04411551788963001,"219":0.026053654639005965,"220":-0.012702577928009792,"221":0.06787314878642886,"222":0.0011638232449970648,"223":-0.11358722256422472,"224":-0.09465608753061554,"225":-0.0013508362982081786,"226":0.08534228768979447,"227":0.04342944444001042,"228":0.07583160962290403,"229":0.027084320499213478,"230":-0.08091646033632019,"231":0.04182521859492051,"232":0.09113472984020107,"233":0.2595614426435809,"234":0.015548189701664956,"235":0.030431318538240267,"236":0.08458629358828323,"237":-0.0203593043537154,"238":-0.07037974208088241,"239":-0.08388687769820227,"240":0.2670336463745857,"241":0.07089281203064739,"242":0.12361101862782273,"243":-0.09243106289467495,"244":0.08011153792326704,"245":-0.027014555771609914,"246":0.011170829773170406,"247":0.20648361278592212,"248":0.051742179628463884,"249":0.020497803128352574,"250":-0.03202969755966614,"251":-0.04570050086897659,"252":0.03506130498823194,"253":-0.04609340674938465,"254":0.24632242295365953,"255":0.03864139718193963,"256":0.14636532966319285,"257":0.0319781773669064,"258":-0.14454383372029922,"259":-0.07735480980142949,"260":0.014722752249505314,"261":0.34848401053113726,"262":0.041237830822440605,"263":-0.09417500782508081,"264":0.09238563328413452,"265":-0.06478057684836655,"266":-0.16324235470931348,"267":0.059824597012159954,"268":0.25491139958145437,"269":-0.020805748264900198,"270":-0.018621818063687488,"271":0.027439748998500917,"272":0.05782412148322338,"273":-0.16895385288759845,"274":0.09034707084753152,"275":0.29096082571733217,"276":-0.0664314388626764,"277":0.06944154949333592,"278":0.005398348042976374,"279":0.001641737450730383,"280":0.0010502287057338963,"281":0.026184503904350103,"282":0.23227615722553213,"283":0.03506257783383968,"284":-0.0009602235284658283,"285":-0.08619886483898669,"286":0.011375752957680466,"287":-0.07972226433357106,"288":0.014911734257560032,"289":0.3142029237841088,"290":0.050880823507545685,"291":0.01923807616482856,"292":0.043061180749606125,"293":0.06260742262568446,"294":-0.03612407485410861,"295":0.0735644644385619,"296":0.31888668588687596,"297":0.06392260630535161,"298":-0.025196473128262203,"299":0.03715973869653809,"300":-0.06474309606579223,"301":0.0031602240004268843,"302":0.002600654603763039,"303":0.1781443696696506,"304":0.22884191814138385,"305":0.05373954151269136,"306":0.026284967149886047,"307":0.019133652476613958,"308":0.02537063097040035,"309":0.011844839240848734,"310":0.1537594944198557,"311":0.22831597225289577,"312":-0.07406026633529868,"313":-0.01915438046835942,"314":-0.108338276755656,"315":0.006708581816635288,"316":0.10387699318475402,"317":0.19910831304718138,"318":0.3034180256462155,"319":0.0049369755596394135,"320":-0.08449464308214989,"321":-0.02300172699187209,"322":-0.0500315170334422,"323":0.03248146955239584,"324":0.03376410027094678,"325":0.3273419701858998,"326":0.0625402518940107,"327":-0.05541421145350118,"328":-0.0533995510131633,"329":0.034511260096288625,"330":-0.020778633526268072,"331":0.16926909556205397,"332":-0.17977279766879847,"333":-0.017338203064778422,"334":0.0401441986410582,"335":0.00339691075178648,"336":0.07857430086656142,"337":-0.0066540256590933945,"338":0.1308294565555604,"339":-0.2493309103827141,"340":0.013984593295799154,"341":-0.10646371297690845,"342":0.056737820451012964,"343":0.01595052848916008,"344":-0.16639224817188708,"345":-0.08299172657093741,"346":-0.43103177054355235,"347":0.014606986435891268,"348":0.02016594264286741,"349":0.03855109717366849,"350":-0.0934670337053463,"351":-0.003434609327540447,"352":-0.08245344545265627,"353":0.15033054075606458,"354":0.03721526230233903,"355":0.034125820869905225,"356":-0.03689481777267404,"357":0.020100217850667283,"358":-0.08545436418012653,"359":0.05870846292456835,"360":0.17206715308656462,"361":0.000744025661732895,"362":-0.03566869369826914,"363":-0.02568180036670617,"364":0.05730879604115135,"365":-0.005464278484184118,"366":-0.05090666819132681,"367":0.20473575672311042,"368":-0.04675957417794002,"369":0.0022202430694782255,"370":0.06312447685015407,"371":0.02007653921489218,"372":-0.09993419048189875,"373":0.12218787988271096,"374":0.16203040447140069,"375":-0.05366497248753746,"376":-0.05753959053313295,"377":-0.08358553673204608,"378":-0.09441530624957647,"379":0.016929454320691702,"380":-0.10521921019129131,"381":-0.7206214717109881,"382":0.005459463718957873,"383":0.03570817773808629,"384":0.04241242625833696,"385":0.11613031906174522,"386":0.09407586551530163,"387":-0.013871584921041156,"388":-0.43058143442055086,"389":0.042048103390076294,"390":-0.08489275567599351,"391":-0.14841634811517218,"392":0.050686115965068966,"393":0.03849392465488318,"394":-0.018923566974419204,"395":-0.0008500938306304956,"396":-0.0025806278815848644,"397":0.07304142037219467,"398":-0.030071616543073696,"399":-0.0017471749494748496,"400":0.013320511242946963,"401":-0.0746761633380162,"402":-0.1327383699198568,"403":0.01964753951965405,"404":-0.04147065093889697,"405":0.026073476154319118}},{"sx":1,"sy":1,"depth":406,"w":{"0":-0.021790671723181623,"1":-0.01364299560470556,"2":0.05823165820856897,"3":-0.056125276839017184,"4":0.0347694073614626,"5":0.11441561387609953,"6":0.10267054185173245,"7":-0.032959386572911094,"8":-0.1124997677079826,"9":0.04777286900835903,"10":-0.00421631560276809,"11":0.010043257092325201,"12":0.00814528400309591,"13":-0.015450432340564655,"14":-0.08644197803554791,"15":-0.09560371700528009,"16":-0.02061115142634201,"17":0.04312437462988775,"18":-0.02566321761837393,"19":-0.006844355617677649,"20":-0.04032639029660357,"21":0.00035252071257835607,"22":-0.04945700016701126,"23":-0.05116873808459517,"24":0.08661621918273558,"25":0.05414701506039735,"26":-0.17695631101469525,"27":-0.22455210976608397,"28":-0.026747225825781387,"29":0.02741365198626253,"30":0.020834849004783794,"31":-0.03349660660949888,"32":0.02770413630952762,"33":-0.1567564823419868,"34":-0.045909948499299094,"35":-0.03260042028034892,"36":-0.13651677318990468,"37":-0.008453331411765522,"38":-0.044765191540527376,"39":0.0421271794738154,"40":0.00965032136052059,"41":-0.01215657878555254,"42":-0.041532680057087656,"43":0.00326700634100608,"44":-0.10683500815239312,"45":-0.09608414057239514,"46":-0.05200292583846791,"47":0.03964540125028748,"48":-0.03738697282870758,"49":-0.03378830560006434,"50":-0.02726427210915386,"51":-0.10410724335775981,"52":0.0671573511875185,"53":-0.015113255485776373,"54":-0.0025285789443467593,"55":-0.010593725174243066,"56":-0.030920917065277328,"57":0.029261780469417995,"58":-0.053828713121322966,"59":0.12423638465168448,"60":-0.0034333930260182144,"61":-0.08460865433789745,"62":0.012674203356459008,"63":-0.004294117460382067,"64":-0.01924694415608517,"65":-0.06286867486401101,"66":-0.03896187730088677,"67":-0.00836424351240589,"68":-0.03865219269169201,"69":-0.029207436646438798,"70":-0.09275835023614955,"71":-0.06549936372637866,"72":-0.017096878657982994,"73":-0.08893552582417988,"74":-0.04597433138371264,"75":0.004010450029111885,"76":0.0010619525680101403,"77":-0.10980042478834952,"78":-0.0074789403473851926,"79":-0.07512631825216835,"80":0.016378513051227023,"81":-0.024487774318584267,"82":0.05973431825244141,"83":0.07977430388889668,"84":-0.08416279257686382,"85":-0.0617883271351827,"86":0.043437798398856885,"87":0.014021760956760892,"88":-0.13718449052329337,"89":0.07156477419737416,"90":0.03536153494448581,"91":-0.028523703687561283,"92":-0.01901965126394854,"93":-0.06043678638437413,"94":-0.06049492096677646,"95":0.003348418997336014,"96":0.07483798562291259,"97":-0.010944085580305084,"98":0.04823306147781681,"99":-0.009155084567246504,"100":-0.02066268288550427,"101":0.15944648508443243,"102":-0.04269524280301597,"103":0.10234859523697706,"104":0.034441626064725936,"105":0.14280244575266454,"106":0.03716415056764637,"107":-0.03006137051393842,"108":0.022973493221238973,"109":0.008365889217584134,"110":0.003275218402847909,"111":0.0631700077010051,"112":-0.02153421880824973,"113":-0.03791241680013624,"114":-0.040926893674225646,"115":0.07357463239722524,"116":0.01450112013246762,"117":-0.0015745795846659734,"118":-0.03170202729213736,"119":0.05043974109700606,"120":0.14391407770650377,"121":0.09413301323225394,"122":0.03825684986146435,"123":-0.08360849328062199,"124":-0.08097665405503278,"125":0.09214005166151085,"126":-0.019264147357979863,"127":-0.017680093070354255,"128":0.003685742450713126,"129":0.01479079426470547,"130":-0.11954594282450758,"131":-0.021075042933419892,"132":0.06711485012092527,"133":-0.043431917107077216,"134":0.01098191139964662,"135":-0.027562702894241883,"136":-0.052580483408867264,"137":-0.07542532884140779,"138":0.05514534850461605,"139":0.04685134637001012,"140":0.047411378928789785,"141":0.12415234171999658,"142":-0.09678090353227024,"143":-0.05021893399406541,"144":-0.10347112360933583,"145":-0.0005828231908263326,"146":0.043665379446050485,"147":0.06355924242647502,"148":0.019641022168114367,"149":0.05738886181124898,"150":-0.000584978542342786,"151":-0.06004342206649761,"152":0.05988237709382111,"153":-0.05197252244503854,"154":0.00971943302489141,"155":-0.04371374302217153,"156":-0.0010892127383137437,"157":-0.07663572310466604,"158":-0.001555589367268789,"159":-0.12816399290918537,"160":0.07608511762720656,"161":-0.03650685906066482,"162":-0.01799658080468525,"163":-0.10411289278135118,"164":-0.07121019464316031,"165":-0.06502459549951814,"166":-0.02329542391236331,"167":0.08300915040291469,"168":0.04131742764292189,"169":0.04794863279323877,"170":-0.08764264527028014,"171":-0.006214879158857649,"172":-0.036670018921572345,"173":0.03508653352160376,"174":0.010497667412987719,"175":0.030155251611762968,"176":0.023297844687918824,"177":-0.07912481117129627,"178":0.1012684997315852,"179":-0.08087874821344385,"180":-0.07718944626500647,"181":0.06754228287884025,"182":0.04418634513929008,"183":0.03144566357846977,"184":0.016953405002989988,"185":0.1052810548234219,"186":-0.005542029158817573,"187":-0.0081764737074093,"188":-0.02004564127578679,"189":0.08699468272973418,"190":0.03328710722348385,"191":-0.07727011165046807,"192":0.12161853292666357,"193":0.06983557721548567,"194":0.01359699978829286,"195":-0.04914780306630706,"196":0.02638204713018506,"197":0.011095874815862737,"198":-0.01709987937207482,"199":0.14164913641143131,"200":-0.06273490052811512,"201":0.047471960376339155,"202":-0.046033085707048955,"203":0.007104131475245281,"204":0.017181199899852506,"205":-0.12851289456737344,"206":0.015487190864260541,"207":-0.10476132720521501,"208":-0.026989855058635895,"209":0.02461575673330838,"210":0.030815022788086874,"211":-0.018400370184810604,"212":-0.0332758941801426,"213":0.11766956962739752,"214":-0.209518904999118,"215":0.0498616694454707,"216":-0.11843811898513393,"217":-0.00933708269970981,"218":0.008139275118843032,"219":0.09010838287144507,"220":0.06446338328399101,"221":-0.10636755902183379,"222":-0.11152414248656561,"223":-0.07706060926796258,"224":0.023422901758363788,"225":-0.023069049878470076,"226":0.06687232693869608,"227":0.14971966262704398,"228":-0.07625873443893394,"229":0.11459518182163521,"230":-0.1428338073728232,"231":-0.060561245346459014,"232":-0.04046279507026554,"233":-0.04167102321705546,"234":0.1291973869160058,"235":-0.12244522250548298,"236":0.03697775668775524,"237":0.05123157045328057,"238":0.010423497991865264,"239":-0.1458932176234518,"240":0.02503848889655633,"241":0.12444828747162005,"242":-0.029854337542927354,"243":0.032609397564119,"244":-0.018639454994319533,"245":0.0176569154869685,"246":-0.015008049417345064,"247":-0.05971753395130884,"248":0.22135866084548694,"249":-0.009596614974273679,"250":0.023187144670721024,"251":-0.08750136167028348,"252":0.09099330367367804,"253":0.06848461302708543,"254":0.045339194794031534,"255":0.27543232635529685,"256":0.022214462398562212,"257":-0.07951498062125843,"258":0.06563850120914683,"259":-0.03211381088995915,"260":0.07220945019388891,"261":0.06677405789527277,"262":0.30851985589487635,"263":0.1584357265862676,"264":0.01893016433243965,"265":-0.03292111484925104,"266":0.11247989552936727,"267":0.09936172288079864,"268":0.1464254266603994,"269":0.3029554433567631,"270":0.1142265455471661,"271":0.0165668441961431,"272":-0.09017242032157442,"273":0.004216323823729467,"274":0.08471676610428651,"275":-0.18806923097474673,"276":0.2904293569659678,"277":-0.03403238256424618,"278":0.007184064396830087,"279":0.07198192360971571,"280":-0.004327829409041863,"281":0.13553395855924574,"282":-0.00008872200082464837,"283":0.25935855571546423,"284":-0.09962612686475707,"285":0.023904088350835174,"286":0.04804782590840518,"287":0.04787544804152777,"288":0.008530497372163534,"289":0.0093167908688231,"290":0.2742381489735693,"291":0.11381297761845398,"292":0.02750420033748869,"293":0.07216160568758194,"294":0.07259496584445803,"295":0.047314991113351273,"296":0.12489058171426781,"297":0.1895862360025138,"298":0.2603468607316641,"299":-0.025376006194023745,"300":-0.06665645484000135,"301":0.014086062567088765,"302":0.037207853440836575,"303":-0.14550241266555358,"304":0.2824436830597343,"305":0.003529165207931321,"306":0.012060220077785733,"307":-0.011276185993465896,"308":0.05740948443305912,"309":0.0007208282814471379,"310":-0.23597794814911682,"311":-0.07997387766615932,"312":0.16391765597263866,"313":0.015180112068114234,"314":0.15393737026341556,"315":-0.005452690565280191,"316":-0.07239877014517632,"317":-0.145037499348467,"318":0.06997522427404165,"319":0.23556903166009835,"320":-0.04145354760515805,"321":0.07671808249349094,"322":0.07203853058299448,"323":0.029466906714457924,"324":-0.2100892463035638,"325":0.2388574771352378,"326":0.09860430933974877,"327":0.09949211993785088,"328":0.07314619995229903,"329":-0.08460581755484804,"330":-0.006508605697779807,"331":0.08985548096371766,"332":-0.33967614377965366,"333":0.36909373151544406,"334":0.002192775062008521,"335":-0.0434472686962235,"336":0.029682904290632424,"337":-0.0931001407748308,"338":-0.024986633861886508,"339":0.10642445484705923,"340":0.37551649269954224,"341":-0.13818022406816702,"342":-0.07012670680946596,"343":0.09255398100796933,"344":-0.08386412820230967,"345":-0.24814843897746605,"346":-0.20234735449263924,"347":0.30925219687417677,"348":0.026531388208472017,"349":0.006987086962166538,"350":-0.026614269639933616,"351":0.06442380987273236,"352":-0.10260134657943898,"353":0.10631890483968842,"354":0.09135730923987896,"355":0.032582563018516274,"356":0.023975056699020034,"357":-0.06465577353262483,"358":0.004168372267852023,"359":0.03871254413768907,"360":0.10933732759647385,"361":0.1987153981254302,"362":0.11761794751442126,"363":0.12274910265510713,"364":-0.04294083224456168,"365":-0.022235015787137803,"366":0.007425665136825131,"367":0.042251950842627436,"368":0.28498310180472763,"369":-0.04436297662667329,"370":0.007782743487843167,"371":0.04798229819662902,"372":-0.0421322582687305,"373":0.024035303122740832,"374":0.20376121189845983,"375":0.4703528017107816,"376":-0.009383427367167737,"377":-0.0740389845722357,"378":0.049398636207645806,"379":-0.008482539186833912,"380":-0.08158649360186492,"381":-0.37343255551160154,"382":0.07578810220321636,"383":-0.10041412907690378,"384":0.025770103556077496,"385":-0.02966636463734865,"386":-0.001532595949095187,"387":-0.0403585330831382,"388":-0.103544809978532,"389":0.12133300658936377,"390":-0.06933072845975255,"391":0.02957794473265125,"392":-0.019166643712890757,"393":0.05652093375454935,"394":0.08076417386358226,"395":0.03281139259812249,"396":0.057322728974797635,"397":0.03132961049499773,"398":0.10529104081152492,"399":-0.12688234711827273,"400":-0.1454527532307303,"401":0.07239089357135121,"402":-0.03391680902334831,"403":0.01672265478946608,"404":-0.07576540492690856,"405":0.05286151807182744}},{"sx":1,"sy":1,"depth":406,"w":{"0":0.012848357864985154,"1":-0.032855228123084335,"2":-0.11848848964005733,"3":-0.043201354454684995,"4":0.0028525293689451786,"5":0.04618645544252424,"6":-0.016241134964347554,"7":-0.02897901943485674,"8":0.050770283181513755,"9":-0.05157091721485271,"10":0.012606003602461639,"11":-0.026991041537164046,"12":-0.04556405470336156,"13":-0.015111496694296588,"14":0.04274895775585718,"15":-0.022587423890408975,"16":0.03394857391728849,"17":0.016569481332125022,"18":-0.009465129813939979,"19":-0.15706146392774736,"20":0.033572705097971424,"21":0.004844743439999433,"22":0.06220377495779085,"23":0.09404528032461079,"24":-0.08848775512295867,"25":-0.03288411225708833,"26":-0.08984521154218644,"27":-0.07463518861311941,"28":0.023395502356392456,"29":0.07107171234862933,"30":-0.018520301580557907,"31":-0.051240643004905516,"32":-0.0035318183087932214,"33":0.08651782969339086,"34":-0.07146693992709086,"35":-0.013492949071448816,"36":-0.004828962388699262,"37":-0.02247990227439546,"38":-0.06300855722701984,"39":0.018936202972421934,"40":0.0091179463432008,"41":-0.1110148474347646,"42":0.056809605899948885,"43":-0.014585919799544808,"44":-0.036905436878407284,"45":-0.061612793369489896,"46":0.01016227380330564,"47":-0.07586180178894911,"48":-0.012398629426230944,"49":0.06791288129027666,"50":0.038336900087695865,"51":-0.0649052769785899,"52":0.00037834599968662,"53":0.02710137653985516,"54":-0.12228342527725442,"55":-0.02515768575056757,"56":-0.08719558169737009,"57":-0.0028210622562581398,"58":0.015786572857342165,"59":0.03375522477906668,"60":0.0111651755258842,"61":-0.05097277997901737,"62":-0.03928965427994593,"63":0.06823698085740271,"64":0.14760674613507108,"65":-0.11100348439094745,"66":-0.03312706493013603,"67":-0.002968539937178429,"68":-0.07399502820116073,"69":-0.006110207687984156,"70":-0.028152838524344463,"71":0.040355077954048094,"72":0.013820349556437456,"73":-0.1263159294491787,"74":-0.015909818524489614,"75":-0.09438620990146021,"76":-0.005847285316737661,"77":-0.02861846570055015,"78":-0.031679123905462535,"79":-0.03215236691468216,"80":0.005144186522596504,"81":-0.013410406104273416,"82":-0.05365860437843762,"83":0.05148437110517786,"84":-0.06973504069818727,"85":0.15747451405336307,"86":-0.07755507375582861,"87":-0.03171215172842133,"88":0.09391981388959951,"89":0.039283826026734046,"90":0.07963217404798062,"91":-0.04202219236318381,"92":-0.07114524587209659,"93":0.02348684134248865,"94":0.06496694213312026,"95":0.0002916415445340679,"96":0.04386527802066436,"97":0.009905209537165408,"98":-0.03993898311842914,"99":0.03738491478810759,"100":0.012276486279578797,"101":0.047014685837527125,"102":0.01897242005330393,"103":0.06245063818534103,"104":-0.005783704177085265,"105":0.014299405808511712,"106":0.055296770946850565,"107":0.04569763951231438,"108":0.01749230390353204,"109":-0.055398959429399854,"110":-0.06775633503398394,"111":-0.050323823277761366,"112":0.0010844347100893686,"113":0.03930635975705447,"114":0.05507982417267111,"115":0.11783932985121928,"116":0.017300672579932674,"117":0.054640130681508345,"118":0.007095412410353342,"119":0.014154660105583321,"120":-0.1051514657074077,"121":-0.025488984249673267,"122":0.020152664097912974,"123":0.010102832367095171,"124":0.03355379205263039,"125":0.02480415274143504,"126":-0.08583325164063955,"127":-0.02167503762197381,"128":0.16195580216678654,"129":-0.00042966755254059103,"130":0.09869803641250478,"131":-0.023769618821602768,"132":0.05839776203746526,"133":-0.025753105559889595,"134":0.012954145129593144,"135":-0.06358312558574204,"136":0.07068093152966635,"137":-0.10530456366066825,"138":0.05398538094082284,"139":0.15898779576295552,"140":-0.005639697143613906,"141":0.11656026776054709,"142":0.019080519103197954,"143":-0.06396150398885427,"144":-0.03029882127789437,"145":0.08961329827150863,"146":-0.046400002227674736,"147":-0.051255054777156875,"148":0.05910642997053486,"149":0.01890192988411352,"150":-0.0527331890042947,"151":0.051207968026393255,"152":-0.03567011486804667,"153":0.04831781941974036,"154":0.0656497895770067,"155":-0.06983053888530757,"156":-0.050803730377064274,"157":-0.02667576563871623,"158":0.007909889377747966,"159":0.02099780449938721,"160":0.08789365479482415,"161":-0.06771676187922412,"162":-0.07091738681661812,"163":0.047517044805314476,"164":-0.08545779945147473,"165":-0.0003851260575248659,"166":0.0918337717320374,"167":-0.012193462706437432,"168":-0.010121504486058079,"169":-0.025234339565019182,"170":0.05549500091909863,"171":-0.04655167564898514,"172":0.04435296126459209,"173":0.1422487649659813,"174":0.18096721977509042,"175":0.0004135406217650218,"176":0.07969737764387484,"177":0.009685121630021686,"178":-0.15831643381086366,"179":0.008296661713767344,"180":0.017823546069377662,"181":0.015649000059494104,"182":0.042274328641770116,"183":0.04526767750102877,"184":0.07056035593426077,"185":-0.13182970189861243,"186":-0.011839315329715527,"187":0.08385371800123455,"188":-0.024581350860102286,"189":0.0077280836994504006,"190":0.05080707568471354,"191":0.07822818732123392,"192":-0.06199565239942163,"193":0.11461618724238926,"194":-0.01432897098287829,"195":0.02807453972669112,"196":0.0182425360913449,"197":0.013250064686715073,"198":-0.0014679859537498254,"199":-0.1325374236341069,"200":0.07984663340180231,"201":0.12688360782372904,"202":-0.006254882625975074,"203":-0.02289664429981272,"204":0.008460351308059859,"205":0.06390054200162033,"206":-0.15284068992859567,"207":0.13957347146559457,"208":0.06894270640550794,"209":0.13380909476066916,"210":0.0649550486673906,"211":0.10930879068647134,"212":0.05758205485491092,"213":-0.02245661662868101,"214":-0.004812737500787798,"215":0.13840614715438387,"216":-0.04159848366639551,"217":0.19690061323020955,"218":0.09815085559557724,"219":-0.07916927466049405,"220":-0.10344495171774643,"221":0.04729491520808784,"222":0.11405386046980584,"223":0.03568286195344537,"224":0.021830062376913453,"225":0.08406322546644852,"226":-0.06938713151555895,"227":-0.06479498789581882,"228":0.0008505811313999205,"229":0.0391162427048473,"230":0.07595812730483185,"231":0.04674891441875893,"232":-0.01636398853225023,"233":-0.05462922484153794,"234":-0.02042611840377869,"235":0.008451938484421748,"236":0.03450440669172658,"237":-0.06964541901736826,"238":0.14330294671140792,"239":0.00938403678095261,"240":-0.10007287056104254,"241":-0.052485179524311434,"242":0.20398584858140964,"243":0.03458668843064118,"244":0.002339575897680226,"245":-0.1110135360633014,"246":0.14456127469338975,"247":0.057141731308796476,"248":-0.016984465503359122,"249":0.18889748323728278,"250":0.03641836693935699,"251":0.004314413477834294,"252":0.06075367789373776,"253":0.06431548740946373,"254":-0.05282732166200435,"255":-0.06408216337545389,"256":0.10110705751961131,"257":0.01845927170536307,"258":-0.015982149840207543,"259":0.04120569769164326,"260":0.03837890929843155,"261":-0.025190515422636995,"262":-0.16502173878415213,"263":0.06934819133019736,"264":-0.015844483356743527,"265":0.08652422635350084,"266":0.007113854664378584,"267":-0.003526129236251471,"268":0.04936680674940552,"269":-0.22172433398621003,"270":0.02961887811322981,"271":0.07779539515791652,"272":0.039900820615246003,"273":-0.025836326509633113,"274":-0.11154423250821974,"275":-0.021398295408759316,"276":-0.19979798836840762,"277":0.08891245480966854,"278":0.05394796009436493,"279":-0.022069459538329627,"280":-0.012722968746100106,"281":0.008000584002752036,"282":-0.09234389947576367,"283":-0.17918791282655905,"284":0.12199778413779971,"285":0.02375745608074512,"286":-0.03973009039181263,"287":-0.07348771283233826,"288":-0.1058666964108289,"289":0.030840686191340665,"290":-0.19272774699919057,"291":0.16501633234398683,"292":-0.023703937025324202,"293":0.07226509003289593,"294":0.004502806303093787,"295":-0.03513534613268349,"296":-0.11717849732202097,"297":-0.2599169927661967,"298":0.016412171784867036,"299":0.12406570639834105,"300":0.020552469692438662,"301":0.12151991668391546,"302":0.023135135479171176,"303":0.08074773465724681,"304":-0.04063544465566488,"305":-0.01634493021276556,"306":-0.008505226064350018,"307":-0.011048571755890798,"308":0.04595749743058444,"309":-0.09573611483357589,"310":0.00794380257155671,"311":0.10087600834079914,"312":0.10143625968932586,"313":0.005779769623513818,"314":-0.18217850488877232,"315":-0.04870515940400044,"316":-0.0021537192699169175,"317":-0.002240095311617014,"318":-0.08700428681189665,"319":-0.027720980002733774,"320":0.02663772731282211,"321":-0.11539191014465632,"322":-0.03337811219476909,"323":-0.004160082997968046,"324":-0.0005315866125953714,"325":-0.12801621178607528,"326":-0.006149697401283629,"327":-0.05740395224159708,"328":-0.17860207325336516,"329":-0.0475469461330609,"330":0.06991783176982692,"331":0.011020977957037529,"332":-0.17295162417011062,"333":0.006479182420767608,"334":-0.10645366413004614,"335":-0.057917454719073364,"336":0.1137685100361126,"337":0.10932321231243348,"338":0.12690394706093883,"339":-0.18080207071196394,"340":0.09102069721567331,"341":-0.07496070926251903,"342":0.03357709179043209,"343":-0.06279025887973184,"344":0.11549040335734292,"345":0.22305630295988135,"346":0.021644532986836346,"347":0.21141153142627306,"348":-0.04596488153779756,"349":-0.11068511815005096,"350":0.055089723474507454,"351":0.005680757452627878,"352":0.35103223741861317,"353":-0.02808488471235641,"354":0.09021011346921408,"355":0.0009973561792367613,"356":-0.04147761444719986,"357":0.007967537052605587,"358":-0.036888701283952365,"359":0.13634402232591927,"360":-0.14704676841678319,"361":0.06236133415097065,"362":0.048032850672848966,"363":-0.1054066943773335,"364":-0.0225422319692849,"365":0.06343931926075315,"366":0.2839347534696186,"367":-0.19761724355886282,"368":0.0746666405942156,"369":-0.0075357953697200815,"370":0.008181657563632115,"371":0.0037694035362176473,"372":0.10827812052633858,"373":0.3185111047009198,"374":-0.11904195865704993,"375":0.1712095220272298,"376":-0.04623617948738138,"377":0.018745855108420754,"378":-0.011426314603273346,"379":-0.0004239601058341839,"380":0.13118462289012156,"381":0.2004181436837195,"382":-0.034176878613684625,"383":-0.019822142400034604,"384":0.011319249920799572,"385":-0.09728982406028885,"386":0.08553722777932077,"387":0.14933668241272824,"388":-0.004119908525629542,"389":0.17234762410184606,"390":-0.04811636687382392,"391":0.055774328219710616,"392":0.013691642050672944,"393":0.01099887519096098,"394":0.09792411246581954,"395":0.11257740320007423,"396":0.06832062031471417,"397":-0.0923895377172723,"398":0.0023035493525386443,"399":-0.0040907665158358905,"400":-0.010301026609186213,"401":-0.010379845622469467,"402":-0.2715578335547788,"403":-0.10688296874437879,"404":-0.18099425638722064,"405":0.051879480005019095}},{"sx":1,"sy":1,"depth":406,"w":{"0":0.020789183910150964,"1":0.056342436650756784,"2":0.06041866691497566,"3":0.04255276164139077,"4":0.12375252613920845,"5":0.10487393182639687,"6":-0.046445455842577615,"7":0.05921016492403831,"8":0.04137483148880396,"9":0.09893447132855962,"10":-0.011809655964626218,"11":-0.032011049372211026,"12":-0.020279745822251734,"13":-0.019089118206535756,"14":0.02939116951942073,"15":0.06373725088726477,"16":0.02634279863740119,"17":0.018049746984280867,"18":-0.019328697823324713,"19":0.07407559811888315,"20":-0.06911816473334947,"21":0.008198214189916179,"22":0.05962857862844906,"23":-0.06846485369708434,"24":0.012290257748635595,"25":0.07033513490020547,"26":0.04014315394954005,"27":0.02606891914047911,"28":-0.04091740146931358,"29":0.12574092152912347,"30":-0.10121476882729337,"31":0.06512770825511412,"32":0.06840550752920317,"33":0.16495452452840945,"34":0.0595008283547993,"35":0.022723860290292143,"36":0.08237288683539491,"37":0.019082170751903414,"38":0.05654398415915739,"39":0.10530609451144692,"40":0.04353513737227269,"41":0.14054293089550662,"42":0.024820794535859687,"43":0.02196442382944259,"44":-0.013014382476170322,"45":0.0932770370408361,"46":-0.028132968505739715,"47":0.07277897618629336,"48":0.049418304920028785,"49":0.028910323416176924,"50":0.07772052675967965,"51":0.03040668397155691,"52":0.030266445486259282,"53":-0.0675338374143417,"54":-0.04973388208610145,"55":0.03718940892304049,"56":0.057937587599248365,"57":0.06436451499651756,"58":0.07235612124534861,"59":-0.012025488568097268,"60":0.0565541252845894,"61":0.058641680306080544,"62":0.01649596180403221,"63":-0.011855245968675597,"64":-0.013894630507608162,"65":-0.038629070254443704,"66":0.02278478792357638,"67":0.013274034276317853,"68":0.027289422880262544,"69":0.04588139545512007,"70":-0.06787747434198933,"71":-0.008051020102097378,"72":-0.048942950552811545,"73":-0.04227216657668433,"74":0.025181388952986942,"75":0.08317472473489212,"76":0.04502021770530624,"77":-0.017831024064883398,"78":0.04487359624338511,"79":-0.018547997364222475,"80":-0.03538501503774784,"81":-0.016596883537558886,"82":0.025300989172964233,"83":-0.06819492469179494,"84":0.014324483797562284,"85":0.007733193937687465,"86":0.04833963424971046,"87":0.015082661381515155,"88":0.05044763812660139,"89":-0.028477200295094537,"90":-0.0441659795191621,"91":0.05181881901658621,"92":-0.03215321846894627,"93":-0.09316497387780091,"94":0.022438091889824503,"95":-0.0915180732567393,"96":0.0013878478898667341,"97":-0.06414997375737433,"98":-0.020695147789483184,"99":0.006020125308104998,"100":0.015196822108433485,"101":-0.13391048221835586,"102":-0.09499618822290601,"103":-0.016667429113103698,"104":-0.031237543026571488,"105":0.0439657222197771,"106":0.017066353673049532,"107":-0.0424760032951874,"108":-0.06507850751489788,"109":-0.051903729567157914,"110":-0.004184725468829591,"111":-0.00473814418575333,"112":0.003859923388569274,"113":0.030457923452356962,"114":0.042194066460477436,"115":0.013076760728329322,"116":0.058105527795918065,"117":-0.03962119294417518,"118":0.03813411773407493,"119":0.03543348808140746,"120":-0.07288326262206078,"121":-0.09642613299776578,"122":0.020522777495619184,"123":-0.05882432300907332,"124":-0.008889534124107428,"125":-0.014262505694375056,"126":0.003045809487703648,"127":-0.010395733495351589,"128":-0.08992390661902452,"129":-0.07321568668771895,"130":-0.02202763271581079,"131":-0.021502963282222613,"132":-0.04519684468134165,"133":-0.015105386679989017,"134":-0.07640411010662015,"135":-0.050291170659343284,"136":-0.027687430199330506,"137":-0.08416082756662778,"138":0.04446736460061823,"139":0.02943750140949427,"140":0.10230873494702392,"141":0.025919737456457377,"142":-0.13655772788881734,"143":0.010444472497035374,"144":-0.043507906082497265,"145":0.06490316694149575,"146":0.014561005130922676,"147":0.05316599563137301,"148":-0.05943291067465667,"149":-0.04716835896696222,"150":-0.12798617636655468,"151":-0.018027813519324386,"152":-0.03430567306372428,"153":0.154498851114278,"154":0.161347359299317,"155":-0.05650472720808637,"156":0.009480249673899321,"157":-0.0929219690251338,"158":0.013561610063453189,"159":-0.03372797127980385,"160":0.057462022491578335,"161":-0.017629425867684234,"162":-0.10428322472113953,"163":-0.2322066912924182,"164":-0.05406075770188052,"165":0.03484190317154716,"166":-0.03364105883963548,"167":-0.021747411523440553,"168":-0.017852929613759498,"169":-0.1211352357265825,"170":0.00009002538859602849,"171":-0.14446417665214908,"172":-0.05038016910251097,"173":-0.07069432833273886,"174":-0.004969703423572633,"175":-0.09131993513930745,"176":0.024644813859586313,"177":-0.12796639042297095,"178":-0.12695197839075165,"179":0.0518479452714619,"180":0.009011006123680318,"181":0.04127976656018586,"182":-0.01748815746634221,"183":-0.14676390370314327,"184":-0.14544371200343392,"185":-0.045150283577303905,"186":0.00012203033617733572,"187":-0.01956071988950206,"188":-0.0009204433305359458,"189":-0.014972595600436005,"190":-0.06772862866753011,"191":-0.09586057415228606,"192":-0.07244159751994261,"193":-0.012586172991761766,"194":-0.058245666284400435,"195":-0.03632263936729516,"196":-0.04831427338468672,"197":-0.013285170315706222,"198":-0.13112672590400384,"199":-0.12679842994009208,"200":0.06161085786674736,"201":-0.04969056112016937,"202":-0.052003235379391825,"203":-0.029317628910675308,"204":0.05453236735155325,"205":-0.20797867175560045,"206":-0.0872596844563622,"207":0.038415874140382965,"208":-0.05027206516835268,"209":-0.051930520346429525,"210":0.02442520515907074,"211":0.03450700883039136,"212":-0.24072111684114852,"213":0.014428325165537291,"214":0.04622405254200436,"215":-0.07176855690384769,"216":-0.09066042294805116,"217":0.014237313524333033,"218":0.0518719530001501,"219":-0.053682082848612984,"220":-0.14387723144760006,"221":-0.07531834005271207,"222":0.005903450857565131,"223":-0.06993480239427718,"224":0.026749381316437525,"225":-0.06119406507292409,"226":-0.2079576906484496,"227":-0.12707893481062604,"228":0.14848108321803255,"229":-0.0605776027185463,"230":-0.0636723273460605,"231":-0.029729554323765103,"232":-0.03355282135482129,"233":-0.037614903034855186,"234":-0.05877166630198222,"235":0.0065861600379589795,"236":-0.034876331803257214,"237":-0.12544836675736987,"238":0.0011167632162543545,"239":0.09673701636911687,"240":-0.2218830509337197,"241":-0.09098847690271454,"242":-0.04484218581479446,"243":0.058090683819551674,"244":0.033376458343492336,"245":-0.07744098645101267,"246":-0.06334816125671461,"247":-0.10988330689790198,"248":-0.005464270771933661,"249":0.006879242003649156,"250":-0.025429325374769815,"251":-0.04271696400662508,"252":-0.05539427355149998,"253":-0.08269852024899048,"254":-0.173404699227396,"255":-0.05473716177315784,"256":0.08147770717211851,"257":-0.04123576832297604,"258":-0.006023562899293752,"259":-0.002979448523912724,"260":-0.03547857220227607,"261":-0.14728054869421545,"262":-0.17870123404930183,"263":-0.12438603271205524,"264":0.02571342143349909,"265":-0.034949055477855005,"266":-0.03163119089248313,"267":0.023812130423918706,"268":-0.28928733080264457,"269":-0.20942032499170565,"270":-0.18463348543984634,"271":0.057679223628707324,"272":0.008480230996321251,"273":-0.029656433233568164,"274":0.054660180230669334,"275":-0.07316821768333591,"276":-0.10501638333004766,"277":-0.018221697802330405,"278":-0.0849877061297615,"279":0.02895597014157159,"280":-0.05633392561265525,"281":0.046275483314198486,"282":-0.03670643165031747,"283":0.05958519463933816,"284":0.12382753920614163,"285":0.007491930217385818,"286":0.009951484703032485,"287":0.029022926274947503,"288":-0.03933762790023817,"289":-0.14939568955275134,"290":0.023572070357216326,"291":-0.09870259043575164,"292":-0.04608936782251197,"293":0.030687199049818828,"294":-0.05790880391186877,"295":0.05797995626273275,"296":-0.16747048058707906,"297":-0.011873226356745965,"298":-0.23309390741132235,"299":-0.14916303846873227,"300":0.060912283796808644,"301":0.10040609336517502,"302":0.11547922008197674,"303":-0.005640382806059195,"304":0.092378791931686,"305":0.03834389491200377,"306":-0.004781363212877303,"307":0.020778785547612262,"308":-0.022498120166654464,"309":0.07854860626423028,"310":-0.03235919720870166,"311":0.0489685496202654,"312":-0.10894024666533392,"313":0.015614658327906131,"314":-0.0496407177648631,"315":-0.020764814269003153,"316":0.014867496994708294,"317":0.09754336775598321,"318":-0.06881570112306241,"319":0.0044755188180381125,"320":-0.09659640135469343,"321":0.03235675849539212,"322":0.0282464448116317,"323":0.10413791436447788,"324":0.2674334723182725,"325":-0.08008717748533802,"326":0.14099988075854433,"327":-0.05354423340262576,"328":0.02036356806965887,"329":0.06972602163360615,"330":0.04346648555284892,"331":0.04157887190585772,"332":-0.018973708723895772,"333":-0.2441273082733225,"334":-0.004503705360812591,"335":0.056158129318729585,"336":0.03828613263692309,"337":0.08746229106902058,"338":0.1999281225806723,"339":0.45406939089387455,"340":-0.13048209344553544,"341":-0.018761285177009177,"342":0.006544293762615305,"343":-0.06544164089798818,"344":-0.0027823525100931514,"345":0.20161354574224097,"346":0.8848555682402629,"347":0.022328936373515452,"348":0.002004278430331282,"349":-0.04064789907730662,"350":0.07385840122305304,"351":0.13550979916429046,"352":0.2371220260502071,"353":-0.5230273085578144,"354":0.16512021950361383,"355":0.05868084047074146,"356":0.04720655506445705,"357":-0.08085788597453664,"358":0.1310290526641701,"359":0.16488506931805363,"360":-0.4870706621912999,"361":0.026956433894774305,"362":0.05917230387762727,"363":0.04078865333233198,"364":-0.049586854507488766,"365":0.0877493670048722,"366":0.1324378195828623,"367":-0.5373067690372366,"368":0.08749727799661287,"369":-0.008241556564673496,"370":0.056587125172958073,"371":0.03906329686522364,"372":0.0346411111196115,"373":0.12045237669054548,"374":-0.4612208240139297,"375":-0.02536451201218966,"376":0.05932300630289622,"377":-0.004126330294244601,"378":-0.030579900660371997,"379":-0.0562774311283612,"380":0.10226013089749343,"381":1.1117752113633732,"382":0.1845688343205071,"383":0.06032538451243226,"384":0.0394578031973671,"385":-0.14003857470727415,"386":0.08040037822569446,"387":0.12439098866869062,"388":0.5717665362012215,"389":0.14510773617744344,"390":-0.0014614392396927632,"391":0.045884065552070974,"392":0.03465664880686084,"393":0.0048877000195616995,"394":0.07320241677812449,"395":0.11880635358396387,"396":0.1354041687626808,"397":0.003634970342315469,"398":-0.002846250070307673,"399":-0.09309811575630422,"400":0.10281805076782943,"401":0.1693621000032853,"402":-1.0646087743055137,"403":0.009877208303609155,"404":0.08241537185865672,"405":0.034313162048814225}},{"sx":1,"sy":1,"depth":406,"w":{"0":0.1935616477948922,"1":-0.06119349441887632,"2":0.004359848660496919,"3":0.0004906242551746741,"4":-0.01830420621987463,"5":0.026303121858465672,"6":-0.12003134657320672,"7":-0.011425046498643853,"8":-0.037585663613137206,"9":-0.11662828037698109,"10":-0.01715928369990674,"11":-0.01155157493669025,"12":-0.021502502132482577,"13":-0.03563182296838198,"14":0.025950682260170558,"15":-0.021140876326175076,"16":-0.1056026859221016,"17":0.0074151656502461465,"18":0.011103458216882457,"19":-0.041527692062342074,"20":-0.015449901472752815,"21":0.13601978837135803,"22":0.029102569155152573,"23":-0.11059435147377887,"24":0.08272884074215088,"25":0.011391109497131515,"26":-0.0757974168367698,"27":0.03655520186221088,"28":0.1396306861773746,"29":0.016650416386638393,"30":0.06843335195922272,"31":-0.023818186227830936,"32":0.01607853911023792,"33":0.038429961593918434,"34":-0.14099239021760987,"35":-0.025323799133264303,"36":-0.017411267598826524,"37":0.1370578541614282,"38":-0.13039427411504823,"39":0.081737131244585,"40":0.03306084622267712,"41":-0.002718202433148817,"42":-0.1581668424046445,"43":-0.0444325121942855,"44":0.11230985062320208,"45":-0.06772082383312086,"46":-0.11057237543446707,"47":0.031517708881402734,"48":-0.010311396920739726,"49":0.03660536284540076,"50":-0.04460013847157451,"51":0.05031948568422386,"52":0.013395656801284872,"53":-0.08566383560395426,"54":0.009750991780381376,"55":-0.07786394817993067,"56":-0.047213244595123195,"57":-0.05357337529994796,"58":0.1077760954114523,"59":0.05930856111155083,"60":-0.11586219524377636,"61":-0.01407115496691913,"62":0.0661002817566001,"63":-0.013825213096572182,"64":-0.06945181717305321,"65":0.0388875029819706,"66":0.13953237030972704,"67":-0.14673991836991987,"68":0.020513105785199447,"69":0.028505306491829255,"70":0.013350956933046183,"71":-0.09586132125560308,"72":0.02820030736263124,"73":0.007681289980351464,"74":-0.04497501273150897,"75":-0.11543315686936723,"76":0.03188850705481307,"77":0.010039994904185261,"78":0.013368986801773286,"79":0.07258058182265896,"80":-0.003795935218641978,"81":0.01737029699532003,"82":-0.031001507058514646,"83":-0.012206922473772275,"84":-0.08818514911878224,"85":-0.024356186978176007,"86":0.015930819741524188,"87":0.04181566618141503,"88":-0.014184791314848674,"89":0.028018042172281373,"90":0.0035694030590249087,"91":-0.14375698771205456,"92":-0.12867234026602611,"93":-0.1673025829162908,"94":-0.05451847712784153,"95":-0.10302799832084858,"96":0.03136168997839703,"97":-0.023967625837069958,"98":-0.06485733078341357,"99":-0.02741330131099434,"100":-0.028711491510290465,"101":-0.03952330781801069,"102":-0.007522896039383436,"103":0.05250933308905446,"104":-0.02463238747433892,"105":-0.018479971420747927,"106":-0.030170763463782002,"107":-0.14752518328095487,"108":0.034884008072300805,"109":-0.12352370709206542,"110":0.02999110835720235,"111":-0.08492925264781642,"112":0.06741594769785202,"113":-0.01066455287213122,"114":-0.02872323736688084,"115":-0.03639016952609128,"116":-0.015677150994820584,"117":-0.0692691583894903,"118":-0.011539648840072338,"119":-0.039072531650843366,"120":-0.031861624957347984,"121":0.028482953839350934,"122":0.05878838725565187,"123":0.06162897364355405,"124":-0.02829614193357167,"125":-0.0277273156139114,"126":-0.032607524751083326,"127":0.038210093449220224,"128":0.07319224784225334,"129":0.04043179198970173,"130":0.04219896450175404,"131":0.00809602382315031,"132":0.047561260051321066,"133":-0.13652709974685662,"134":0.10537779031852457,"135":-0.11481831330100745,"136":-0.0029249776811392423,"137":-0.002247966326250111,"138":0.007966218079739552,"139":0.019992559878987577,"140":-0.13229756000869136,"141":0.1336002761485865,"142":-0.020832530625085898,"143":0.061842343560138686,"144":-0.06334988149405979,"145":-0.006667162352322361,"146":0.049239568411788434,"147":0.031434885992609664,"148":0.13798073898971444,"149":0.11855975267544147,"150":0.061017814146836304,"151":0.03102566696728952,"152":-0.04340624343215476,"153":-0.020856289032607504,"154":-0.008885492626100498,"155":0.09487430774981441,"156":0.18863565154528028,"157":0.03883552741183671,"158":-0.029837845555243006,"159":-0.04678464986623095,"160":0.014712278357746751,"161":0.06973919387826279,"162":0.1499071189467547,"163":0.0997961530341122,"164":0.04701504202458707,"165":-0.04638652949848343,"166":0.03275544305937007,"167":0.018940008775416253,"168":0.03714418393987114,"169":0.1282909664257066,"170":-0.08801244425423324,"171":0.08828072941364608,"172":-0.08238603689804444,"173":0.03809364594883335,"174":0.02812570393430141,"175":0.04502550727523373,"176":-0.03293048642981994,"177":0.022183007283504967,"178":0.07185869843848315,"179":-0.07758968827223608,"180":-0.08686686925419414,"181":0.021850688148481987,"182":0.04360338200971257,"183":-0.015383318838720541,"184":-0.055542826097758076,"185":-0.05701101430917359,"186":-0.1835702343098101,"187":-0.013317152078989652,"188":-0.12478779430192034,"189":0.04177067136637134,"190":-0.11969666454319157,"191":0.018825763550117305,"192":0.03767083846759299,"193":-0.04075088344856186,"194":-0.08132404954847557,"195":-0.04351740519039838,"196":0.040562488723038255,"197":-0.09506078705422202,"198":0.05708342648945852,"199":-0.06609018283525048,"200":-0.0953039971882991,"201":-0.0314807119988362,"202":0.058975340520325256,"203":-0.0252298211278806,"204":0.12218147974757791,"205":-0.09369601197198775,"206":0.007422660735001519,"207":-0.1307054199865307,"208":-0.01827183411868656,"209":-0.02118902460342286,"210":-0.0027862696319071703,"211":-0.042395356494978005,"212":0.02900698535527061,"213":-0.0843201372160268,"214":0.011345239326891335,"215":0.02863957833086801,"216":0.05581684299634651,"217":0.0006679680255788762,"218":-0.015266794169592677,"219":0.029285123611238525,"220":-0.046363670063587326,"221":-0.07261809002005994,"222":0.09042806139085852,"223":-0.003903497105507936,"224":0.07519882147676582,"225":-0.055971823631998714,"226":0.14695098444578686,"227":0.0850535010105509,"228":0.0035001069559042358,"229":-0.0016600952693620382,"230":-0.08407812325275162,"231":0.03334826718016629,"232":0.030365056136854095,"233":0.0799908540360533,"234":0.0760155960550238,"235":0.025559450011901994,"236":0.0070353624811634735,"237":-0.007868615886356529,"238":0.03308902568617043,"239":0.061010874888758754,"240":0.16917207864302683,"241":-0.052617444152753615,"242":-0.058879853229668856,"243":0.03152457791767018,"244":-0.07237981804247592,"245":-0.0008817417390371039,"246":-0.004290768433501223,"247":-0.05887752780692905,"248":-0.04324374138625771,"249":-0.0316426657713526,"250":0.05638381077319022,"251":-0.04936466387284829,"252":0.1359537473241472,"253":0.06301814525946592,"254":-0.03150762744453815,"255":0.07769293903336884,"256":0.044077757687329217,"257":0.03526240282661551,"258":-0.014390594974971917,"259":0.08735516735385161,"260":0.018152559667222793,"261":-0.1732663636975998,"262":-0.09262649908747995,"263":0.020677688971017898,"264":0.02852615226650283,"265":0.018259188117564218,"266":0.11077513802876013,"267":-0.09075509040216322,"268":0.05974399903168412,"269":-0.05344028255168386,"270":-0.04902603621645919,"271":0.0012580361028094427,"272":0.062336082188085534,"273":0.004237756521111709,"274":0.044706564792898786,"275":-0.1336489765894742,"276":0.021022029307838856,"277":0.00027902479278285743,"278":-0.03118334821934728,"279":0.037372249371678275,"280":0.02385171721199643,"281":-0.06208643691510117,"282":-0.050637928045393965,"283":0.042790350394312386,"284":-0.01734272341343522,"285":-0.054436737332634225,"286":0.03506831874996809,"287":-0.0031751514132660197,"288":0.03536710304194824,"289":0.06840258942766057,"290":-0.08252983127579483,"291":0.03567185630262514,"292":0.013695258934511062,"293":-0.0748181134915234,"294":0.04574864814171648,"295":-0.0479791854807369,"296":-0.009726526405884022,"297":-0.14062844269821675,"298":-0.00953848584053057,"299":0.0032366378754246465,"300":0.08285929711019117,"301":0.02245953720868907,"302":-0.12206715448109982,"303":-0.0837197772576369,"304":-0.08982621871880571,"305":-0.010456411219259694,"306":0.11897642966485966,"307":-0.09093835156087589,"308":-0.037542396122696706,"309":0.013159518804002648,"310":-0.17799116669428633,"311":-0.2417357058590048,"312":0.022111911648585145,"313":-0.00293695434611011,"314":0.10023907776879117,"315":0.036242598687834984,"316":-0.16487673334961472,"317":-0.09503845999321281,"318":-0.1586364976871586,"319":-0.09126676661903145,"320":0.008110134865272659,"321":-0.07469374930474623,"322":-0.05522843290897426,"323":-0.20751341285269723,"324":-0.07798089594976879,"325":-0.15420548034810438,"326":-0.03382979204561996,"327":-0.0713135868770913,"328":-0.11345604842417546,"329":0.035279176563114266,"330":-0.07810778892571305,"331":-0.030491282433362726,"332":-0.11103949149610515,"333":-0.0001403158029697534,"334":-0.018734290772566276,"335":-0.09686421281976078,"336":0.0753719670852527,"337":-0.1453900598407236,"338":-0.09706248436910722,"339":-0.05302421828131618,"340":-0.018900665345020936,"341":0.04822786933364845,"342":0.04197321620386432,"343":0.06530569466039811,"344":-0.16912472846133653,"345":-0.04562599484513484,"346":-0.00646391262599861,"347":0.011086662804512967,"348":-0.08009970512495532,"349":0.047123915673898245,"350":0.09293558062284046,"351":0.07393313480717413,"352":0.0978461141288743,"353":0.08411568033930245,"354":0.0826872482335243,"355":0.012173486109326209,"356":-0.0834861006346571,"357":0.007846728537227824,"358":-0.08075207272132306,"359":0.17981421948473747,"360":-0.04123583870785434,"361":0.019577863890050805,"362":-0.016835046046038363,"363":0.02453507532298202,"364":-0.019701358249889684,"365":-0.0001053706976636535,"366":0.16025229353189105,"367":0.08814215798825659,"368":-0.0641567409618949,"369":0.004475107547486412,"370":0.04843910657425507,"371":-0.04766469717708572,"372":0.06146452598345133,"373":0.15496161964009755,"374":0.007937392787110727,"375":-0.01639256758854844,"376":-0.007412164570592826,"377":-0.06939450376200947,"378":0.05652490320042016,"379":0.09834329974224712,"380":0.06752977040324726,"381":-0.020035000314031746,"382":-0.1017830791988775,"383":0.002821667689887114,"384":-0.05380215121842324,"385":0.005838990911574435,"386":0.0028327559519733666,"387":0.2042660072100477,"388":-0.06198539073748631,"389":0.023249502943812894,"390":0.02257678680656873,"391":-0.04388208327979414,"392":-0.08935789755963355,"393":0.08533845975131393,"394":0.15486136505422593,"395":0.08143846221565117,"396":-0.1549242802145291,"397":0.05367095701614771,"398":0.03185015896490185,"399":-0.07603574999586095,"400":-0.10092380805304682,"401":0.20551381843630256,"402":0.06087079860381261,"403":-0.13501358179129744,"404":0.00920084486245171,"405":-0.08495927888439526}},{"sx":1,"sy":1,"depth":406,"w":{"0":0.05973402472185046,"1":0.04853259491713696,"2":-0.04491407938264819,"3":-0.04798598301797751,"4":-0.06114510870926159,"5":-0.013488788206327469,"6":-0.05053968397567387,"7":0.03038805574274632,"8":0.14722415626424754,"9":-0.012504125044266,"10":0.05715899042651796,"11":0.02587431848603085,"12":-0.13928473521558613,"13":0.030203719678854393,"14":-0.0028717305186279933,"15":0.00307046359336792,"16":-0.02265810459478302,"17":0.010754853230946472,"18":0.09709661817711145,"19":0.020253058932996528,"20":-0.04876761583544931,"21":0.02327835099446579,"22":0.040389935249966404,"23":0.005364044914624913,"24":-0.10059284201703614,"25":0.07281478723389194,"26":-0.026945636261798734,"27":0.0333963042041355,"28":0.0640403754025631,"29":0.06208771465442684,"30":0.06089981654758842,"31":-0.024417591692997426,"32":-0.0008145184993232408,"33":-0.09940082312031075,"34":-0.001850717735109646,"35":-0.0015637153777713058,"36":0.035512368885892376,"37":0.003935452229845677,"38":0.03107096918222771,"39":-0.10680169227351681,"40":0.0038914913726071487,"41":-0.025199463198809263,"42":0.018365123535110325,"43":0.015870980714141496,"44":-0.05682474960900637,"45":0.048121547708845226,"46":-0.017285487121326125,"47":-0.04513740931951139,"48":0.02382688027213342,"49":0.030208388923234006,"50":0.08093110088963246,"51":0.000006959616218583565,"52":0.04651222892158105,"53":0.05492245196692639,"54":0.025138066167553024,"55":-0.011442092041666345,"56":0.046658834820266844,"57":0.0021807859028381477,"58":-0.12186237658647671,"59":-0.01963279689171723,"60":-0.0359657840266786,"61":-0.0013597727163597172,"62":0.026513929932018388,"63":-0.0677968878587606,"64":-0.00024178125744632413,"65":0.01432899478304082,"66":0.00906118120028511,"67":0.022729466734902184,"68":0.16127768879839985,"69":0.15019041815038103,"70":0.01398219876761926,"71":0.002542517400836747,"72":0.17378789827867247,"73":-0.07727699973187621,"74":-0.05749208025548153,"75":-0.03135923501294899,"76":0.006615504727880962,"77":-0.01556873562982223,"78":0.0056626730536204865,"79":0.0879576790272478,"80":0.05563116111928106,"81":-0.010391120097686038,"82":0.05364165303303716,"83":0.062448720810447576,"84":0.005100965739458331,"85":-0.09369943339837597,"86":0.00487707506545051,"87":-0.0021510836509883676,"88":-0.016009393454320123,"89":-0.01243259606749823,"90":-0.14220344647963287,"91":0.05921081552028661,"92":-0.00684735645201627,"93":0.05206835477996332,"94":-0.026998449620881444,"95":0.015547919608966858,"96":-0.07134484678774493,"97":0.06659899770227684,"98":-0.01988429511830734,"99":0.01645063737493536,"100":0.035522289349538314,"101":0.06524553107596959,"102":0.021055923082700732,"103":0.07305258582153637,"104":-0.03639583606547987,"105":0.04642926962149255,"106":0.08162611147613767,"107":0.014180430467140783,"108":0.06289510546680079,"109":0.07964091767707478,"110":0.00045209383891190537,"111":-0.12235599670720168,"112":0.03741489517319843,"113":-0.06229087407862305,"114":-0.1212181277052783,"115":-0.0452694415020127,"116":-0.047524155077708685,"117":-0.06303548163833379,"118":0.021096122989629384,"119":0.0389876566667279,"120":0.020047787032495858,"121":0.010839609690842402,"122":0.05473469869415241,"123":-0.00994102054303372,"124":0.017446582645988636,"125":-0.08431572818689863,"126":0.03251087799622504,"127":-0.003339385200591833,"128":0.02202326280890983,"129":-0.02180200351217216,"130":-0.027899378248860938,"131":0.040050662455536956,"132":-0.002016233614362926,"133":0.148454981418673,"134":0.06883452783959254,"135":-0.0007248936087685377,"136":0.08507534597713352,"137":0.012372485453877414,"138":0.05149834114707292,"139":0.035889399973803235,"140":0.04060754484177172,"141":-0.00671692012668981,"142":-0.02802587866042741,"143":-0.006854692755959033,"144":0.029564172828041465,"145":0.08058166313423798,"146":0.032892285999183916,"147":-0.04801783644029645,"148":0.048541868275101284,"149":-0.030910562124461197,"150":0.07705559719561648,"151":0.030046763323467215,"152":-0.02809416945266618,"153":0.04935672032731513,"154":0.04563277458759705,"155":-0.0017896180307812087,"156":0.07435353459167783,"157":0.06442081130477625,"158":0.18588093238432998,"159":0.041682205849690505,"160":0.1031607604156154,"161":0.05717801125295735,"162":-0.03543472280022164,"163":0.0028954155282373173,"164":0.03363596344522524,"165":0.10517549986484852,"166":-0.026469991954948653,"167":0.09364016682082,"168":-0.008749627375264215,"169":0.023733692143688884,"170":0.006004418896648003,"171":0.01469462654147619,"172":0.11128557886462259,"173":-0.04519444580978314,"174":0.07803867512486183,"175":0.03020063802000156,"176":0.09042491226842088,"177":-0.044362683979951384,"178":-0.021440473763906166,"179":0.16252592902952712,"180":-0.01084199192476952,"181":0.04639338304103346,"182":0.0798122486028704,"183":0.051069726414926214,"184":0.08596967471058811,"185":0.10485915954579834,"186":0.09355232479916965,"187":0.06094758680092706,"188":-0.00026252411489029046,"189":-0.005684587432781772,"190":-0.014253200229267671,"191":-0.023576853441292935,"192":-0.024552934815100458,"193":-0.017186614866990448,"194":-0.041107802016040064,"195":-0.0522989424620074,"196":-0.0040655523995603024,"197":-0.013103599574641071,"198":-0.10717036785823454,"199":0.061592765319433716,"200":0.08338776851890026,"201":0.008028105411224047,"202":-0.009237473920186267,"203":0.029919480212353987,"204":0.10587378221410364,"205":-0.04620937890846809,"206":0.05348184003473982,"207":0.05493905587144046,"208":-0.02385839087163472,"209":0.005851527162105163,"210":-0.03124702000105606,"211":0.015815572780245684,"212":-0.04289191945146041,"213":0.04563721750848648,"214":0.03676444476049363,"215":-0.02543551564133128,"216":-0.043629487580977594,"217":0.029253268631482858,"218":0.005492263556484436,"219":-0.13506652332529737,"220":0.14571100957612476,"221":0.05549155143482278,"222":0.003850083525151907,"223":0.06225436197279246,"224":-0.0005257876815916276,"225":0.04654591890201928,"226":-0.016677151261990947,"227":0.09658943364308081,"228":0.21878953240666735,"229":-0.007197057727459525,"230":0.049179276820647155,"231":-0.039778306968802066,"232":-0.06312761837087881,"233":-0.09893385453880962,"234":0.10449131759344468,"235":0.031234703916043643,"236":0.06320125166705005,"237":-0.029245819643119824,"238":-0.005098053943897228,"239":-0.08124628697946848,"240":0.018396629686211283,"241":0.22356656586363052,"242":0.03019843041580623,"243":0.06670827767778002,"244":0.034719954993487796,"245":-0.021886087167335897,"246":-0.08464786534182778,"247":-0.06071485659539855,"248":0.28309887380340554,"249":0.033956341276719426,"250":-0.017812707402043278,"251":-0.04574333241616457,"252":-0.06079583517713555,"253":-0.05711272437592588,"254":-0.10097519112253965,"255":0.2876366191533191,"256":0.10484619073524679,"257":-0.037038302963063416,"258":0.04303289959760948,"259":-0.08076476235174769,"260":0.003126847671758017,"261":0.05757409369146071,"262":0.3495765852916685,"263":0.05410746006670119,"264":0.028383487162875583,"265":0.06339478863832189,"266":-0.059341854952742835,"267":0.030874827637222088,"268":0.05141205532664203,"269":0.36075882149170313,"270":0.2493290306326505,"271":0.014527008377811897,"272":-0.007052461466114814,"273":0.022226031689855413,"274":-0.03232002114276869,"275":0.09882606343585723,"276":0.32931612882790867,"277":0.04791910970832439,"278":-0.04350941965260768,"279":0.07261962695295307,"280":-0.002068101120817998,"281":-0.07109095954082897,"282":0.041196909708486155,"283":0.16808907734591605,"284":0.11589195649629992,"285":-0.06809562136417757,"286":0.035313499207246614,"287":0.047272657955684715,"288":-0.07470097595094564,"289":0.213410071620316,"290":0.24146748564333537,"291":0.06597880054375165,"292":-0.03598688988495265,"293":-0.04620335364948565,"294":0.02762863897026728,"295":0.03671388464389854,"296":0.2276219019281666,"297":0.1803413752850022,"298":0.28442600141693575,"299":-0.12204062459403967,"300":0.028858912261751773,"301":0.05121690417497394,"302":-0.047645933776107804,"303":0.0077600835870288406,"304":0.10435989764528933,"305":-0.25220493461339444,"306":-0.066691533019187,"307":-0.05609851258317131,"308":-0.090821741160352,"309":-0.06812000247599824,"310":0.12000332158083553,"311":0.21605018871708745,"312":-0.3189012508458511,"313":-0.07418944905686448,"314":0.06512476245615864,"315":-0.05611248084923823,"316":-0.08969425599712354,"317":0.30746411005491353,"318":0.3471378423735598,"319":-0.3792706781506587,"320":-0.09067763869886365,"321":0.13029882800674594,"322":-0.13444996839232073,"323":-0.10073347265568182,"324":0.18879665921690328,"325":0.27400605778744047,"326":-0.3623820376302444,"327":-0.08905491937905337,"328":0.00442058568050741,"329":-0.06579700282081785,"330":-0.11940657508210514,"331":0.1664097710401143,"332":-0.05052988504352089,"333":-0.1444938282552169,"334":-0.07180602074659796,"335":-0.002476911369242256,"336":0.037221252925653106,"337":-0.08198170685867029,"338":0.24867007650209555,"339":-0.4156233119014595,"340":-0.30550011903081026,"341":-0.016306123608747405,"342":-0.030956911314359868,"343":-0.06926841592924671,"344":-0.038333795947454376,"345":0.386393809612853,"346":-0.7240728975913383,"347":-0.4264294063543872,"348":-0.05263511948363131,"349":0.010721348503667657,"350":-0.0822435528316634,"351":0.016335352101828262,"352":0.14416140467066363,"353":0.5569052325672467,"354":-0.2220400258154112,"355":-0.015652175295697436,"356":0.07826613139907271,"357":-0.007705389734643337,"358":-0.029254691309088542,"359":0.1677544684669461,"360":0.5396952064750734,"361":0.00968412777682555,"362":-0.06227047064743207,"363":0.08282991576580254,"364":0.03369975540619652,"365":-0.04218520563103152,"366":0.13537459777710567,"367":0.5365170778244917,"368":-0.036360418786950476,"369":-0.013398759916354936,"370":-0.050295628463506166,"371":0.010039021034428268,"372":-0.05886446967951405,"373":0.4269451320276674,"374":0.5807436005919139,"375":-0.12076974062853646,"376":-0.04736102254821764,"377":-0.005331097735079798,"378":0.07006046065014535,"379":-0.027760640638687988,"380":0.08985346957940268,"381":-1.2005405260065884,"382":-0.03427738646362162,"383":-0.04602329546400846,"384":0.04875131462163214,"385":0.026062153419444727,"386":-0.014952156751145513,"387":0.0006575074914454446,"388":-0.31250669173487916,"389":0.04131430402911356,"390":0.08511117964622912,"391":-0.02114700056569334,"392":-0.011856248362860117,"393":-0.09597038015510949,"394":-0.0512396963048419,"395":0.17824155785125217,"396":-0.06526670265157392,"397":0.033510522990896005,"398":-0.023307432513485625,"399":-0.04157759657668847,"400":-0.05201845721111326,"401":-0.15416213890205827,"402":1.3452791711216696,"403":0.029179012635491667,"404":-0.007871383246078912,"405":0.08454317489644457}},{"sx":1,"sy":1,"depth":406,"w":{"0":-0.027871005911890925,"1":0.07128479925400433,"2":0.009718507844962669,"3":-0.03584830649749269,"4":-0.029041550049436957,"5":0.024557189682053147,"6":0.1042482543323956,"7":0.03210940786114951,"8":-0.04783356543699683,"9":-0.04228853315444184,"10":-0.04338261760817419,"11":-0.07548056197880977,"12":0.03814077371659236,"13":0.08567753133424448,"14":-0.024554725183882808,"15":0.06399669398734105,"16":-0.018650735118058634,"17":0.006351359274407881,"18":0.02600244426641229,"19":0.023821312157694226,"20":0.010312165271354852,"21":0.027827380719571783,"22":0.06653758751968086,"23":0.07097191976012165,"24":-0.055616626285338436,"25":0.036281558909931136,"26":0.03209820942040145,"27":0.029075156224911754,"28":0.08834152307388185,"29":0.035325100252442045,"30":-0.07914465820846292,"31":0.11261707151537093,"32":0.011867908121299309,"33":0.02130253902445982,"34":0.1538338059217591,"35":0.01916253788395049,"36":-0.03235708387408699,"37":0.03516517945761149,"38":-0.03210691112021378,"39":0.057078796974554875,"40":0.07190639369298596,"41":0.09312612105990808,"42":-0.10581425964462642,"43":0.05429928791638417,"44":-0.10854824229027632,"45":-0.01265548742142304,"46":0.0070208286189958604,"47":-0.031522035724658434,"48":0.06398611166871661,"49":-0.06916682694467653,"50":-0.16012833302061374,"51":0.018444430409140265,"52":-0.04853997072949112,"53":0.08522295422312111,"54":-0.02734698406002293,"55":0.020132464265742184,"56":0.05263751264083759,"57":0.09213088343384285,"58":0.047224528617995025,"59":0.005865374140783573,"60":0.06280418825809544,"61":0.10223781204483096,"62":0.04497391323213135,"63":-0.11709623086717665,"64":-0.013917746866143424,"65":-0.06891835430488007,"66":0.0007514520370437109,"67":-0.08196175461379679,"68":0.08621729812083581,"69":0.02035269952134184,"70":0.1572111260046117,"71":-0.01998963385661627,"72":0.04486518701384279,"73":-0.049127129049500395,"74":-0.045042238772839,"75":0.022875795056519536,"76":0.06017655104396987,"77":0.07084630940664251,"78":-0.0825685869999296,"79":-0.06568596606654112,"80":0.006381993971903383,"81":0.06290199606064727,"82":-0.053314681737962,"83":0.02362002933135179,"84":-0.06772389201406233,"85":-0.07255087335242762,"86":-0.013266950486317586,"87":-0.008719630921689479,"88":0.09406390050305036,"89":0.009676601662734577,"90":-0.00147335897636221,"91":0.022283446183529513,"92":-0.14311147768742952,"93":-0.03270409830978555,"94":0.06915432843634345,"95":-0.014899345835101635,"96":0.02870245562048552,"97":0.06794251689690865,"98":-0.025004547724127746,"99":-0.09337431061958266,"100":-0.04800632960670545,"101":0.0010979023079847833,"102":-0.024830248016071532,"103":0.04430390563653473,"104":0.04811544070573534,"105":0.009985730127395006,"106":0.012146270838033182,"107":-0.058241641950173915,"108":-0.08549342359670112,"109":-0.013033154059951316,"110":0.03803617411437323,"111":-0.05273718624294444,"112":0.10765880505349246,"113":-0.09221530585890823,"114":-0.01906498595810123,"115":-0.11018642352038494,"116":-0.03395710464882551,"117":-0.009248224042117075,"118":0.06653803106916172,"119":0.04617610387491174,"120":-0.04356756716955039,"121":-0.11843320736953558,"122":-0.0370208903224069,"123":-0.0711991673218552,"124":-0.021211639599072962,"125":-0.05489193247908305,"126":-0.0031669472498066864,"127":-0.08580369361687311,"128":-0.08346827939405756,"129":-0.042693836103590475,"130":0.12476605711610934,"131":0.03197934920066798,"132":0.1003618551303018,"133":0.06888489915089356,"134":-0.018730795887615986,"135":-0.08106570239360071,"136":-0.07923461610393266,"137":0.05276739244961694,"138":-0.004868755634659333,"139":0.004070333468172401,"140":0.04482089107175718,"141":-0.13259259903397863,"142":-0.044735032484972154,"143":-0.1387556204518566,"144":0.03404246608387437,"145":-0.1058552673343153,"146":-0.04460818008607859,"147":-0.05929163903800345,"148":-0.014344063830834308,"149":-0.13805501278175097,"150":0.007467547774748593,"151":-0.11182877316316128,"152":-0.0857270096629283,"153":-0.030254535391710524,"154":0.08317391908943347,"155":-0.07326742574918835,"156":-0.06760085182023744,"157":-0.07464411366007101,"158":0.008253993639130486,"159":-0.03394546972265857,"160":0.05592483089401269,"161":-0.06823377145471378,"162":-0.0029021344562700268,"163":-0.1384161820267243,"164":0.005079205259112308,"165":-0.03993107750507557,"166":0.0021343537180998177,"167":-0.016388120706085557,"168":-0.04349773416931266,"169":-0.14441398827112717,"170":-0.11945007309391448,"171":-0.11079382494684341,"172":0.03314515647613786,"173":-0.0806068167595573,"174":0.030154342877275957,"175":-0.013015753038550841,"176":-0.16095653958098796,"177":-0.03651926446030644,"178":-0.03442819585963884,"179":0.052915741954214064,"180":0.021218365982757142,"181":-0.02939906736105941,"182":-0.028917524184559045,"183":0.009680931297912905,"184":-0.16541863407222895,"185":-0.05200764452765825,"186":-0.09117217569297881,"187":0.06452817399340426,"188":0.06421812376619945,"189":-0.05716763514164448,"190":-0.050899020627169306,"191":-0.18339012251592846,"192":-0.07316785981053582,"193":-0.017820287365808485,"194":-0.05211668849903804,"195":0.05726892441169097,"196":0.02871838350035576,"197":-0.06472381800938658,"198":-0.19951676987189562,"199":-0.013914537854823907,"200":-0.04056976367520613,"201":-0.04415804488049437,"202":-0.0006030969086745911,"203":-0.0551086412463457,"204":-0.14896086013237073,"205":-0.21115251546006727,"206":-0.020320093897360097,"207":-0.0718684115833754,"208":-0.021464279421523492,"209":0.039885089474316224,"210":0.02038617592006411,"211":-0.009091210807846818,"212":-0.17181204206270292,"213":-0.01643113156248348,"214":0.04546912544505799,"215":0.042080116695068455,"216":0.10014261922229457,"217":0.006767250684755569,"218":-0.10622768306596062,"219":-0.1357900490591163,"220":0.052729276231965265,"221":0.037215869455098166,"222":-0.038387686968751215,"223":-0.0071917419673213955,"224":-0.09383617064073646,"225":-0.03611306249251443,"226":-0.14504599079681638,"227":-0.07228292488924402,"228":-0.11091026419365854,"229":0.028227263700337308,"230":0.06993003097748612,"231":0.04563732853725557,"232":-0.09703355059668567,"233":-0.10064179174323037,"234":-0.03747524448435244,"235":-0.11009452649974377,"236":-0.07833516954478495,"237":0.0018783197737125288,"238":-0.009210976386178082,"239":0.02556813164893464,"240":-0.08890732310584587,"241":0.040907008473568214,"242":-0.0776662083807567,"243":-0.09626353268777568,"244":0.03690809451471661,"245":-0.020026533245344546,"246":-0.10998079696381687,"247":-0.10037658383930252,"248":-0.006701271199625515,"249":-0.1461641941484306,"250":-0.04089931271233262,"251":0.03495858592386798,"252":-0.09973691516250704,"253":-0.07523466498891695,"254":-0.04315383924030207,"255":-0.06367212958803148,"256":-0.17356048928602974,"257":-0.04269507061365705,"258":-0.0717324241618751,"259":-0.03718211033344404,"260":-0.007776429145526613,"261":-0.022653604866413837,"262":0.10460320747414224,"263":-0.042009489919198374,"264":-0.059936489313247486,"265":0.009799601210572063,"266":0.006055032730525806,"267":-0.0845653701978744,"268":-0.02961179898583491,"269":-0.008851653018687197,"270":0.18317043849083567,"271":-0.01281518810367657,"272":-0.006359422368228482,"273":-0.012390716392566635,"274":0.040468756345534464,"275":0.10869285811722242,"276":-0.02295650103399009,"277":-0.018759038604347054,"278":0.005153321048950276,"279":-0.07482513047938602,"280":0.003389076427768649,"281":-0.1199716342579009,"282":0.19342002606221784,"283":-0.005199045628821962,"284":-0.018191041280480366,"285":0.013612729408303798,"286":0.008257184378634227,"287":-0.04218841693996941,"288":-0.06091392905380768,"289":0.22226578800773136,"290":-0.011525508578562781,"291":0.09104862251132764,"292":-0.041721787519112964,"293":-0.026824425834957127,"294":-0.0037517890849727933,"295":-0.08501971783300732,"296":0.16483832897570844,"297":0.027764475156171357,"298":0.02145084251826947,"299":-0.04576886980040034,"300":0.03392543502173442,"301":0.04709426897191155,"302":-0.031488622070487506,"303":0.14063381001763528,"304":0.04742614198016657,"305":0.004532837460815132,"306":0.12073896938303554,"307":0.01280114580989914,"308":0.012438127869648312,"309":0.14259371438953605,"310":0.05991423424348412,"311":0.17877524955500118,"312":0.031525209659182714,"313":-0.05107496255176065,"314":0.05499051465675468,"315":0.10581888032050529,"316":0.13687949615968542,"317":0.0326601445562317,"318":0.09054579598467376,"319":0.012963172453840448,"320":-0.1197324377405771,"321":-0.012253192391922428,"322":-0.0548452647932939,"323":0.14866620642262549,"324":0.02898771450505374,"325":0.03954952579866028,"326":0.03908025673879631,"327":-0.17136973636351685,"328":0.038702770640515485,"329":-0.03448514997973354,"330":0.20540919111735942,"331":0.08622658224120298,"332":0.16581921936203886,"333":0.11075222935648926,"334":-0.04771652454427222,"335":0.018624598939438873,"336":0.015043978028177807,"337":0.19123517587470187,"338":0.1497932840652967,"339":0.15523111822546404,"340":0.12869933668119313,"341":0.008022280657298984,"342":0.07830740358548101,"343":0.027771541200330704,"344":0.2115741304723725,"345":0.1008104751375905,"346":0.13473535623231636,"347":0.07724867954294751,"348":-0.07830821374436647,"349":-0.0729412152856946,"350":0.059069352988273066,"351":0.08317437023514575,"352":0.052285988525780265,"353":-0.0712325868103799,"354":-0.008706038546037515,"355":0.014900050820011869,"356":-0.06390448304892206,"357":-0.022316384880578424,"358":0.07539975323910465,"359":0.10127857230975507,"360":-0.12212350098858084,"361":0.06312115367865007,"362":-0.09933044952613639,"363":0.040750489839669946,"364":0.0021667562176313332,"365":0.13289204125634022,"366":0.11243887900317717,"367":-0.12340047412938215,"368":0.18454917531464385,"369":-0.07149264818672595,"370":-0.10128186659332092,"371":-0.005505547777624385,"372":-0.010293605482383525,"373":0.122243232448384,"374":-0.08370215630717186,"375":0.11757003190084402,"376":-0.01599852318022702,"377":0.05158414962940351,"378":-0.01264936718643797,"379":0.1478092136475034,"380":0.08956785714147066,"381":0.20854369544104162,"382":0.011826770561212743,"383":0.002458287843213637,"384":0.031755740759286416,"385":0.11900161991325753,"386":0.008152928620615653,"387":0.034878437971192444,"388":0.1457362591164653,"389":0.05377304435613202,"390":-0.040498496313432615,"391":0.0015054775482673823,"392":0.01346894376931896,"393":0.02496123041971654,"394":-0.008417524756002014,"395":0.012188691442971517,"396":-0.055192499043556706,"397":0.018156387757122236,"398":-0.04273379305906523,"399":-0.018259793129760966,"400":0.058783013547859406,"401":0.04448433217612306,"402":-0.07000010061607433,"403":0.05469403752641807,"404":-0.07291258976946483,"405":-0.016976362218425974}},{"sx":1,"sy":1,"depth":406,"w":{"0":-0.12268317437676839,"1":-0.05503038821899264,"2":0.08450896993769394,"3":-0.03618893354456707,"4":-0.05592797979150988,"5":0.0016309622490984592,"6":0.01641053505128962,"7":-0.14157487061145596,"8":0.06464199870853267,"9":0.09835663576114002,"10":0.13354174420521767,"11":-0.09065063249842197,"12":0.0514969644957732,"13":-0.0650496287596551,"14":0.012042111652830405,"15":-0.10885676768189298,"16":-0.013197370081724112,"17":0.05247332999227532,"18":-0.014162901772578092,"19":0.1152930628299489,"20":-0.013058376451120509,"21":0.023878491188272344,"22":-0.07624038676736639,"23":-0.056948621574182186,"24":-0.045465269939465175,"25":-0.08064647149347479,"26":-0.02699401669590552,"27":0.04646827172162636,"28":-0.0011781257352937323,"29":0.006554190347156026,"30":0.01832195174888711,"31":-0.020098828080603207,"32":-0.02888970524525689,"33":0.035573700469218816,"34":0.03143652577630981,"35":0.003753130055330194,"36":-0.011213159234760833,"37":0.05339818463416965,"38":0.07415338810215377,"39":-0.08887459880108985,"40":0.03879929948222481,"41":-0.0335360330792413,"42":-0.08564377807114319,"43":-0.05713353320094575,"44":0.015347760406282216,"45":0.03384545827241675,"46":-0.012884438228045173,"47":-0.06275332040217782,"48":-0.06697847443676042,"49":0.06802796876701935,"50":0.02208631770920654,"51":-0.03180820196798276,"52":-0.0042419856132904455,"53":0.0009991770858009833,"54":-0.038338613857206764,"55":0.0032437695701459904,"56":0.022702745960336623,"57":-0.06253222178786966,"58":0.03211997023922592,"59":0.0954003393362672,"60":0.0760780561052115,"61":-0.058483325213456845,"62":0.05002608973996561,"63":0.020400103424409975,"64":-0.018257641605479977,"65":-0.1046251196569505,"66":-0.025791782630951297,"67":0.021911096075131864,"68":0.016866757333797708,"69":-0.009730835016594644,"70":0.022105300607675724,"71":0.08808902600345095,"72":-0.029158832733916663,"73":-0.07462677943757752,"74":-0.02868316208380919,"75":0.07767135581803074,"76":-0.05713052205894558,"77":0.015239231584152071,"78":-0.09015001390801895,"79":0.023817533256310294,"80":0.010941220311766222,"81":0.008472199686688315,"82":0.03526255898541167,"83":-0.045908874399552914,"84":-0.04568776573915158,"85":-0.12469982345984393,"86":0.04077783058070548,"87":0.021152547772880757,"88":-0.026655241297871606,"89":-0.057558291604648905,"90":0.06214852584036526,"91":0.017064464006255112,"92":0.0208240865145417,"93":0.013665933237334319,"94":-0.016851642339343394,"95":0.01764121879413327,"96":-0.0076043723656024085,"97":0.11593790858406598,"98":-0.09645292902993405,"99":0.03532648896213266,"100":0.03910130225029518,"101":-0.0758029021399852,"102":0.12310385941757805,"103":0.11601047014774059,"104":-0.07402162847845538,"105":-0.02840000068051558,"106":0.00712575931876183,"107":0.11225031281850452,"108":0.014570397044851264,"109":0.043520407347252106,"110":0.1892143766836439,"111":-0.013198683125068963,"112":-0.022891450596394594,"113":0.10300978664518926,"114":-0.05080839063666323,"115":0.02038603734988508,"116":-0.07357911266219577,"117":-0.049095190299456776,"118":0.09570352478723158,"119":0.0948995025469092,"120":-0.00873748625108829,"121":-0.041851086387995604,"122":0.017498068103623997,"123":-0.020841907884836124,"124":-0.00020917133548856588,"125":0.026279811668367636,"126":0.024022996631080717,"127":0.03495521252417926,"128":0.04872341880748221,"129":0.1417767025284479,"130":0.006571365321105145,"131":0.06293140356456724,"132":0.016240411966471906,"133":-0.0907308558949554,"134":-0.0257391658257183,"135":-0.0453658813923964,"136":0.06211308549227526,"137":0.015115426535716096,"138":0.0827471267380224,"139":-0.015315265013442665,"140":0.0731100462973582,"141":0.08432173198681096,"142":0.008726992252189657,"143":-0.047431175076422354,"144":0.08154104194707115,"145":0.13919414696468088,"146":0.03616669620254959,"147":0.05284506224631485,"148":-0.040313707542305975,"149":-0.04138077822621031,"150":0.06052481389867832,"151":0.11185338075268193,"152":-0.03805208429067659,"153":0.02554562291208716,"154":-0.010429053475975607,"155":0.06997275282147411,"156":0.010193752808534334,"157":0.07826681575339477,"158":0.07649918634308579,"159":-0.1537739964477913,"160":0.08746778954538786,"161":0.11299559353956198,"162":-0.08112459638553464,"163":0.017134360151841357,"164":0.08565979373328522,"165":0.0013225535539682293,"166":-0.048581152820000396,"167":0.07357347551669255,"168":0.05670732219507967,"169":0.0038890642350493036,"170":0.060151961159441686,"171":0.10008631976860131,"172":0.03272990659851167,"173":0.008589982112487607,"174":0.0066009968760665245,"175":-0.014341392044014361,"176":0.02470902091127046,"177":0.03918285866365791,"178":0.04361910657741761,"179":-0.04910329400619877,"180":-0.038472789489657724,"181":-0.052756911749394814,"182":-0.08997380227775917,"183":-0.06646234552331665,"184":0.14133908917054103,"185":0.06519544880972661,"186":-0.041896315568181054,"187":0.02927015192739182,"188":-0.0222154285793838,"189":0.08239703816351214,"190":0.02788623832613381,"191":-0.024418845653227626,"192":0.08376200145194342,"193":-0.007835198973663398,"194":0.04147047006689348,"195":0.08236557035768802,"196":0.09907127134773401,"197":-0.1337690893525903,"198":0.12104897917203337,"199":0.1403672339508773,"200":0.053669303440191614,"201":0.008725002677201412,"202":-0.019946143286870114,"203":0.004748095033956865,"204":-0.04976491948678952,"205":0.1291493901077675,"206":0.17965830425548546,"207":0.07237038835347626,"208":-0.07541343261392319,"209":0.057003530436371186,"210":0.05361096991286456,"211":0.007585826604427415,"212":0.03046239124228731,"213":0.057832115611195306,"214":-0.048759524216036035,"215":0.020350984557171665,"216":0.05800209917065086,"217":0.036905755021523524,"218":0.0757512461033142,"219":0.016002462479263378,"220":-0.029313600266576086,"221":0.03912504175991599,"222":-0.07750144471684188,"223":-0.0500124080604913,"224":-0.0536530778917273,"225":0.017419855191270282,"226":-0.029056412084938105,"227":-0.0048491649873868715,"228":-0.06277775415670668,"229":0.02561627240367235,"230":-0.03772538913303068,"231":0.05690436740270951,"232":0.134010070687071,"233":0.0553921754161725,"234":0.04468693839796852,"235":-0.007587030963515585,"236":0.024308451822547168,"237":0.0649421642318591,"238":-0.06058841084145661,"239":0.06710460077733164,"240":-0.036013652558198314,"241":0.10163409275967514,"242":-0.03758381226970486,"243":0.020125933282338252,"244":0.02548140319913191,"245":0.060231257846482436,"246":0.05012629779376696,"247":0.008810231066417033,"248":0.007607808777726301,"249":-0.09407881183994567,"250":-0.019121175065166786,"251":0.08562650744038411,"252":0.03416593827996137,"253":0.030943360812880422,"254":0.06841735818360803,"255":0.006223926537398601,"256":0.015684409404184915,"257":0.03630778941920664,"258":-0.08614112314010387,"259":0.0025231902922621787,"260":0.04370355863435045,"261":-0.11759727180714952,"262":-0.07268173621778969,"263":-0.1292497004258562,"264":0.0015548664694973364,"265":-0.048282044442161436,"266":-0.02957164220235147,"267":-0.06320329140422061,"268":-0.09658320807595966,"269":-0.28763750151756917,"270":-0.09256493038927217,"271":0.03536968022002084,"272":-0.05205980705708028,"273":0.013819835769558086,"274":0.04512979348043458,"275":0.04958121552177181,"276":-0.3385932325867061,"277":-0.08037041373768394,"278":0.04369244895505016,"279":-0.1348182702625079,"280":0.02128053399644983,"281":-0.07511554738044106,"282":0.2187412628268858,"283":-0.57621622227251,"284":0.023945422890701035,"285":0.08437984407849952,"286":-0.09901811306592367,"287":-0.06463270137080744,"288":-0.05076471883087155,"289":0.0746967972702088,"290":-0.30813918191313183,"291":0.12239618375403531,"292":-0.016893386599311208,"293":-0.011961819145065935,"294":0.1266441226585582,"295":-0.04099387694260122,"296":-0.06760065100909103,"297":-0.29772585779698235,"298":0.016602742277440057,"299":-0.11325711014230609,"300":-0.04214276430302591,"301":0.07024936131196453,"302":0.09818479666218985,"303":-0.2971293241116518,"304":-0.47382006978222113,"305":-0.04314692198941411,"306":-0.012347864250068353,"307":-0.08336703009384488,"308":-0.031306991997399246,"309":0.054117792410125515,"310":-0.4507284342526126,"311":-0.21204415988095587,"312":0.006914340903069338,"313":-0.0027924178167698962,"314":0.03605188555097665,"315":-0.008915570941664376,"316":-0.015632528481600107,"317":-0.3850890100834721,"318":-0.14168780105426995,"319":-0.08341719570157051,"320":0.006078322612034485,"321":-0.028658977073925597,"322":-0.0582757011304442,"323":0.036816858482510345,"324":-0.2798768260031189,"325":-0.08883822886635524,"326":-0.02565693974955901,"327":0.03058215152399587,"328":0.0652330894436496,"329":-0.04424940738346612,"330":0.07641440331780572,"331":-0.17258027660280792,"332":0.29262688337068793,"333":-0.06590366691475565,"334":-0.008480212007940014,"335":0.09530889959339914,"336":-0.06583416600525739,"337":0.03312113166378807,"338":-0.32225281470150946,"339":0.0836415725906457,"340":-0.12827406112684925,"341":-0.026215558813792814,"342":-0.07538712393529798,"343":0.06721294818828327,"344":0.04390280896944796,"345":-0.2811557115905358,"346":0.2771509339931408,"347":-0.030024000013853195,"348":0.0129463657130596,"349":-0.062187166156202865,"350":-0.06242899755166191,"351":0.053215343777997935,"352":-0.12903092233893731,"353":-0.13489024717795478,"354":0.14136940645704368,"355":-0.10846669291989793,"356":0.06688055591160634,"357":0.003914382824393211,"358":-0.012736243249112468,"359":-0.0649294280553075,"360":-0.06885443738797352,"361":-0.05050339129013277,"362":-0.08522189046708918,"363":0.07878495917321879,"364":-0.002006267229247728,"365":-0.0695432342576664,"366":-0.12312391861457987,"367":-0.12480218755650498,"368":0.0180862632527001,"369":-0.09227836167888137,"370":0.12362902355892354,"371":-0.0002021522693773469,"372":0.032444367859685,"373":0.22206336301681956,"374":-0.1077324855301098,"375":-0.0018770169051336865,"376":-0.004077884047438418,"377":-0.013024030226502383,"378":-0.02844984368182408,"379":-0.051396748671287136,"380":0.0520779698683977,"381":0.30292793493699727,"382":0.0847542154074581,"383":0.042570282232661946,"384":0.04553055857138119,"385":0.0554653527309306,"386":0.07988736066670375,"387":0.004906245498958522,"388":0.18396156698500696,"389":0.05657772104874981,"390":-0.002369877957662886,"391":-0.01872553943880514,"392":-0.008046838626267016,"393":-0.024959569379155985,"394":0.03855801094533778,"395":-0.010488075944818915,"396":0.055248963807659396,"397":-0.09312806247456448,"398":-0.011063427538601607,"399":-0.04490388517700688,"400":-0.031198388049875497,"401":0.07240792611463456,"402":-0.2833927562453159,"403":0.08744209115335815,"404":0.01443286520387509,"405":-0.025044925811369755}},{"sx":1,"sy":1,"depth":406,"w":{"0":0.19128130288074643,"1":0.09810729913452527,"2":-0.07887010204285388,"3":-0.08910467170060318,"4":-0.04186402767690245,"5":-0.04899253123265387,"6":0.14657431761370537,"7":0.04877993994418797,"8":0.06213507064797325,"9":-0.016941012344776987,"10":-0.18061272215153576,"11":0.022043113562448993,"12":-0.08364590919859073,"13":0.04736215786087578,"14":-0.02741925113937744,"15":0.07212408543469664,"16":0.036397444978640364,"17":0.08965146320197126,"18":0.06529336053326194,"19":-0.09438018723504467,"20":-0.02477954395535803,"21":0.05554773346647847,"22":-0.14698627036365935,"23":0.08724073659694737,"24":0.035916716406271046,"25":0.04004032651198857,"26":-0.09193659357987222,"27":-0.0275893380051704,"28":0.0482756566028739,"29":-0.006337036775889215,"30":0.014076475722189324,"31":0.12942537547809205,"32":0.017268302482468235,"33":0.03208236339545754,"34":-0.07883986973018928,"35":0.039507085551629816,"36":-0.06710579680686943,"37":-0.008528879212279272,"38":0.0017739520354808401,"39":-0.0008525168733183806,"40":0.08061683054771861,"41":0.007963011083186712,"42":-0.047552844054452495,"43":-0.10044510217796213,"44":-0.045127096920605105,"45":-0.022492495704113803,"46":0.032995761641777935,"47":-0.00599383151427037,"48":-0.11315460298889447,"49":0.04169296263898209,"50":-0.17360306996140015,"51":-0.025342853292991192,"52":0.009035425115951562,"53":-0.002696144578504306,"54":0.16685272896808526,"55":-0.10452488170210084,"56":-0.03976296367544423,"57":-0.07105575982181069,"58":0.02609337522474113,"59":0.08980878632216538,"60":0.14732140385269438,"61":0.023798508413767714,"62":-0.022086771380393836,"63":-0.07284418876985213,"64":0.02537236282262327,"65":-0.03414213171563131,"66":0.11625306516511552,"67":-0.008723737705853489,"68":-0.057047016223698704,"69":-0.07680577523073205,"70":-0.03105832869126716,"71":0.13304340852003557,"72":0.06386923233260763,"73":0.01079293926834063,"74":0.041227931266153796,"75":0.008864023063993434,"76":-0.012172849092003913,"77":0.025796769708052256,"78":0.016800381759384725,"79":0.019694249392338475,"80":-0.008419801023764013,"81":0.037046905097044454,"82":-0.07753257877166911,"83":-0.052125408600018935,"84":-0.021443298627088794,"85":0.02333437017512307,"86":0.044802922778950476,"87":0.010768853064742474,"88":-0.07416172734881725,"89":0.1370550164878027,"90":-0.01354853442368991,"91":-0.06289290043977255,"92":-0.06124712234747445,"93":-0.05750832444231872,"94":-0.02158075629866573,"95":-0.07314133493173455,"96":0.04060912184703132,"97":0.013713846229942872,"98":0.01520837383093807,"99":0.08054743305008245,"100":-0.04192421422259468,"101":-0.02185444743599717,"102":-0.001325981948512924,"103":0.1160929351692096,"104":-0.05026327059648989,"105":-0.03664673062626692,"106":0.053262924398384384,"107":0.06214297426799668,"108":0.08426146786938495,"109":0.056169735885458136,"110":0.002199322475420779,"111":0.1761301833922165,"112":-0.018537522731224807,"113":0.026845500675487976,"114":0.05179499139001969,"115":-0.06222798269534376,"116":0.09367166378865113,"117":0.11778400503524625,"118":0.004625194621759469,"119":-0.008378089968391025,"120":-0.013704217418673063,"121":-0.003957937827698744,"122":-0.02748911828139381,"123":-0.04797926255053099,"124":-0.02173407920291456,"125":0.010247623749483887,"126":0.010275294759093624,"127":0.0641017682068007,"128":0.015795480153731382,"129":0.09964749942746659,"130":-0.0037196537530336683,"131":-0.2349466708453086,"132":-0.010658225972896817,"133":0.0056050426385825984,"134":-0.008306579343540817,"135":-0.0007580426807722808,"136":0.04014472538508701,"137":-0.007622079219598344,"138":0.02137703002736756,"139":0.0685866674634512,"140":-0.04751730170297731,"141":-0.04607698695903971,"142":-0.03764324637387585,"143":-0.03597811344768014,"144":-0.10585857794934665,"145":0.022772365441842364,"146":-0.07093024349912061,"147":0.012998932480186569,"148":-0.0980427205786615,"149":0.11938419587832953,"150":-0.005254019853356045,"151":-0.022085196719806095,"152":0.013214945895981699,"153":-0.021571722358896355,"154":0.07981504171490894,"155":-0.0111354431819034,"156":-0.027730600003163186,"157":0.05412795673727355,"158":0.03579487486679877,"159":0.026645954971776842,"160":-0.026463399359765345,"161":0.04863753397697699,"162":0.0789702144717836,"163":0.07333206367426383,"164":-0.028634213271873134,"165":-0.05663716437909764,"166":0.017887786233969822,"167":-0.10976032079886414,"168":-0.044468412375676794,"169":-0.009488762957321631,"170":-0.1447125716300581,"171":0.01980306752264843,"172":-0.08903939048737085,"173":-0.01780520873759168,"174":-0.040497544742783276,"175":0.06501258050544066,"176":-0.024751363097107442,"177":0.010092399454047045,"178":-0.09683420896166099,"179":-0.10272762311773422,"180":0.024264903947631332,"181":-0.005645765357370577,"182":-0.021491778636653955,"183":0.04237562786494044,"184":-0.07804380819715223,"185":0.035552915087251565,"186":0.08349244706700787,"187":-0.05202738012622962,"188":-0.07983212190174976,"189":-0.000619369564329389,"190":-0.06717274842493796,"191":-0.11691326491133176,"192":0.04004417721555921,"193":-0.03371889353861811,"194":0.11989768900118358,"195":-0.05020031723619643,"196":-0.019139877094764828,"197":-0.07428622887988219,"198":-0.06112941319755537,"199":-0.06847046785623812,"200":0.11363086423924491,"201":0.08437924675157574,"202":0.007646980634892238,"203":0.03860277741016347,"204":0.010951115077725369,"205":-0.09926131585394268,"206":-0.0006390611832268375,"207":-0.030422584549669444,"208":-0.04656626226356485,"209":0.007324215075874485,"210":0.0289316392816411,"211":0.031364835284168516,"212":-0.12303987400676639,"213":-0.12825507609535064,"214":0.058382589476938654,"215":0.034931658833259716,"216":-0.09247686308577754,"217":-0.008433702058066563,"218":-0.0007804597283679734,"219":-0.15185275377104768,"220":-0.017321427450215504,"221":-0.05385041280883554,"222":-0.07993691388350559,"223":0.029989750523318464,"224":-0.054782027568968064,"225":0.0147720414545282,"226":-0.062023749783858315,"227":-0.0026613448258020833,"228":-0.05724537904939516,"229":-0.010889189338712312,"230":-0.06291588921656152,"231":-0.13627101596219182,"232":-0.11785398542231257,"233":-0.1415630281327027,"234":-0.0009813956372054433,"235":-0.05265687692688061,"236":-0.048790981740810646,"237":-0.17178074743122365,"238":0.048316980749504176,"239":-0.07824664658974814,"240":-0.12201122138895634,"241":0.006506036321644156,"242":-0.0037757327067308405,"243":0.000330442002818129,"244":0.0254454037756209,"245":0.04252036796594036,"246":-0.03427535627710621,"247":-0.049485741511584115,"248":-0.02858576001650313,"249":0.10983403069813856,"250":-0.051371867969014516,"251":-0.11181103180562056,"252":0.01111046519920217,"253":-0.14750499223111857,"254":-0.07853968932924973,"255":-0.10647666230653109,"256":0.020446555043453916,"257":0.10544056848742053,"258":-0.012623384518990893,"259":0.020026369840886273,"260":-0.09301629457141565,"261":0.056424029682006764,"262":-0.1280129569997443,"263":0.19124519846561044,"264":-0.05379230985356565,"265":0.10922371180196587,"266":-0.03964930247032858,"267":-0.06699612365760557,"268":0.00381283414934569,"269":-0.22832272764023667,"270":-0.009569818561477149,"271":0.028863483284065974,"272":0.0007807327106405178,"273":0.10092558004526536,"274":0.11668656569689581,"275":0.11508091204980182,"276":-0.19785681898551044,"277":0.1577728820224424,"278":-0.013076618449680232,"279":-0.05720902855060689,"280":-0.07742999445418011,"281":0.013514609723080797,"282":0.003821086244349544,"283":0.05417991167178269,"284":0.17731491067425825,"285":-0.002349315156484955,"286":0.042806028318432804,"287":-0.0018262339906637496,"288":0.1453255598228929,"289":0.10805200352675695,"290":0.08067975391440534,"291":0.08109584924007182,"292":-0.10050940323651097,"293":-0.04513983519937751,"294":-0.08742961435449174,"295":0.03337884383802169,"296":0.1734850111781329,"297":-0.030280168108415734,"298":0.1650747552932096,"299":-0.1038069743892379,"300":0.06946484252824825,"301":0.034705328611837206,"302":0.021368541014259376,"303":0.05639923083558993,"304":0.2046833201027137,"305":0.03105952383407086,"306":0.007777116120133744,"307":0.02761538626466348,"308":0.023193465232209838,"309":0.17270606545548456,"310":-0.0028649497277607235,"311":0.2585468982327736,"312":0.009127172051678848,"313":0.006184813839215604,"314":-0.008594002674312146,"315":-0.0034784601751675294,"316":0.1500775116032148,"317":0.09031325658748271,"318":0.03469905296697206,"319":0.06343961500797377,"320":-0.028463330127501667,"321":0.036349158868349316,"322":-0.0009952636912110222,"323":0.012288403368169795,"324":0.011987700221544089,"325":0.21606765640227493,"326":-0.0591510189099832,"327":-0.04312711424227302,"328":-0.08575278211151444,"329":-0.116406194859112,"330":-0.03614007294368184,"331":0.16497261593003418,"332":-0.059470892859951975,"333":-0.0126129003078159,"334":0.1215674545301396,"335":-0.05111730106813739,"336":-0.10727252680644143,"337":0.037537418449371626,"338":0.20889947413458074,"339":-0.03303971411412592,"340":-0.02742977336217371,"341":-0.04737429308672946,"342":-0.05742093917801544,"343":-0.08644254631599839,"344":0.03979027809017692,"345":0.14940921086093098,"346":0.1883008823407282,"347":0.019166671315786254,"348":-0.03392581643980706,"349":-0.12698913563560243,"350":-0.046889933060302195,"351":0.030469277908069987,"352":0.1571017767524849,"353":-0.08307138295091324,"354":0.055724194782289634,"355":0.07160016455050909,"356":0.07645652213422531,"357":-0.01643930973002871,"358":0.06888964904662277,"359":0.14616004000352747,"360":-0.14343659221583724,"361":0.04887304208879414,"362":-0.08698194700156747,"363":0.19955181126388258,"364":0.1100681772256845,"365":-0.11487993974265591,"366":0.05071755616191199,"367":-0.02814710162339685,"368":-0.11195096479744268,"369":-0.030217335921581958,"370":0.12100489882981239,"371":0.09870804732761908,"372":0.01143990840862779,"373":-0.04833902452618101,"374":-0.025404787814199425,"375":-0.19723569329171464,"376":0.08101617163118391,"377":0.13591433024193378,"378":0.08068582709114487,"379":0.025580763979900903,"380":-0.11466458339579964,"381":0.16223778900230879,"382":-0.047323483138212226,"383":-0.0009926855044072292,"384":0.011744335108106975,"385":-0.034026583386173724,"386":0.02469459818032643,"387":-0.10694710748546585,"388":-0.02511056702533781,"389":-0.042634577927385696,"390":0.15825038941515693,"391":0.0088262848434424,"392":-0.07956107877948045,"393":-0.03189698361519661,"394":-0.25001696068426826,"395":-0.08542960667115615,"396":-0.19378365604694386,"397":-0.07274596633258082,"398":0.16308107882624387,"399":-0.09206679899939783,"400":-0.12410148783001691,"401":-0.24753159561276053,"402":-0.23772387128036912,"403":-0.28841760194578964,"404":-0.014471450968702728,"405":0.15223733079964671}},{"sx":1,"sy":1,"depth":406,"w":{"0":0.1456685563041807,"1":0.014998316829665329,"2":0.007932111845256492,"3":-0.04643577262683767,"4":0.010412269324249568,"5":-0.018723954664986484,"6":0.153767985358632,"7":-0.038073745156508715,"8":0.09622716925786277,"9":0.0688109118298783,"10":-0.0515080464539365,"11":0.004538465285320568,"12":-0.04630282568260258,"13":0.08283688515463365,"14":0.12462177577704996,"15":0.06309126591069687,"16":-0.05397372488997118,"17":-0.010970320527112953,"18":0.11971052657802822,"19":-0.0008040469052298867,"20":0.13756365759251393,"21":0.12364137091002851,"22":0.03405246570272577,"23":-0.008141781190968402,"24":-0.08004832660617651,"25":-0.051471838855092183,"26":0.04857493685500453,"27":-0.011866352814073368,"28":0.0694098773692401,"29":0.03393257348614483,"30":-0.04626550062540627,"31":-0.09011226656210439,